{
    "created_at": "2026-06-10T23:31:45.188",
    "n_complete": 100,
    "drop_coeff_only": [
        0,
        0,
        18,
        58,
        57,
        96,
        114,
        106,
        120,
        141,
        154,
        200,
        190,
        200,
        239,
        235,
        220,
        257,
        272,
        244,
        284,
        280,
        262,
        252,
        320,
        330,
        388,
        417,
        451,
        466,
        458,
        432,
        400,
        387,
        437,
        446,
        419,
        439,
        611,
        635,
        636,
        606,
        677,
        733,
        774,
        774,
        757,
        723,
        735,
        728,
        684,
        651,
        630,
        586,
        596,
        616,
        838,
        860,
        875,
        912,
        937,
        930,
        989,
        973,
        903,
        941,
        971,
        935,
        923,
        943,
        925,
        887,
        854,
        848,
        976,
        1026,
        1096,
        1188,
        1230,
        1306,
        1432,
        1509,
        1475,
        1475,
        1456,
        1436,
        1410,
        1384,
        1402,
        1378,
        1326,
        1309,
        1301,
        1257,
        1239,
        1177,
        1196,
        1249,
        1199,
        1248,
        1255
    ],
    "system": {
        "dt": 0.01,
        "P0_coeff": 1,
        "h": 3.04438,
        "P0_term_hex": "c000",
        "name": "chain16",
        "topology_repr": "[(1, 2), (2, 3), (3, 4), (4, 5), (5, 6), (6, 7), (7, 8), (8, 9), (9, 10), (10, 11), (11, 12), (12, 13), (13, 14), (14, 15), (15, 16), (16, 1)]",
        "P0_nqubits": 16,
        "n_layers": 100,
        "g": 0,
        "n_qubits": 16,
        "J": 1
    },
    "julia_version": "1.12.6",
    "n_dropped": [
        0,
        0,
        18,
        62,
        63,
        110,
        146,
        148,
        171,
        196,
        223,
        286,
        278,
        296,
        404,
        415,
        402,
        471,
        536,
        518,
        570,
        578,
        560,
        556,
        716,
        732,
        852,
        966,
        1114,
        1191,
        1233,
        1251,
        1258,
        1253,
        1331,
        1400,
        1383,
        1440,
        1851,
        1994,
        2027,
        2007,
        2293,
        2551,
        2824,
        2956,
        3007,
        3009,
        3136,
        3210,
        3194,
        3174,
        3164,
        3129,
        3232,
        3323,
        4180,
        4368,
        4584,
        4764,
        4987,
        5329,
        5655,
        5877,
        5940,
        6236,
        6351,
        6388,
        6425,
        6547,
        6601,
        6593,
        6619,
        6741,
        7176,
        7574,
        7997,
        8502,
        8920,
        9578,
        10247,
        10855,
        11148,
        11584,
        11654,
        11953,
        12162,
        12344,
        12551,
        12643,
        12660,
        12773,
        12832,
        12827,
        12885,
        12971,
        13277,
        13650,
        13643,
        13861,
        14161
    ],
    "overlap_kept": [
        1,
        0.9981469226820251,
        0.9925975148175246,
        0.9833811420257546,
        0.9705463940552953,
        0.9541605641870397,
        0.9343089377542992,
        0.911093911644169,
        0.8846339482041028,
        0.8550624133744726,
        0.822526304575934,
        0.7871849037785739,
        0.7492083828236333,
        0.708776388551397,
        0.666076634194139,
        0.6213035214187406,
        0.5746568165399996,
        0.5263403916513536,
        0.4765610577181868,
        0.42552748932273543,
        0.37344925171545773,
        0.3205359336133731,
        0.2669963717012463,
        0.21303798233784946,
        0.15886617113950385,
        0.10468381789942602,
        0.050690820415633754,
        -0.002916317943478269,
        -0.05594487307021476,
        -0.10820627322647004,
        -0.15951647308453423,
        -0.2096963521791515,
        -0.25857213098299564,
        -0.30597582916571886,
        -0.35174576355393383,
        -0.39572708912815885,
        -0.4377723869022749,
        -0.47774228303790617,
        -0.5155061020263395,
        -0.5509425382383125,
        -0.5839403337279033,
        -0.6143989496361859,
        -0.6422292047555309,
        -0.6673538821902133,
        -0.6897082709490475,
        -0.7092406338500619,
        -0.7259125845947605,
        -0.7396993611441673,
        -0.7505899831730879,
        -0.7585872910465804,
        -0.7637078531197666,
        -0.7659817347846872,
        -0.7654521591863677,
        -0.7621750241204945,
        -0.7562183112937978,
        -0.7476613871708206,
        -0.7365942104566275,
        -0.723116460400474,
        -0.7073366025093508,
        -0.6893709084646327,
        -0.6693424478066765,
        -0.6473800711768588,
        -0.6236173901885159,
        -0.598191790757597,
        -0.571243473651512,
        -0.5429145442277583,
        -0.5133481601570044,
        -0.48268773936365483,
        -0.45107623681938164,
        -0.4186555001247413,
        -0.3855656909415097,
        -0.35194478136242885,
        -0.31792810764691165,
        -0.2836479982514836,
        -0.2492334489913962,
        -0.21480985100627872,
        -0.18049874820288167,
        -0.14641764111195402,
        -0.11267980679394685,
        -0.07939413829287995,
        -0.0466649957738872,
        -0.014592063164801876,
        0.016729790490088606,
        0.04721065862379435,
        0.07676573841241502,
        0.10531547660276724,
        0.13278571810133227,
        0.15910785250035414,
        0.1842189519871735,
        0.20806191843961058,
        0.23058559501764736,
        0.25174487444339294,
        0.27150078279332795,
        0.28982053695218074,
        0.30667757459282774,
        0.3220515416479384,
        0.33592825555791733,
        0.3482996230365715,
        0.35916352308049887,
        0.36852364679409894,
        0.3763893032390276
    ],
    "hit_any_weight": [
        0,
        0,
        0,
        4,
        6,
        14,
        32,
        42,
        51,
        55,
        69,
        86,
        88,
        96,
        165,
        180,
        182,
        214,
        264,
        274,
        286,
        298,
        298,
        304,
        396,
        402,
        464,
        549,
        663,
        725,
        775,
        819,
        858,
        866,
        894,
        954,
        964,
        1001,
        1240,
        1359,
        1391,
        1401,
        1616,
        1818,
        2050,
        2182,
        2250,
        2286,
        2401,
        2482,
        2510,
        2523,
        2534,
        2543,
        2636,
        2707,
        3342,
        3508,
        3709,
        3852,
        4050,
        4399,
        4666,
        4904,
        5037,
        5295,
        5380,
        5453,
        5502,
        5604,
        5676,
        5706,
        5765,
        5893,
        6200,
        6548,
        6901,
        7314,
        7690,
        8272,
        8815,
        9346,
        9673,
        10109,
        10198,
        10517,
        10752,
        10960,
        11149,
        11265,
        11334,
        11464,
        11531,
        11570,
        11646,
        11794,
        12081,
        12401,
        12444,
        12613,
        12906
    ],
    "drop_weight_only": [
        0,
        0,
        0,
        0,
        0,
        0,
        0,
        0,
        0,
        2,
        4,
        6,
        10,
        16,
        20,
        20,
        22,
        22,
        32,
        38,
        46,
        58,
        66,
        80,
        94,
        107,
        117,
        123,
        135,
        141,
        148,
        165,
        169,
        186,
        218,
        230,
        252,
        290,
        306,
        348,
        400,
        434,
        458,
        468,
        476,
        490,
        522,
        538,
        568,
        601,
        651,
        703,
        767,
        847,
        907,
        968,
        1004,
        1062,
        1126,
        1180,
        1202,
        1236,
        1272,
        1330,
        1379,
        1422,
        1490,
        1560,
        1613,
        1671,
        1789,
        1877,
        1962,
        2020,
        2106,
        2250,
        2428,
        2531,
        2569,
        2629,
        2671,
        2727,
        2775,
        2843,
        2861,
        2925,
        2997,
        3067,
        3159,
        3199,
        3276,
        3400,
        3552,
        3668,
        3818,
        4020,
        4114,
        4216,
        4340,
        4454,
        4627
    ],
    "hit_coeff": [
        0,
        0,
        18,
        62,
        63,
        110,
        146,
        148,
        171,
        194,
        219,
        280,
        268,
        280,
        384,
        395,
        380,
        449,
        504,
        480,
        524,
        520,
        494,
        476,
        622,
        625,
        735,
        843,
        979,
        1050,
        1085,
        1086,
        1089,
        1067,
        1113,
        1170,
        1131,
        1150,
        1545,
        1646,
        1627,
        1573,
        1835,
        2083,
        2348,
        2466,
        2485,
        2471,
        2568,
        2609,
        2543,
        2471,
        2397,
        2282,
        2325,
        2355,
        3176,
        3306,
        3458,
        3584,
        3785,
        4093,
        4383,
        4547,
        4561,
        4814,
        4861,
        4828,
        4812,
        4876,
        4812,
        4716,
        4657,
        4721,
        5070,
        5324,
        5569,
        5971,
        6351,
        6949,
        7576,
        8128,
        8373,
        8741,
        8793,
        9028,
        9165,
        9277,
        9392,
        9444,
        9384,
        9373,
        9280,
        9159,
        9067,
        8951,
        9163,
        9434,
        9303,
        9407,
        9534
    ],
    "drop_coeff_and_weight": [
        0,
        0,
        0,
        4,
        6,
        14,
        32,
        42,
        51,
        53,
        65,
        80,
        78,
        80,
        145,
        160,
        160,
        192,
        232,
        236,
        240,
        240,
        232,
        224,
        302,
        295,
        347,
        426,
        528,
        584,
        627,
        654,
        689,
        680,
        676,
        724,
        712,
        711,
        934,
        1011,
        991,
        967,
        1158,
        1350,
        1574,
        1692,
        1728,
        1748,
        1833,
        1881,
        1859,
        1820,
        1767,
        1696,
        1729,
        1739,
        2338,
        2446,
        2583,
        2672,
        2848,
        3163,
        3394,
        3574,
        3658,
        3873,
        3890,
        3893,
        3889,
        3933,
        3887,
        3829,
        3803,
        3873,
        4094,
        4298,
        4473,
        4783,
        5121,
        5643,
        6144,
        6619,
        6898,
        7266,
        7337,
        7592,
        7755,
        7893,
        7990,
        8066,
        8058,
        8064,
        7979,
        7902,
        7828,
        7774,
        7967,
        8185,
        8104,
        8159,
        8279
    ],
    "hit_z": [
        0,
        0,
        0,
        0,
        0,
        0,
        0,
        0,
        0,
        0,
        0,
        0,
        0,
        0,
        0,
        0,
        0,
        0,
        0,
        0,
        0,
        0,
        0,
        0,
        0,
        0,
        0,
        0,
        0,
        0,
        0,
        0,
        0,
        0,
        0,
        0,
        0,
        0,
        0,
        0,
        0,
        0,
        0,
        0,
        0,
        0,
        0,
        0,
        0,
        0,
        0,
        0,
        0,
        0,
        0,
        0,
        0,
        0,
        0,
        0,
        0,
        0,
        0,
        0,
        0,
        0,
        0,
        0,
        0,
        0,
        0,
        0,
        0,
        0,
        0,
        0,
        0,
        0,
        0,
        0,
        0,
        0,
        0,
        0,
        0,
        0,
        0,
        0,
        0,
        0,
        0,
        0,
        0,
        0,
        0,
        0,
        0,
        0,
        0,
        0,
        0
    ],
    "manifest_toml_sha256": "0bc8dd956e2d53dfc75dae382811cbae5159e33b4ab25664d941105fcfb60c81",
    "git_dirty": true,
    "experiment": "chain16",
    "overlap_raw": [
        1,
        0.9981469226820251,
        0.9925975148175246,
        0.9833811420257546,
        0.9705463940552953,
        0.9541605645137503,
        0.9343089393185909,
        0.911093911644169,
        0.8846339482041028,
        0.8550624133744726,
        0.822526304575934,
        0.7871849037845885,
        0.7492083828438214,
        0.7087763886014145,
        0.6660766345098909,
        0.6213035222735657,
        0.5746568165399996,
        0.526340391813227,
        0.47656105815516764,
        0.4255274902094282,
        0.3734492533025525,
        0.3205359336133731,
        0.2669963717012463,
        0.21303798233784946,
        0.15886617114962115,
        0.10468381792650389,
        0.050690820469097286,
        -0.002916317716726881,
        -0.05594487240859582,
        -0.10820627182517226,
        -0.1595164729112973,
        -0.20969635186720176,
        -0.25857213048221556,
        -0.30597582841119936,
        -0.3517457625897934,
        -0.3957270891512716,
        -0.43777238694579035,
        -0.4777422831103303,
        -0.5155061022990819,
        -0.5509425388423681,
        -0.5839403350024497,
        -0.6143989495940904,
        -0.64222920470483,
        -0.6673538820013949,
        -0.6897082705889819,
        -0.7092406332897,
        -0.7259125839360115,
        -0.7396993603202705,
        -0.7505899834302217,
        -0.7585872915553281,
        -0.7637078512961571,
        -0.7659817347846872,
        -0.7654521591863677,
        -0.7621750241204945,
        -0.7562183112937978,
        -0.7476613871708206,
        -0.7365942106313046,
        -0.7231164608188128,
        -0.7073366032611478,
        -0.689370909656464,
        -0.6693424495897798,
        -0.6473800712587058,
        -0.6236173903336997,
        -0.5981917911734886,
        -0.5712434746896566,
        -0.5429145466941021,
        -0.5133481624016557,
        -0.48268774029211253,
        -0.451076238148057,
        -0.41865550176853294,
        -0.3855656929223526,
        -0.35194478158215686,
        -0.3179281082608991,
        -0.2836479994412818,
        -0.24923345097637517,
        -0.2148098510315873,
        -0.1804987482507288,
        -0.14641764119052325,
        -0.11267980704478238,
        -0.07939413892980554,
        -0.04666499722989893,
        -0.014592065678105963,
        0.016729789236512155,
        0.047210657927409846,
        0.0767657371906855,
        0.10531547449492018,
        0.13278571502471828,
        0.15910784828676452,
        0.18421895111575723,
        0.20806191760896173,
        0.23058559433293296,
        0.25174487406927787,
        0.271500782802423,
        0.28982053743584835,
        0.3066775731072761,
        0.32205154018211996,
        0.33592825446063473,
        0.3482996230088485,
        0.3591635230292876,
        0.3685236467156624,
        0.376389303129397
    ],
    "overlap_dropped": [
        0,
        0,
        0,
        0,
        0,
        3.2671067976507516e-10,
        1.5642916670014494e-9,
        0,
        0,
        0,
        0,
        6.014582298535395e-12,
        2.018812784393814e-11,
        5.0017471251384227e-11,
        3.157519240776449e-10,
        8.54825095118939e-10,
        0,
        1.6187339851992803e-10,
        4.3698083552111714e-10,
        8.866927575890999e-10,
        1.5870947654169635e-9,
        0,
        0,
        0,
        1.0117302030689812e-11,
        2.707786378453565e-11,
        5.346353322263502e-11,
        2.2675138794700835e-10,
        6.616189369759309e-10,
        1.4012977850028133e-9,
        1.7323692341175684e-10,
        3.119497498049312e-10,
        5.00780101402493e-10,
        7.545195161428989e-10,
        9.641404544168445e-10,
        -2.311275535417563e-11,
        -4.3515475461891696e-11,
        -7.242413956622158e-11,
        -2.7274235003232974e-10,
        -6.040556213088351e-10,
        -1.274546348999869e-9,
        4.2095510831689996e-11,
        5.0700868614071655e-11,
        1.8881839586019575e-10,
        3.6006565586904113e-10,
        5.603618687646999e-10,
        6.587489013145568e-10,
        8.238967863239162e-10,
        -2.5713380060447174e-10,
        -5.087477026516825e-10,
        1.8236094304437344e-9,
        0,
        0,
        0,
        0,
        0,
        -1.7467705989075167e-10,
        -4.1833886087031365e-10,
        -7.517969798201516e-10,
        -1.1918312535327596e-9,
        -1.783103381187361e-9,
        -8.184696847568686e-11,
        -1.451837370319456e-10,
        -4.1589169972025075e-10,
        -1.0381446502810848e-9,
        -2.466343793463676e-9,
        -2.2446514064227275e-9,
        -9.284577264552599e-10,
        -1.3286753171966703e-9,
        -1.6437916470361786e-9,
        -1.9808428564812852e-9,
        -2.1972799217103694e-10,
        -6.139874681701447e-10,
        -1.1897981456256427e-9,
        -1.9849789600958006e-9,
        -2.5308591207727013e-11,
        -4.78471405796906e-11,
        -7.856923495283872e-11,
        -2.508355298978879e-10,
        -6.369255954880281e-10,
        -1.4560117380032854e-9,
        -2.5133040866506376e-9,
        -1.2535764494766877e-9,
        -6.963845045718675e-10,
        -1.2217295193681056e-9,
        -2.1078470666511447e-9,
        -3.076614002080298e-9,
        -4.213589629936373e-9,
        -8.714162679152289e-10,
        -8.306488538407042e-10,
        -6.847143950959543e-10,
        -3.741150658936781e-10,
        9.095083508790715e-12,
        4.836675908915912e-10,
        -1.4855516328355232e-9,
        -1.465818460883551e-9,
        -1.0972825909956135e-9,
        -2.7723054411858853e-11,
        -5.1211242083079555e-11,
        -7.843652690552584e-11,
        -1.0963056978429335e-10
    ],
    "rule": {
        "label": "xyz6_d1em09",
        "weight_period": 1,
        "family": "xyz+coeff",
        "tau_z": 0,
        "c_gate": 1.0e-16,
        "tau_xyz": 6,
        "tau_xy": 0,
        "rule_hash": "fe0fabd002",
        "coeff_min": 1.0e-9
    },
    "n_kept": [
        1,
        5,
        24,
        34,
        41,
        51,
        61,
        75,
        83,
        98,
        111,
        115,
        131,
        152,
        157,
        177,
        198,
        213,
        227,
        257,
        262,
        280,
        298,
        320,
        338,
        352,
        368,
        389,
        421,
        448,
        470,
        496,
        530,
        569,
        595,
        612,
        645,
        678,
        700,
        718,
        735,
        781,
        812,
        842,
        881,
        923,
        948,
        992,
        1020,
        1059,
        1105,
        1147,
        1183,
        1227,
        1256,
        1288,
        1310,
        1346,
        1381,
        1413,
        1458,
        1505,
        1546,
        1611,
        1684,
        1718,
        1770,
        1842,
        1892,
        1930,
        1974,
        2012,
        2065,
        2119,
        2153,
        2199,
        2235,
        2277,
        2325,
        2361,
        2405,
        2449,
        2503,
        2565,
        2634,
        2692,
        2748,
        2815,
        2867,
        2909,
        2975,
        3026,
        3070,
        3120,
        3188,
        3272,
        3356,
        3406,
        3458,
        3485,
        3533
    ],
    "hit_xyz": [
        0,
        0,
        0,
        4,
        6,
        14,
        32,
        42,
        51,
        55,
        69,
        86,
        88,
        96,
        165,
        180,
        182,
        214,
        264,
        274,
        286,
        298,
        298,
        304,
        396,
        402,
        464,
        549,
        663,
        725,
        775,
        819,
        858,
        866,
        894,
        954,
        964,
        1001,
        1240,
        1359,
        1391,
        1401,
        1616,
        1818,
        2050,
        2182,
        2250,
        2286,
        2401,
        2482,
        2510,
        2523,
        2534,
        2543,
        2636,
        2707,
        3342,
        3508,
        3709,
        3852,
        4050,
        4399,
        4666,
        4904,
        5037,
        5295,
        5380,
        5453,
        5502,
        5604,
        5676,
        5706,
        5765,
        5893,
        6200,
        6548,
        6901,
        7314,
        7690,
        8272,
        8815,
        9346,
        9673,
        10109,
        10198,
        10517,
        10752,
        10960,
        11149,
        11265,
        11334,
        11464,
        11531,
        11570,
        11646,
        11794,
        12081,
        12401,
        12444,
        12613,
        12906
    ],
    "git_commit": "unknown",
    "n_raw": [
        1,
        5,
        42,
        96,
        104,
        161,
        207,
        223,
        254,
        294,
        334,
        401,
        409,
        448,
        561,
        592,
        600,
        684,
        763,
        775,
        832,
        858,
        858,
        876,
        1054,
        1084,
        1220,
        1355,
        1535,
        1639,
        1703,
        1747,
        1788,
        1822,
        1926,
        2012,
        2028,
        2118,
        2551,
        2712,
        2762,
        2788,
        3105,
        3393,
        3705,
        3879,
        3955,
        4001,
        4156,
        4269,
        4299,
        4321,
        4347,
        4356,
        4488,
        4611,
        5490,
        5714,
        5965,
        6177,
        6445,
        6834,
        7201,
        7488,
        7624,
        7954,
        8121,
        8230,
        8317,
        8477,
        8575,
        8605,
        8684,
        8860,
        9329,
        9773,
        10232,
        10779,
        11245,
        11939,
        12652,
        13304,
        13651,
        14149,
        14288,
        14645,
        14910,
        15159,
        15418,
        15552,
        15635,
        15799,
        15902,
        15947,
        16073,
        16243,
        16633,
        17056,
        17101,
        17346,
        17694
    ],
    "weight_second_moment_raw": [
        1,
        1.0000029617816564,
        1.0000265588691284,
        1.0001056550822565,
        1.0002913501488409,
        1.0006495780004676,
        1.0012592927837816,
        1.0022102879488997,
        1.0036007029924858,
        1.0055342803068905,
        1.0081174409229758,
        1.0114562525740163,
        1.0156533663345921,
        1.0208049990289643,
        1.0269980376329224,
        1.0343073390340458,
        1.0427932938385351,
        1.052499716535313,
        1.0634521164112198,
        1.0756563943554496,
        1.0890980003327613,
        1.1037415751069313,
        1.1195310880438736,
        1.1363904708158998,
        1.1542247348681094,
        1.1729215488948315,
        1.192353241595986,
        1.2123791849086023,
        1.2328485039782175,
        1.2536030525564443,
        1.274480586453847,
        1.2953180632684693,
        1.3159549939331143,
        1.3362367707153615,
        1.3560178971568158,
        1.3751650480012818,
        1.3935598913455525,
        1.4111016109250858,
        1.4277090734626288,
        1.4433225941778502,
        1.457905262676102,
        1.4714438012863438,
        1.4839489382734434,
        1.4954552889765025,
        1.5060207485900543,
        1.5157254107821425,
        1.5246700364137904,
        1.5329741060818367,
        1.5407734988612778,
        1.5482178473007147,
        1.555467625274164,
        1.5626910305849506,
        1.5700607281493488,
        1.5777505220826462,
        1.5859320260205496,
        1.5947714005171942,
        1.604426224381717,
        1.615042563393714,
        1.6267522950525184,
        1.639670741974423,
        1.6538946593941921,
        1.6695006141188482,
        1.68654378341043,
        1.7050571928508529,
        1.7250514024882906,
        1.7465146407127723,
        1.7694133755944241,
        1.7936933040699912,
        1.8192807306039362,
        1.846084298980426,
        1.8739970338839806,
        1.9028986430507957,
        1.9326580261399573,
        1.9631359331700673,
        1.994187713439333,
        2.025666095307461,
        2.057423938040701,
        2.0893168990458264,
        2.1212059631554867,
        2.1529597850553888,
        2.1844568013253256,
        2.2155870747400206,
        2.246253840274661,
        2.2763747295062657,
        2.3058826576183864,
        2.3347263648278536,
        2.3628706115930576,
        2.3902960342753286,
        2.4169986748667425,
        2.4429892048422635,
        2.468291869029827,
        2.492943180527472,
        2.5169904020551086,
        2.540489852653166,
        2.5635050812917144,
        2.586104950702372,
        2.6083616755897467,
        2.6303488593176048,
        2.652139572221639,
        2.673804512907665,
        2.6954102912946794
    ],
    "hit_multiple_weight": [
        0,
        0,
        0,
        0,
        0,
        0,
        0,
        0,
        0,
        0,
        0,
        0,
        0,
        0,
        0,
        0,
        0,
        0,
        0,
        0,
        0,
        0,
        0,
        0,
        0,
        0,
        0,
        0,
        0,
        0,
        0,
        0,
        0,
        0,
        0,
        0,
        0,
        0,
        0,
        0,
        0,
        0,
        0,
        0,
        0,
        0,
        0,
        0,
        0,
        0,
        0,
        0,
        0,
        0,
        0,
        0,
        0,
        0,
        0,
        0,
        0,
        0,
        0,
        0,
        0,
        0,
        0,
        0,
        0,
        0,
        0,
        0,
        0,
        0,
        0,
        0,
        0,
        0,
        0,
        0,
        0,
        0,
        0,
        0,
        0,
        0,
        0,
        0,
        0,
        0,
        0,
        0,
        0,
        0,
        0,
        0,
        0,
        0,
        0,
        0,
        0
    ],
    "autocorr_raw": [
        1,
        0.9981469226820251,
        0.9925960394100215,
        0.983372351948895,
        0.9705173825897012,
        0.9540889541713338,
        0.9341608840959189,
        0.910822594300472,
        0.8841786396764479,
        0.8543481579349227,
        0.821464244394013,
        0.7856732556129615,
        0.7471340462107884,
        0.7060171435837935,
        0.6625038655733078,
        0.616785386431336,
        0.5690617566860912,
        0.5195408827213961,
        0.4684374720535595,
        0.4159719504171242,
        0.3623693568577208,
        0.3078582230774119,
        0.25266944328689417,
        0.19703514079148898,
        0.1411875374758693,
        0.08535783225790486,
        0.029775094456830346,
        -0.025334822132909735,
        -0.07975033885144867,
        -0.13325518006195605,
        -0.18563936414198542,
        -0.2367001526530878,
        -0.2862429530358771,
        -0.3340821704689927,
        -0.38004200484002226,
        -0.4239571891034119,
        -0.46567366564372437,
        -0.5050491976213396,
        -0.5419539126508016,
        -0.576270776548394,
        -0.6078959952839316,
        -0.6367393436807729,
        -0.6627244198260693,
        -0.6857888245784288,
        -0.7058842659903888,
        -0.7229765888960231,
        -0.7370457303470701,
        -0.7480856020113326,
        -0.7561039010717627,
        -0.7611218515804081,
        -0.7631738786249572,
        -0.7623072180536229,
        -0.7585814648731567,
        -0.7520680637815846,
        -0.7428497456186112,
        -0.7310199138095487,
        -0.7166819851403655,
        -0.6999486894295719,
        -0.680941332855136,
        -0.6597890298498025,
        -0.6366279085948827,
        -0.6116002952201051,
        -0.5848538818552242,
        -0.556540883678087,
        -0.5268171900644928,
        -0.4958415148687106,
        -0.46377455075158014,
        -0.43077813232780343,
        -0.39701441272772237,
        -0.3626450579642827,
        -0.32783046326593157,
        -0.29272899528398083,
        -0.2574962638116956,
        -0.2222844263652784,
        -0.18724152867724062,
        -0.15251088384353306,
        -0.11823049255027598,
        -0.08453250648684307,
        -0.05154273673207138,
        -0.01938020858191803,
        0.011843236027854538,
        0.04202328765948639,
        0.071063469528842,
        0.09887538842924776,
        0.1253789364571272,
        0.1505024438453343,
        0.17418278347077204,
        0.19636542785133176,
        0.2170044596829308,
        0.23606253719009732,
        0.2535108157728607,
        0.26932882762841626,
        0.28350432120792324,
        0.2960330625366556,
        0.30691860057932113,
        0.31617199897145226,
        0.3238115365620657,
        0.3298623793219745,
        0.3343562262658874,
        0.3373309321143866,
        0.3388301094836898
    ],
    "complete": true,
    "schema_version": "pds-ppml-v3.0",
    "hit_xy": [
        0,
        0,
        0,
        0,
        0,
        0,
        0,
        0,
        0,
        0,
        0,
        0,
        0,
        0,
        0,
        0,
        0,
        0,
        0,
        0,
        0,
        0,
        0,
        0,
        0,
        0,
        0,
        0,
        0,
        0,
        0,
        0,
        0,
        0,
        0,
        0,
        0,
        0,
        0,
        0,
        0,
        0,
        0,
        0,
        0,
        0,
        0,
        0,
        0,
        0,
        0,
        0,
        0,
        0,
        0,
        0,
        0,
        0,
        0,
        0,
        0,
        0,
        0,
        0,
        0,
        0,
        0,
        0,
        0,
        0,
        0,
        0,
        0,
        0,
        0,
        0,
        0,
        0,
        0,
        0,
        0,
        0,
        0,
        0,
        0,
        0,
        0,
        0,
        0,
        0,
        0,
        0,
        0,
        0,
        0,
        0,
        0,
        0,
        0,
        0,
        0
    ],
    "project_toml_sha256": "0f476d319d0bc551a77a410c1947451ebb8d68d98f047a4d3a348358de256696"
}