{
    "created_at": "2026-06-10T23:17:55.612",
    "n_complete": 100,
    "drop_coeff_only": [
        0,
        0,
        30,
        33,
        70,
        64,
        60,
        53,
        66,
        103,
        124,
        122,
        114,
        103,
        170,
        163,
        153,
        170,
        237,
        243,
        237,
        234,
        271,
        268,
        251,
        247,
        285,
        269,
        275,
        262,
        310,
        302,
        292,
        276,
        260,
        396,
        418,
        434,
        463,
        498,
        467,
        511,
        497,
        475,
        453,
        419,
        416,
        422,
        410,
        444,
        415,
        489,
        694,
        741,
        746,
        708,
        709,
        692,
        717,
        695,
        844,
        856,
        848,
        822,
        815,
        774,
        763,
        743,
        698,
        676,
        636,
        616,
        660,
        652,
        654,
        838,
        943,
        968,
        968,
        928,
        972,
        1010,
        1012,
        1001,
        965,
        1085,
        1047,
        1043,
        1059,
        1057,
        1055,
        1047,
        1043,
        1007,
        991,
        965,
        1080,
        1103,
        1103,
        1072,
        1044
    ],
    "system": {
        "dt": 0.01,
        "P0_coeff": 1,
        "h": 3.04438,
        "P0_term_hex": "c000",
        "name": "chain16",
        "topology_repr": "[(1, 2), (2, 3), (3, 4), (4, 5), (5, 6), (6, 7), (7, 8), (8, 9), (9, 10), (10, 11), (11, 12), (12, 13), (13, 14), (14, 15), (15, 16), (16, 1)]",
        "P0_nqubits": 16,
        "n_layers": 100,
        "g": 0,
        "n_qubits": 16,
        "J": 1
    },
    "julia_version": "1.12.6",
    "n_dropped": [
        0,
        0,
        30,
        33,
        74,
        70,
        66,
        59,
        84,
        123,
        167,
        165,
        159,
        148,
        229,
        222,
        212,
        241,
        336,
        343,
        349,
        354,
        485,
        484,
        467,
        471,
        511,
        495,
        563,
        552,
        620,
        612,
        603,
        591,
        575,
        847,
        877,
        957,
        1056,
        1199,
        1188,
        1345,
        1347,
        1325,
        1307,
        1303,
        1320,
        1350,
        1340,
        1376,
        1349,
        1639,
        2168,
        2272,
        2296,
        2279,
        2365,
        2350,
        2602,
        2635,
        3132,
        3200,
        3228,
        3202,
        3233,
        3226,
        3265,
        3303,
        3272,
        3251,
        3213,
        3193,
        3445,
        3501,
        3799,
        4555,
        4990,
        5158,
        5244,
        5214,
        5450,
        5690,
        5792,
        5899,
        5875,
        6393,
        6377,
        6381,
        6415,
        6455,
        6497,
        6519,
        6629,
        6705,
        6801,
        6795,
        7054,
        7270,
        7305,
        7349,
        7330
    ],
    "overlap_kept": [
        1,
        0.9981469226820251,
        0.9925975148175246,
        0.983381152886683,
        0.9705464151031374,
        0.9541605940683188,
        0.934308974383845,
        0.9110939475089592,
        0.8846339719285373,
        0.8550624035504614,
        0.8225262219315641,
        0.7871846798115332,
        0.7492081551139921,
        0.7087761703577067,
        0.6660764346310685,
        0.621303342223731,
        0.5746566561266812,
        0.526340247302487,
        0.47656092428154634,
        0.4255273591086648,
        0.3734491136944836,
        0.32053576961201935,
        0.2669961590426526,
        0.21303769016906846,
        0.1588658843290501,
        0.10468354880966681,
        0.0506905863643597,
        -0.0029165128095002537,
        -0.055945035365557026,
        -0.10820641371008236,
        -0.159516606770968,
        -0.20969649256309816,
        -0.2585722879097084,
        -0.30597600425061144,
        -0.3517459446608388,
        -0.39572724509970486,
        -0.43777245753351546,
        -0.47774240964892145,
        -0.5155063039668187,
        -0.5509428232998953,
        -0.5839407086326677,
        -0.6143994190174793,
        -0.6422297758793647,
        -0.6673545650498516,
        -0.6897088413050915,
        -0.7092410620944222,
        -0.7259128628765165,
        -0.7396995065894697,
        -0.7505900248355319,
        -0.7585872630911794,
        -0.7637077881435965,
        -0.7659816652888636,
        -0.7654521073145563,
        -0.7621749994597848,
        -0.7562183086738953,
        -0.7476615902884627,
        -0.736594555940391,
        -0.7231169154450813,
        -0.7073371226153982,
        -0.6893714255991799,
        -0.6693428847742168,
        -0.6473803432994336,
        -0.6236174131246427,
        -0.598191731169672,
        -0.5712433603979175,
        -0.542914411837874,
        -0.5133481364696373,
        -0.4826878720687769,
        -0.4510765417836313,
        -0.41865596937160915,
        -0.38556628948867105,
        -0.3519454423249643,
        -0.3179287361897905,
        -0.2836487266210574,
        -0.2492342259510751,
        -0.21481060530003107,
        -0.18049940785965504,
        -0.14641811017341655,
        -0.11267998525002951,
        -0.07939392833123707,
        -0.04666430917514858,
        -0.014590828245687519,
        0.01673162658038791,
        0.047213123519656716,
        0.07676863304127629,
        0.10531877269005316,
        0.13278893265416467,
        0.15911079099697195,
        0.18422144185540648,
        0.20806381078495925,
        0.23058678797398605,
        0.2517453147082218,
        0.27150047124571464,
        0.2898195295091595,
        0.30667618248256934,
        0.3220497223224412,
        0.33592617425030386,
        0.3482974448711943,
        0.3591614621587247,
        0.36852190823719927,
        0.3763879407500426
    ],
    "hit_any_weight": [
        0,
        0,
        0,
        0,
        4,
        6,
        6,
        6,
        18,
        20,
        43,
        43,
        45,
        45,
        59,
        59,
        59,
        71,
        99,
        100,
        112,
        120,
        214,
        216,
        216,
        224,
        226,
        226,
        288,
        290,
        310,
        310,
        311,
        315,
        315,
        451,
        459,
        523,
        593,
        701,
        721,
        834,
        850,
        850,
        854,
        884,
        904,
        928,
        930,
        932,
        934,
        1150,
        1474,
        1531,
        1550,
        1571,
        1656,
        1658,
        1885,
        1940,
        2288,
        2344,
        2380,
        2380,
        2418,
        2452,
        2502,
        2560,
        2574,
        2575,
        2577,
        2577,
        2785,
        2849,
        3145,
        3717,
        4047,
        4190,
        4276,
        4286,
        4478,
        4680,
        4780,
        4898,
        4910,
        5308,
        5330,
        5338,
        5356,
        5398,
        5442,
        5472,
        5586,
        5698,
        5810,
        5830,
        5974,
        6167,
        6202,
        6277,
        6286
    ],
    "drop_weight_only": [
        0,
        0,
        0,
        0,
        0,
        0,
        0,
        0,
        0,
        0,
        0,
        0,
        0,
        0,
        0,
        2,
        4,
        4,
        4,
        4,
        10,
        10,
        20,
        20,
        22,
        22,
        22,
        26,
        26,
        32,
        43,
        49,
        57,
        69,
        75,
        82,
        100,
        114,
        117,
        117,
        121,
        120,
        126,
        142,
        142,
        153,
        165,
        175,
        190,
        206,
        228,
        250,
        262,
        292,
        310,
        348,
        378,
        388,
        422,
        434,
        452,
        464,
        476,
        488,
        500,
        510,
        534,
        548,
        568,
        603,
        643,
        663,
        699,
        757,
        787,
        815,
        851,
        879,
        923,
        995,
        1023,
        1067,
        1107,
        1136,
        1178,
        1190,
        1218,
        1238,
        1246,
        1272,
        1290,
        1313,
        1325,
        1360,
        1382,
        1470,
        1536,
        1580,
        1579,
        1620,
        1702
    ],
    "hit_coeff": [
        0,
        0,
        30,
        33,
        74,
        70,
        66,
        59,
        84,
        123,
        167,
        165,
        159,
        148,
        229,
        220,
        208,
        237,
        332,
        339,
        339,
        344,
        465,
        464,
        445,
        449,
        489,
        469,
        537,
        520,
        577,
        563,
        546,
        522,
        500,
        765,
        777,
        843,
        939,
        1082,
        1067,
        1225,
        1221,
        1183,
        1165,
        1150,
        1155,
        1175,
        1150,
        1170,
        1121,
        1389,
        1906,
        1980,
        1986,
        1931,
        1987,
        1962,
        2180,
        2201,
        2680,
        2736,
        2752,
        2714,
        2733,
        2716,
        2731,
        2755,
        2704,
        2648,
        2570,
        2530,
        2746,
        2744,
        3012,
        3740,
        4139,
        4279,
        4321,
        4219,
        4427,
        4623,
        4685,
        4763,
        4697,
        5203,
        5159,
        5143,
        5169,
        5183,
        5207,
        5206,
        5304,
        5345,
        5419,
        5325,
        5518,
        5690,
        5726,
        5729,
        5628
    ],
    "drop_coeff_and_weight": [
        0,
        0,
        0,
        0,
        4,
        6,
        6,
        6,
        18,
        20,
        43,
        43,
        45,
        45,
        59,
        57,
        55,
        67,
        95,
        96,
        102,
        110,
        194,
        196,
        194,
        202,
        204,
        200,
        262,
        258,
        267,
        261,
        254,
        246,
        240,
        369,
        359,
        409,
        476,
        584,
        600,
        714,
        724,
        708,
        712,
        731,
        739,
        753,
        740,
        726,
        706,
        900,
        1212,
        1239,
        1240,
        1223,
        1278,
        1270,
        1463,
        1506,
        1836,
        1880,
        1904,
        1892,
        1918,
        1942,
        1968,
        2012,
        2006,
        1972,
        1934,
        1914,
        2086,
        2092,
        2358,
        2902,
        3196,
        3311,
        3353,
        3291,
        3455,
        3613,
        3673,
        3762,
        3732,
        4118,
        4112,
        4100,
        4110,
        4126,
        4152,
        4159,
        4261,
        4338,
        4428,
        4360,
        4438,
        4587,
        4623,
        4657,
        4584
    ],
    "hit_z": [
        0,
        0,
        0,
        0,
        0,
        0,
        0,
        0,
        0,
        0,
        0,
        0,
        0,
        0,
        0,
        0,
        0,
        0,
        0,
        0,
        0,
        0,
        0,
        0,
        0,
        0,
        0,
        0,
        0,
        0,
        0,
        0,
        0,
        0,
        0,
        0,
        0,
        0,
        0,
        0,
        0,
        0,
        0,
        0,
        0,
        0,
        0,
        0,
        0,
        0,
        0,
        0,
        0,
        0,
        0,
        0,
        0,
        0,
        0,
        0,
        0,
        0,
        0,
        0,
        0,
        0,
        0,
        0,
        0,
        0,
        0,
        0,
        0,
        0,
        0,
        0,
        0,
        0,
        0,
        0,
        0,
        0,
        0,
        0,
        0,
        0,
        0,
        0,
        0,
        0,
        0,
        0,
        0,
        0,
        0,
        0,
        0,
        0,
        0,
        0,
        0
    ],
    "manifest_toml_sha256": "0bc8dd956e2d53dfc75dae382811cbae5159e33b4ab25664d941105fcfb60c81",
    "git_dirty": true,
    "experiment": "chain16",
    "overlap_raw": [
        1,
        0.9981469226820251,
        0.9925975148175246,
        0.983381152886683,
        0.9705464151031374,
        0.9541605940683188,
        0.934308974383845,
        0.9110939475089592,
        0.8846339719285373,
        0.8550624235200821,
        0.8225262811367046,
        0.7871848103402235,
        0.7492081551139921,
        0.7087761703577067,
        0.6660764346310685,
        0.621303342223731,
        0.5746566561266812,
        0.526340247302487,
        0.4765609248770491,
        0.42552736068398966,
        0.3734491167646903,
        0.32053578700534824,
        0.26699619981590833,
        0.2130377662518298,
        0.1588658843290501,
        0.10468354880966681,
        0.050690585614509884,
        -0.0029165147022656678,
        -0.05594503894490556,
        -0.10820640527872667,
        -0.15951658518743095,
        -0.20969645754640132,
        -0.2585722547139728,
        -0.30597598232374773,
        -0.35174594855525115,
        -0.3957272942830297,
        -0.4377725805643643,
        -0.4777424060769869,
        -0.5155062984766033,
        -0.5509428155017807,
        -0.5839406691701228,
        -0.6143993397202995,
        -0.6422296509236598,
        -0.6673543878276914,
        -0.6897088440720274,
        -0.7092410661055065,
        -0.7259128682674781,
        -0.739699512934795,
        -0.7505900319756317,
        -0.7585872715105174,
        -0.763707810760391,
        -0.7659817073008013,
        -0.7654521751803817,
        -0.7621751009614284,
        -0.7562184450525128,
        -0.7476615443013892,
        -0.7365945574369903,
        -0.7231169199733283,
        -0.7073371321344242,
        -0.6893714415405996,
        -0.6693429222608321,
        -0.6473804367536095,
        -0.6236175900431813,
        -0.5981917633888103,
        -0.5712434079895687,
        -0.5429144915391232,
        -0.5133481397404791,
        -0.48268787926046675,
        -0.45107655379477946,
        -0.4186559861557497,
        -0.3855663452413393,
        -0.3519455498062091,
        -0.3179289097716478,
        -0.2836487266210574,
        -0.2492342259510751,
        -0.21481061935469992,
        -0.18049943882872657,
        -0.14641816024311655,
        -0.11268005834760578,
        -0.07939402627942592,
        -0.046664434346126014,
        -0.014590982277485518,
        0.0167314128953922,
        0.04721281383252044,
        0.07676842573290764,
        0.10531846078649572,
        0.13278893994502108,
        0.15911080000218222,
        0.18422145285168554,
        0.20806383941795017,
        0.23058682492984334,
        0.2517453482102065,
        0.27150049986393154,
        0.28981955286217775,
        0.30667599423624176,
        0.3220497223224412,
        0.3359261733881885,
        0.34829744256481693,
        0.359161458142984,
        0.3685219022914833,
        0.37638806953722964
    ],
    "overlap_dropped": [
        0,
        0,
        0,
        0,
        0,
        0,
        0,
        0,
        0,
        1.996962071965881e-8,
        5.9205140445069834e-8,
        1.3052869025901275e-7,
        0,
        0,
        0,
        0,
        0,
        0,
        5.955027495545331e-10,
        1.5753248599712472e-9,
        3.0702066889002963e-9,
        1.739332889938461e-8,
        4.077325571792958e-8,
        7.60827613322174e-8,
        0,
        0,
        -7.498498127321086e-10,
        -1.8927654142264288e-9,
        -3.57934853454668e-9,
        8.431355684759385e-9,
        2.15835370482813e-8,
        3.50166968528746e-8,
        3.319573555859154e-8,
        2.19268637280747e-8,
        -3.894412326965106e-9,
        -4.9183324838155746e-8,
        -1.2303084886924307e-7,
        3.5719345190281293e-9,
        5.490215354751079e-9,
        7.798114636432993e-9,
        3.9462544898964366e-8,
        7.929717980992201e-8,
        1.2495570489556323e-7,
        1.7722216015159883e-7,
        -2.766935919270523e-9,
        -4.011084313558868e-9,
        -5.3909617307046775e-9,
        -6.345325247985811e-9,
        -7.140099725844957e-9,
        -8.419337999723223e-9,
        -2.2616794384976214e-8,
        -4.201193771736698e-8,
        -6.786582543522192e-8,
        -1.0150164348808567e-7,
        -1.3637861756524035e-7,
        4.5987073443805805e-8,
        -1.4965992730746914e-9,
        -4.528246998326088e-9,
        -9.519025995016029e-9,
        -1.5941419741906264e-8,
        -3.748661533560388e-8,
        -9.34541758534995e-8,
        -1.7691853860422988e-7,
        -3.221913838747487e-8,
        -4.7591651241689e-8,
        -7.970124914131736e-8,
        -3.2708418516724848e-9,
        -7.1916898332014444e-9,
        -1.2011148110249588e-8,
        -1.678414058517944e-8,
        -5.575266823809665e-8,
        -1.0748124484000288e-7,
        -1.7358185725032805e-7,
        0,
        0,
        -1.405466884050711e-8,
        -3.096907151803616e-8,
        -5.0069700006868155e-8,
        -7.30975762694091e-8,
        -9.794818885716168e-8,
        -1.251709774405775e-7,
        -1.5403179799916707e-7,
        -2.1368499571078344e-7,
        -3.096871362744231e-7,
        -2.0730836865041585e-7,
        -3.1190355743383357e-7,
        7.2908564315242215e-9,
        9.005210258126739e-9,
        1.0996279056593367e-8,
        2.8632990909929656e-8,
        3.695585728698358e-8,
        3.350198469481046e-8,
        2.861821693052089e-8,
        2.3353018237997024e-8,
        -1.8824632757769103e-7,
        0,
        -8.621153652684408e-10,
        -2.306377346685904e-9,
        -4.015740665940026e-9,
        -5.945715996923463e-9,
        1.2878718703332534e-7
    ],
    "rule": {
        "label": "xyz6_d1em07",
        "weight_period": 1,
        "family": "xyz+coeff",
        "tau_z": 0,
        "c_gate": 1.0e-16,
        "tau_xyz": 6,
        "tau_xy": 0,
        "rule_hash": "f034a1a6eb",
        "coeff_min": 1.0e-7
    },
    "n_kept": [
        1,
        5,
        12,
        17,
        22,
        28,
        32,
        39,
        41,
        50,
        53,
        61,
        69,
        80,
        83,
        90,
        100,
        113,
        115,
        123,
        137,
        152,
        159,
        165,
        182,
        199,
        207,
        225,
        241,
        254,
        262,
        270,
        280,
        296,
        312,
        326,
        334,
        350,
        361,
        382,
        415,
        437,
        453,
        475,
        497,
        533,
        566,
        576,
        588,
        600,
        631,
        650,
        666,
        682,
        695,
        733,
        752,
        769,
        790,
        842,
        867,
        889,
        914,
        940,
        967,
        1010,
        1037,
        1071,
        1116,
        1138,
        1178,
        1198,
        1234,
        1256,
        1292,
        1312,
        1345,
        1371,
        1391,
        1431,
        1469,
        1505,
        1531,
        1558,
        1594,
        1618,
        1656,
        1684,
        1728,
        1750,
        1768,
        1790,
        1816,
        1878,
        1912,
        1950,
        1989,
        2041,
        2081,
        2125,
        2153
    ],
    "hit_xyz": [
        0,
        0,
        0,
        0,
        4,
        6,
        6,
        6,
        18,
        20,
        43,
        43,
        45,
        45,
        59,
        59,
        59,
        71,
        99,
        100,
        112,
        120,
        214,
        216,
        216,
        224,
        226,
        226,
        288,
        290,
        310,
        310,
        311,
        315,
        315,
        451,
        459,
        523,
        593,
        701,
        721,
        834,
        850,
        850,
        854,
        884,
        904,
        928,
        930,
        932,
        934,
        1150,
        1474,
        1531,
        1550,
        1571,
        1656,
        1658,
        1885,
        1940,
        2288,
        2344,
        2380,
        2380,
        2418,
        2452,
        2502,
        2560,
        2574,
        2575,
        2577,
        2577,
        2785,
        2849,
        3145,
        3717,
        4047,
        4190,
        4276,
        4286,
        4478,
        4680,
        4780,
        4898,
        4910,
        5308,
        5330,
        5338,
        5356,
        5398,
        5442,
        5472,
        5586,
        5698,
        5810,
        5830,
        5974,
        6167,
        6202,
        6277,
        6286
    ],
    "git_commit": "unknown",
    "n_raw": [
        1,
        5,
        42,
        50,
        96,
        98,
        98,
        98,
        125,
        173,
        220,
        226,
        228,
        228,
        312,
        312,
        312,
        354,
        451,
        466,
        486,
        506,
        644,
        649,
        649,
        670,
        718,
        720,
        804,
        806,
        882,
        882,
        883,
        887,
        887,
        1173,
        1211,
        1307,
        1417,
        1581,
        1603,
        1782,
        1800,
        1800,
        1804,
        1836,
        1886,
        1926,
        1928,
        1976,
        1980,
        2289,
        2834,
        2954,
        2991,
        3012,
        3117,
        3119,
        3392,
        3477,
        3999,
        4089,
        4142,
        4142,
        4200,
        4236,
        4302,
        4374,
        4388,
        4389,
        4391,
        4391,
        4679,
        4757,
        5091,
        5867,
        6335,
        6529,
        6635,
        6645,
        6919,
        7195,
        7323,
        7457,
        7469,
        8011,
        8033,
        8065,
        8143,
        8205,
        8265,
        8309,
        8445,
        8583,
        8713,
        8745,
        9043,
        9311,
        9386,
        9474,
        9483
    ],
    "weight_second_moment_raw": [
        1,
        1.0000029617816564,
        1.0000265588691284,
        1.0001056550820673,
        1.0002913501483999,
        1.000649578000144,
        1.0012592927855475,
        1.002210287957495,
        1.003600703017602,
        1.0055342803647678,
        1.0081174410389289,
        1.0114562527842308,
        1.015653366688534,
        1.0208049995909128,
        1.0269980384840425,
        1.0343073402729674,
        1.0427932955824673,
        1.0524997189205552,
        1.0634521195933577,
        1.0756563985077743,
        1.0890980056458168,
        1.1037415817872136,
        1.119531096312011,
        1.1363904809039862,
        1.1542247470172922,
        1.1729215633538501,
        1.1923532586178425,
        1.2123792047476059,
        1.232848526888099,
        1.2536030787875203,
        1.274480616250727,
        1.2953180968679205,
        1.315955031562103,
        1.336236812589484,
        1.356017943478914,
        1.3751650989597588,
        1.3935599471132782,
        1.4111016716574394,
        1.4277091392972043,
        1.4433226652323827,
        1.4579053390481156,
        1.4714438830524217,
        1.4839490254873502,
        1.4954553816682992,
        1.5060208467657354,
        1.5157255144229926,
        1.5246701454774327,
        1.5329742205023666,
        1.5407736185495817,
        1.5482179721474907,
        1.5554677551527702,
        1.562691165356698,
        1.570060867667343,
        1.5777506661975915,
        1.5859321745870307,
        1.59477155339981,
        1.6044263814625743,
        1.6150427245772416,
        1.6267524602701078,
        1.6396709111887298,
        1.653894832602106,
        1.6695007913490616,
        1.6865439647212652,
        1.7050573783259222,
        1.7250515922304508,
        1.7465148348364368,
        1.7694135742178918,
        1.7936935073047813,
        1.8192809385459823,
        1.8460845117041589,
        1.8739972514337555,
        1.9028988654399552,
        1.932658253346411,
        1.9631361651385417,
        1.9941879500826847,
        2.0256663365122725,
        2.057424183672035,
        2.0893171489548084,
        2.1212062171858865,
        2.1529600430492226,
        2.184457063129445,
        2.2155873402084554,
        2.2462541092708275,
        2.2763750019015574,
        2.305882933289682,
        2.334726643653579,
        2.3628708934451943,
        2.390296319012612,
        2.41699896232411,
        2.4429894948228226,
        2.4682921612933297,
        2.4929434747808195,
        2.516990697943319,
        2.5404901497520918,
        2.563505379103334,
        2.5861052486498535,
        2.6083619730181375,
        2.63034915549863,
        2.6521398663629547,
        2.673804804165417,
        2.6954105787946183
    ],
    "hit_multiple_weight": [
        0,
        0,
        0,
        0,
        0,
        0,
        0,
        0,
        0,
        0,
        0,
        0,
        0,
        0,
        0,
        0,
        0,
        0,
        0,
        0,
        0,
        0,
        0,
        0,
        0,
        0,
        0,
        0,
        0,
        0,
        0,
        0,
        0,
        0,
        0,
        0,
        0,
        0,
        0,
        0,
        0,
        0,
        0,
        0,
        0,
        0,
        0,
        0,
        0,
        0,
        0,
        0,
        0,
        0,
        0,
        0,
        0,
        0,
        0,
        0,
        0,
        0,
        0,
        0,
        0,
        0,
        0,
        0,
        0,
        0,
        0,
        0,
        0,
        0,
        0,
        0,
        0,
        0,
        0,
        0,
        0,
        0,
        0,
        0,
        0,
        0,
        0,
        0,
        0,
        0,
        0,
        0,
        0,
        0,
        0,
        0,
        0,
        0,
        0,
        0,
        0
    ],
    "autocorr_raw": [
        1,
        0.9981469226820251,
        0.9925960394100215,
        0.983372351948895,
        0.9705173825897254,
        0.9540889541715651,
        0.934160884096981,
        0.9108225943038378,
        0.8841786396849464,
        0.8543481579533069,
        0.8214642444295561,
        0.7856732556760422,
        0.7471340463154315,
        0.7060171437481334,
        0.662503865819945,
        0.6167853867875646,
        0.5690617571839763,
        0.5195408833976902,
        0.4684374729494504,
        0.41597195157781436,
        0.3623693583318444,
        0.3078582249163006,
        0.25266944554370996,
        0.19703514352024576,
        0.14118754073036993,
        0.08535783609062322,
        0.02977509891777022,
        -0.025334816997345827,
        -0.07975033299954765,
        -0.1332551734577074,
        -0.18563935675598925,
        -0.2367001444633309,
        -0.2862429440283543,
        -0.3340821606381553,
        -0.38004199418904083,
        -0.4239571776442463,
        -0.46567365339700045,
        -0.5050491846160374,
        -0.5419538989237664,
        -0.5762707621436862,
        -0.6078959802520376,
        -0.6367393280777016,
        -0.6627244037123643,
        -0.685788808018126,
        -0.7058842490499533,
        -0.7229765716432971,
        -0.737045712850262,
        -0.7480855843380784,
        -0.7561038832882852,
        -0.7611218337507939,
        -0.7631738608105713,
        -0.7623072003126711,
        -0.7585814472604023,
        -0.7520680463482193,
        -0.7428497284122739,
        -0.7310198968744832,
        -0.716681968517698,
        -0.6999486731576898,
        -0.6809413169701436,
        -0.6597890143860257,
        -0.6366278935853971,
        -0.6116002806972565,
        -0.5848538678511163,
        -0.5565408702250083,
        -0.5268171771952624,
        -0.49584150261692134,
        -0.4637745391517256,
        -0.4307781214152798,
        -0.3970144025386998,
        -0.36264504853544827,
        -0.3278304546341107,
        -0.292728987485649,
        -0.2574962568823973,
        -0.22228442033897433,
        -0.18724152358560703,
        -0.15251087971523974,
        -0.11823048941027109,
        -0.08453250435567235,
        -0.05154273562525938,
        -0.01938020850943665,
        0.011843235062007688,
        0.04202328565758079,
        0.07106346649956374,
        0.09887538438769629,
        0.12537893142465514,
        0.1505024378492321,
        0.1741827765438044,
        0.1963654200311387,
        0.21700445101131108,
        0.23606252771219688,
        0.25351080553629196,
        0.2693288166823381,
        0.28350430960211315,
        0.2960330503206062,
        0.30691858780139414,
        0.31617198567812155,
        0.323811522797278,
        0.32986236512665473,
        0.33435621167760987,
        0.33733091716722885,
        0.3388300942082805
    ],
    "complete": true,
    "schema_version": "pds-ppml-v3.0",
    "hit_xy": [
        0,
        0,
        0,
        0,
        0,
        0,
        0,
        0,
        0,
        0,
        0,
        0,
        0,
        0,
        0,
        0,
        0,
        0,
        0,
        0,
        0,
        0,
        0,
        0,
        0,
        0,
        0,
        0,
        0,
        0,
        0,
        0,
        0,
        0,
        0,
        0,
        0,
        0,
        0,
        0,
        0,
        0,
        0,
        0,
        0,
        0,
        0,
        0,
        0,
        0,
        0,
        0,
        0,
        0,
        0,
        0,
        0,
        0,
        0,
        0,
        0,
        0,
        0,
        0,
        0,
        0,
        0,
        0,
        0,
        0,
        0,
        0,
        0,
        0,
        0,
        0,
        0,
        0,
        0,
        0,
        0,
        0,
        0,
        0,
        0,
        0,
        0,
        0,
        0,
        0,
        0,
        0,
        0,
        0,
        0,
        0,
        0,
        0,
        0,
        0,
        0
    ],
    "project_toml_sha256": "0f476d319d0bc551a77a410c1947451ebb8d68d98f047a4d3a348358de256696"
}