{
    "created_at": "2026-06-10T23:21:46.570",
    "n_complete": 100,
    "drop_coeff_only": [
        0,
        0,
        30,
        33,
        74,
        70,
        66,
        59,
        84,
        123,
        167,
        165,
        159,
        148,
        229,
        220,
        246,
        275,
        372,
        375,
        371,
        494,
        519,
        510,
        494,
        640,
        701,
        765,
        759,
        810,
        868,
        957,
        999,
        979,
        1096,
        1257,
        1338,
        1446,
        1469,
        1592,
        1739,
        1748,
        1805,
        2024,
        2256,
        2281,
        2406,
        2479,
        2600,
        2865,
        3168,
        3479,
        3673,
        3891,
        4105,
        4176,
        4655,
        5041,
        5475,
        5590,
        5849,
        6399,
        6892,
        7223,
        7369,
        7815,
        8111,
        8767,
        9299,
        9519,
        9869,
        10485,
        10907,
        11647,
        11954,
        12547,
        12979,
        13861,
        14570,
        15170,
        15543,
        16417,
        17302,
        18044,
        18548,
        19427,
        20520,
        21570,
        22616,
        23547,
        24004,
        25114,
        26469,
        27664,
        28364,
        30189,
        31655,
        33114,
        34459,
        35474,
        36652
    ],
    "system": {
        "dt": 0.01,
        "P0_coeff": 1,
        "h": 3.04438,
        "P0_term_hex": "c000",
        "name": "chain16",
        "topology_repr": "[(1, 2), (2, 3), (3, 4), (4, 5), (5, 6), (6, 7), (7, 8), (8, 9), (9, 10), (10, 11), (11, 12), (12, 13), (13, 14), (14, 15), (15, 16), (16, 1)]",
        "P0_nqubits": 16,
        "n_layers": 100,
        "g": 0,
        "n_qubits": 16,
        "J": 1
    },
    "julia_version": "1.12.6",
    "n_dropped": [
        0,
        0,
        30,
        33,
        74,
        70,
        66,
        59,
        84,
        123,
        167,
        165,
        159,
        148,
        229,
        220,
        246,
        275,
        372,
        375,
        371,
        494,
        519,
        510,
        494,
        644,
        705,
        777,
        771,
        822,
        880,
        969,
        1015,
        995,
        1112,
        1319,
        1410,
        1518,
        1541,
        1664,
        1849,
        1860,
        1969,
        2188,
        2444,
        2469,
        2615,
        2691,
        2910,
        3231,
        3534,
        3887,
        4153,
        4439,
        4673,
        4744,
        5390,
        5904,
        6406,
        6551,
        6898,
        7464,
        8129,
        8523,
        8833,
        9399,
        10105,
        11001,
        11731,
        12099,
        12723,
        13387,
        14172,
        15239,
        15620,
        16486,
        17032,
        18440,
        19595,
        20582,
        21315,
        22476,
        23757,
        25250,
        26238,
        27435,
        29172,
        30934,
        32755,
        34323,
        35651,
        37584,
        39523,
        41424,
        42852,
        45976,
        48546,
        50983,
        53314,
        55257,
        57158
    ],
    "overlap_kept": [
        1,
        0.9981469226820251,
        0.9925975148175246,
        0.983381152886683,
        0.9705464151031374,
        0.9541605940683188,
        0.934308974383845,
        0.9110939475089592,
        0.8846339719285373,
        0.8550624035504614,
        0.8225262219315641,
        0.7871846798115332,
        0.7492081551139921,
        0.7087761703577067,
        0.6660764346310685,
        0.621303342223731,
        0.5746566561266812,
        0.526340247302487,
        0.4765609242815478,
        0.42552735910869033,
        0.3734491136946798,
        0.32053576961299646,
        0.2669961590464077,
        0.21303769018131602,
        0.158865884371641,
        0.10468354892614432,
        0.05069058664689471,
        -0.002916512164403719,
        -0.05594503399421622,
        -0.10820641094387665,
        -0.1595166014082708,
        -0.2096964825811735,
        -0.25857226986861503,
        -0.3059759728433901,
        -0.35174589230678444,
        -0.39572716158932153,
        -0.4377723296940825,
        -0.4777422187604464,
        -0.5155060314607403,
        -0.5509424442583029,
        -0.58394019340352,
        -0.6143987325089727,
        -0.6422286434247725,
        -0.6673528863799068,
        -0.6897067594161689,
        -0.7092385384102424,
        -0.7259098354584735,
        -0.739695883269612,
        -0.7505856945672188,
        -0.7585820983069511,
        -0.7637016491656996,
        -0.7659744069114881,
        -0.7654435876687292,
        -0.7621650912544357,
        -0.7562069120546844,
        -0.7476484430810043,
        -0.7365799555513263,
        -0.7231008752557972,
        -0.7073198110487946,
        -0.6893531109220141,
        -0.6693239470605715,
        -0.6473612834997802,
        -0.6235990635632067,
        -0.5981746719612916,
        -0.5712284512317506,
        -0.542902639025956,
        -0.5133405122377535,
        -0.48268561829935747,
        -0.45108104132080185,
        -0.418668750696829,
        -0.3855890215422933,
        -0.35197991767835407,
        -0.31797686650247825,
        -0.28371249177410907,
        -0.2493156242018719,
        -0.2149116480008111,
        -0.18062206455804447,
        -0.1465642837899155,
        -0.11285144118570471,
        -0.07959246987269458,
        -0.046891257024609535,
        -0.01484716501268099,
        0.016445314090772937,
        0.04689669336772122,
        0.07642242338136385,
        0.10494362947797768,
        0.13238667422414563,
        0.15868337836428073,
        0.18377152512192055,
        0.2075943012957819,
        0.23010093675430215,
        0.2512468388966213,
        0.27099306066741735,
        0.2893069173339808,
        0.3061617996433533,
        0.32153715930982396,
        0.33541858499137195,
        0.347797484278201,
        0.35867113007288853,
        0.3680421475656398,
        0.3759192587181677
    ],
    "hit_any_weight": [
        0,
        0,
        0,
        0,
        0,
        0,
        0,
        0,
        0,
        0,
        0,
        0,
        0,
        0,
        0,
        0,
        0,
        0,
        0,
        0,
        0,
        0,
        0,
        0,
        0,
        4,
        4,
        12,
        12,
        12,
        12,
        12,
        16,
        16,
        16,
        62,
        72,
        72,
        72,
        72,
        110,
        112,
        164,
        164,
        188,
        188,
        209,
        212,
        310,
        366,
        366,
        408,
        480,
        548,
        568,
        568,
        735,
        863,
        931,
        961,
        1049,
        1065,
        1237,
        1300,
        1464,
        1584,
        1994,
        2234,
        2432,
        2580,
        2854,
        2902,
        3265,
        3592,
        3666,
        3939,
        4053,
        4579,
        5025,
        5412,
        5772,
        6059,
        6455,
        7206,
        7690,
        8008,
        8652,
        9364,
        10139,
        10776,
        11647,
        12470,
        13054,
        13760,
        14488,
        15787,
        16891,
        17869,
        18855,
        19783,
        20506
    ],
    "drop_weight_only": [
        0,
        0,
        0,
        0,
        0,
        0,
        0,
        0,
        0,
        0,
        0,
        0,
        0,
        0,
        0,
        0,
        0,
        0,
        0,
        0,
        0,
        0,
        0,
        0,
        0,
        0,
        0,
        0,
        0,
        0,
        0,
        0,
        0,
        0,
        0,
        0,
        0,
        1,
        1,
        3,
        3,
        4,
        6,
        10,
        12,
        12,
        18,
        20,
        22,
        22,
        31,
        39,
        43,
        49,
        51,
        57,
        61,
        67,
        75,
        79,
        85,
        92,
        104,
        108,
        120,
        132,
        151,
        163,
        182,
        215,
        242,
        268,
        302,
        330,
        370,
        414,
        456,
        474,
        506,
        534,
        576,
        630,
        690,
        751,
        812,
        846,
        898,
        942,
        988,
        1054,
        1123,
        1197,
        1281,
        1365,
        1432,
        1492,
        1590,
        1669,
        1770,
        1880,
        1973
    ],
    "hit_coeff": [
        0,
        0,
        30,
        33,
        74,
        70,
        66,
        59,
        84,
        123,
        167,
        165,
        159,
        148,
        229,
        220,
        246,
        275,
        372,
        375,
        371,
        494,
        519,
        510,
        494,
        644,
        705,
        777,
        771,
        822,
        880,
        969,
        1015,
        995,
        1112,
        1319,
        1410,
        1517,
        1540,
        1661,
        1846,
        1856,
        1963,
        2178,
        2432,
        2457,
        2597,
        2671,
        2888,
        3209,
        3503,
        3848,
        4110,
        4390,
        4622,
        4687,
        5329,
        5837,
        6331,
        6472,
        6813,
        7372,
        8025,
        8415,
        8713,
        9267,
        9954,
        10838,
        11549,
        11884,
        12481,
        13119,
        13870,
        14909,
        15250,
        16072,
        16576,
        17966,
        19089,
        20048,
        20739,
        21846,
        23067,
        24499,
        25426,
        26589,
        28274,
        29992,
        31767,
        33269,
        34528,
        36387,
        38242,
        40059,
        41420,
        44484,
        46956,
        49314,
        51544,
        53377,
        55185
    ],
    "drop_coeff_and_weight": [
        0,
        0,
        0,
        0,
        0,
        0,
        0,
        0,
        0,
        0,
        0,
        0,
        0,
        0,
        0,
        0,
        0,
        0,
        0,
        0,
        0,
        0,
        0,
        0,
        0,
        4,
        4,
        12,
        12,
        12,
        12,
        12,
        16,
        16,
        16,
        62,
        72,
        71,
        71,
        69,
        107,
        108,
        158,
        154,
        176,
        176,
        191,
        192,
        288,
        344,
        335,
        369,
        437,
        499,
        517,
        511,
        674,
        796,
        856,
        882,
        964,
        973,
        1133,
        1192,
        1344,
        1452,
        1843,
        2071,
        2250,
        2365,
        2612,
        2634,
        2963,
        3262,
        3296,
        3525,
        3597,
        4105,
        4519,
        4878,
        5196,
        5429,
        5765,
        6455,
        6878,
        7162,
        7754,
        8422,
        9151,
        9722,
        10524,
        11273,
        11773,
        12395,
        13056,
        14295,
        15301,
        16200,
        17085,
        17903,
        18533
    ],
    "hit_z": [
        0,
        0,
        0,
        0,
        0,
        0,
        0,
        0,
        0,
        0,
        0,
        0,
        0,
        0,
        0,
        0,
        0,
        0,
        0,
        0,
        0,
        0,
        0,
        0,
        0,
        0,
        0,
        0,
        0,
        0,
        0,
        0,
        0,
        0,
        0,
        0,
        0,
        0,
        0,
        0,
        0,
        0,
        0,
        0,
        0,
        0,
        0,
        0,
        0,
        0,
        0,
        0,
        0,
        0,
        0,
        0,
        0,
        0,
        0,
        0,
        0,
        0,
        0,
        0,
        0,
        0,
        0,
        0,
        0,
        0,
        0,
        0,
        0,
        0,
        0,
        0,
        0,
        0,
        0,
        0,
        0,
        0,
        0,
        0,
        0,
        0,
        0,
        0,
        0,
        0,
        0,
        0,
        0,
        0,
        0,
        0,
        0,
        0,
        0,
        0,
        0
    ],
    "manifest_toml_sha256": "0bc8dd956e2d53dfc75dae382811cbae5159e33b4ab25664d941105fcfb60c81",
    "git_dirty": true,
    "experiment": "chain16",
    "overlap_raw": [
        1,
        0.9981469226820251,
        0.9925975148175246,
        0.983381152886683,
        0.9705464151031374,
        0.9541605940683188,
        0.934308974383845,
        0.9110939475089592,
        0.8846339719285373,
        0.8550624235200821,
        0.8225262811367046,
        0.7871848103402235,
        0.7492081551139921,
        0.7087761703577067,
        0.6660764346310685,
        0.621303342223731,
        0.5746566561266812,
        0.526340247302487,
        0.47656092487705065,
        0.4255273606840172,
        0.37344911676490766,
        0.3205357870064932,
        0.26699619982033884,
        0.213037766266526,
        0.158865884371641,
        0.10468354892614432,
        0.0506905858986364,
        -0.002916514052998361,
        -0.055945037565505756,
        -0.10820640247224497,
        -0.15951657973402666,
        -0.20969644739738583,
        -0.25857223636041893,
        -0.30597595039592296,
        -0.3517458944054554,
        -0.39572720811777556,
        -0.43777244904437873,
        -0.4777421996053359,
        -0.5155059925999939,
        -0.5509423687988543,
        -0.5839400727359239,
        -0.614398559414443,
        -0.6422286441661376,
        -0.6673528880483047,
        -0.6897067621748346,
        -0.7092385424209932,
        -0.7259098408737962,
        -0.7396958897163617,
        -0.7505857019681882,
        -0.7585821068027844,
        -0.7637016716352122,
        -0.7659744486151726,
        -0.765443655096666,
        -0.762165192530913,
        -0.7562070566752916,
        -0.7476486197086256,
        -0.7365798946214007,
        -0.7231008884211491,
        -0.7073198383069635,
        -0.6893531677068141,
        -0.6693240400158553,
        -0.6473614358489413,
        -0.6235990845147293,
        -0.5981746900216968,
        -0.5712284676454324,
        -0.5429026421764228,
        -0.513340503375168,
        -0.4826855970745766,
        -0.451081024226285,
        -0.4186687620707722,
        -0.38558906239030094,
        -0.3519800131625879,
        -0.31797703382227277,
        -0.28371251065669945,
        -0.2493156893233642,
        -0.21491176298652961,
        -0.18062224364658683,
        -0.14656452829491937,
        -0.11285175665475895,
        -0.0795925880350837,
        -0.04689136963825868,
        -0.01484726842397409,
        0.01644521954898625,
        0.04689660527897565,
        0.07642256835168519,
        0.10494380248852068,
        0.13238686597422214,
        0.15868363733314295,
        0.18377162326321375,
        0.20759438657246249,
        0.23010100576818868,
        0.25124668363135444,
        0.2709928863605465,
        0.28930672426417375,
        0.30616160198901504,
        0.3215369886485318,
        0.3354183697527305,
        0.347797280901185,
        0.35867093023249014,
        0.36804229626795415,
        0.37591944680130107
    ],
    "overlap_dropped": [
        0,
        0,
        0,
        0,
        0,
        0,
        0,
        0,
        0,
        1.996962071965881e-8,
        5.9205140445069834e-8,
        1.3052869025901275e-7,
        0,
        0,
        0,
        0,
        0,
        0,
        5.95502846381227e-10,
        1.5753268463897578e-9,
        3.07022785599536e-9,
        1.739349675863872e-8,
        4.0773931142906707e-8,
        7.608520998595088e-8,
        0,
        0,
        -7.48258310651204e-10,
        -1.8885946422453483e-9,
        -3.571289533095673e-9,
        8.471631679865532e-9,
        2.1674244123143947e-8,
        3.5183787648426896e-8,
        3.350819610994548e-8,
        2.2447467166290947e-8,
        -2.098670975164262e-9,
        -4.6528454059035785e-8,
        -1.193502962722339e-7,
        1.9155110496885187e-8,
        3.8860746352180694e-8,
        7.545944863334926e-8,
        1.2066759617025124e-7,
        1.7309452974625497e-7,
        -7.413650825699686e-10,
        -1.6683979679398922e-9,
        -2.7586657334064685e-9,
        -4.010750746554841e-9,
        -5.415322655075202e-9,
        -6.446749686446379e-9,
        -7.4009693402384736e-9,
        -8.495833248708476e-9,
        -2.2469512559287625e-8,
        -4.170368452282602e-8,
        -6.742793677749363e-8,
        -1.0127647731494829e-7,
        -1.4462060729616312e-7,
        -1.7662762129599838e-7,
        6.092992558583362e-8,
        -1.3165351785344218e-8,
        -2.725816896150477e-8,
        -5.678479994827182e-8,
        -9.295528383387012e-8,
        -1.523491612147104e-7,
        -2.0951522615033963e-8,
        -1.806040515554602e-8,
        -1.6413681849873265e-8,
        -3.1504667810799227e-9,
        8.862585483259777e-9,
        2.122478088017943e-8,
        1.7094516838121178e-8,
        -1.1373943174542445e-8,
        -4.084800763452015e-8,
        -9.548423386161836e-8,
        -1.6731979450788772e-7,
        -1.888259039088476e-8,
        -6.512149232285182e-8,
        -1.1498571850998847e-7,
        -1.7908854234658545e-7,
        -2.445050038683756e-7,
        -3.1546905423734865e-7,
        -1.1816238911928896e-7,
        -1.1261364914117975e-7,
        -1.0341129309964512e-7,
        -9.45417866887299e-8,
        -8.808874556656797e-8,
        1.449703213454564e-7,
        1.73010543001645e-7,
        1.9175007651259754e-7,
        2.589688622092353e-7,
        9.81412932064086e-8,
        8.527668057678218e-8,
        6.901388651107948e-8,
        -1.5526526687204003e-7,
        -1.7430687080580778e-7,
        -1.9306980700323057e-7,
        -1.9765433827644878e-7,
        -1.706612921587547e-7,
        -2.152386414820488e-7,
        -2.0337701599459698e-7,
        -1.998403983881587e-7,
        1.4870231436128325e-7,
        1.8808313334074712e-7
    ],
    "rule": {
        "label": "xy7_d1em07",
        "weight_period": 1,
        "family": "xy+coeff",
        "tau_z": 0,
        "c_gate": 1.0e-16,
        "tau_xyz": 0,
        "tau_xy": 7,
        "rule_hash": "4259cc7773",
        "coeff_min": 1.0e-7
    },
    "n_kept": [
        1,
        5,
        12,
        17,
        22,
        28,
        32,
        39,
        41,
        50,
        53,
        61,
        69,
        80,
        83,
        92,
        104,
        117,
        119,
        131,
        155,
        166,
        179,
        195,
        215,
        227,
        245,
        275,
        299,
        318,
        342,
        369,
        400,
        424,
        464,
        507,
        532,
        569,
        613,
        674,
        729,
        779,
        818,
        881,
        939,
        1014,
        1079,
        1146,
        1212,
        1286,
        1365,
        1472,
        1559,
        1630,
        1711,
        1816,
        1920,
        2056,
        2180,
        2302,
        2413,
        2549,
        2708,
        2859,
        3036,
        3205,
        3382,
        3610,
        3860,
        4066,
        4245,
        4481,
        4779,
        5025,
        5257,
        5545,
        5815,
        6091,
        6423,
        6726,
        7067,
        7374,
        7686,
        8035,
        8403,
        8766,
        9123,
        9523,
        9959,
        10412,
        10827,
        11345,
        11819,
        12253,
        12812,
        13405,
        14002,
        14555,
        15170,
        15764,
        16391
    ],
    "hit_xyz": [
        0,
        0,
        0,
        0,
        0,
        0,
        0,
        0,
        0,
        0,
        0,
        0,
        0,
        0,
        0,
        0,
        0,
        0,
        0,
        0,
        0,
        0,
        0,
        0,
        0,
        0,
        0,
        0,
        0,
        0,
        0,
        0,
        0,
        0,
        0,
        0,
        0,
        0,
        0,
        0,
        0,
        0,
        0,
        0,
        0,
        0,
        0,
        0,
        0,
        0,
        0,
        0,
        0,
        0,
        0,
        0,
        0,
        0,
        0,
        0,
        0,
        0,
        0,
        0,
        0,
        0,
        0,
        0,
        0,
        0,
        0,
        0,
        0,
        0,
        0,
        0,
        0,
        0,
        0,
        0,
        0,
        0,
        0,
        0,
        0,
        0,
        0,
        0,
        0,
        0,
        0,
        0,
        0,
        0,
        0,
        0,
        0,
        0,
        0,
        0,
        0
    ],
    "git_commit": "unknown",
    "n_raw": [
        1,
        5,
        42,
        50,
        96,
        98,
        98,
        98,
        125,
        173,
        220,
        226,
        228,
        228,
        312,
        312,
        350,
        392,
        491,
        506,
        526,
        660,
        698,
        705,
        709,
        871,
        950,
        1052,
        1070,
        1140,
        1222,
        1338,
        1415,
        1419,
        1576,
        1826,
        1942,
        2087,
        2154,
        2338,
        2578,
        2639,
        2787,
        3069,
        3383,
        3483,
        3694,
        3837,
        4122,
        4517,
        4899,
        5359,
        5712,
        6069,
        6384,
        6560,
        7310,
        7960,
        8586,
        8853,
        9311,
        10013,
        10837,
        11382,
        11869,
        12604,
        13487,
        14611,
        15591,
        16165,
        16968,
        17868,
        18951,
        20264,
        20877,
        22031,
        22847,
        24531,
        26018,
        27308,
        28382,
        29850,
        31443,
        33285,
        34641,
        36201,
        38295,
        40457,
        42714,
        44735,
        46478,
        48929,
        51342,
        53677,
        55664,
        59381,
        62548,
        65538,
        68484,
        71021,
        73549
    ],
    "weight_second_moment_raw": [
        1,
        1.0000029617816564,
        1.0000265588691284,
        1.0001056550820673,
        1.0002913501483999,
        1.000649578000144,
        1.0012592927855475,
        1.002210287957495,
        1.003600703017602,
        1.0055342803647678,
        1.0081174410389289,
        1.0114562527842308,
        1.015653366688534,
        1.0208049995909128,
        1.0269980384840425,
        1.0343073402729674,
        1.0427932955826922,
        1.052499718921662,
        1.063452119596908,
        1.0756563985174328,
        1.0890980056702657,
        1.1037415818455707,
        1.1195310964418257,
        1.136390481179321,
        1.1542247475775944,
        1.1729215644518234,
        1.192353260698307,
        1.2123792085736569,
        1.2328485337333723,
        1.2536030907252602,
        1.274480636578135,
        1.2953181307168942,
        1.3159550867559582,
        1.336236900823748,
        1.3560180819155063,
        1.375165312344486,
        1.393560270532433,
        1.411102154066638,
        1.4277098479681218,
        1.4433236912640248,
        1.457906804087881,
        1.4714459473695758,
        1.4839518975298065,
        1.4954593292066773,
        1.5060262097054504,
        1.5157327193198054,
        1.5246797217628492,
        1.5329868183617759,
        1.5407900283599438,
        1.5482391453137292,
        1.5554948261473716,
        1.5627254747092236,
        1.570103985622474,
        1.5778044167117575,
        1.5859986593365174,
        1.5948531754514665,
        1.60452586826112,
        1.615163149918739,
        1.6268972649608615,
        1.639843922098969,
        1.654100279882284,
        1.6697433235879242,
        1.6868286618654713,
        1.7053897621851577,
        1.7254376344053701,
        1.7469609619070547,
        1.7699266699888436,
        1.7942809118783656,
        1.8199504439302536,
        1.846844353595259,
        1.8748560967633,
        1.9038657952044464,
        1.9337427402234406,
        1.9643480453419169,
        1.9955373889629358,
        2.027163787519101,
        2.059080340434017,
        2.091142890446204,
        2.123212546292363,
        2.155158019235101,
        2.186857730349729,
        2.2182016517913326,
        2.2490928520179327,
        2.279448722302088,
        2.309201869297832,
        2.3383006660463175,
        2.3667094612331514,
        2.3944084537463244,
        2.4213932463378325,
        2.4476740984724956,
        2.473274904092005,
        2.4982319249358627,
        2.52259231421064,
        2.5464124686667886,
        2.5697562496623103,
        2.5926931153354027,
        2.6152962066840737,
        2.6376404302840677,
        2.659800579313619,
        2.681849532811144,
        2.7038565705010464
    ],
    "hit_multiple_weight": [
        0,
        0,
        0,
        0,
        0,
        0,
        0,
        0,
        0,
        0,
        0,
        0,
        0,
        0,
        0,
        0,
        0,
        0,
        0,
        0,
        0,
        0,
        0,
        0,
        0,
        0,
        0,
        0,
        0,
        0,
        0,
        0,
        0,
        0,
        0,
        0,
        0,
        0,
        0,
        0,
        0,
        0,
        0,
        0,
        0,
        0,
        0,
        0,
        0,
        0,
        0,
        0,
        0,
        0,
        0,
        0,
        0,
        0,
        0,
        0,
        0,
        0,
        0,
        0,
        0,
        0,
        0,
        0,
        0,
        0,
        0,
        0,
        0,
        0,
        0,
        0,
        0,
        0,
        0,
        0,
        0,
        0,
        0,
        0,
        0,
        0,
        0,
        0,
        0,
        0,
        0,
        0,
        0,
        0,
        0,
        0,
        0,
        0,
        0,
        0,
        0
    ],
    "autocorr_raw": [
        1,
        0.9981469226820251,
        0.9925960394100215,
        0.983372351948895,
        0.9705173825897254,
        0.9540889541715651,
        0.934160884096981,
        0.9108225943038378,
        0.8841786396849464,
        0.8543481579533069,
        0.8214642444295561,
        0.7856732556760422,
        0.7471340463154315,
        0.7060171437481334,
        0.662503865819945,
        0.6167853867875646,
        0.5690617571839763,
        0.5195408833976902,
        0.4684374729494504,
        0.41597195157781436,
        0.3623693583318444,
        0.3078582249163006,
        0.25266944554370996,
        0.19703514352024565,
        0.1411875407303695,
        0.08535783609062186,
        0.029775098917766578,
        -0.025334816997354744,
        -0.07975033299956781,
        -0.1332551734577501,
        -0.1856393567560744,
        -0.23670014446349222,
        -0.28624294402864603,
        -0.3340821606386608,
        -0.3800419941898829,
        -0.4239571776455977,
        -0.4656736533990925,
        -0.5050491846191623,
        -0.5419538989282657,
        -0.5762707621499157,
        -0.6078959802602902,
        -0.6367393280880654,
        -0.6627244037244814,
        -0.6857888080308061,
        -0.7058842490605798,
        -0.7229765716469432,
        -0.737045712838413,
        -0.7480855842968254,
        -0.756103883195823,
        -0.7611218335740211,
        -0.7631738605005434,
        -0.7623071997986156,
        -0.7585814464419529,
        -0.7520680450854753,
        -0.7428497265132405,
        -0.731019894079398,
        -0.7166819644797072,
        -0.6999486674192994,
        -0.6809413089348524,
        -0.6597890032845389,
        -0.6366278784358358,
        -0.6116002602588227,
        -0.5848538405707486,
        -0.5565408341766735,
        -0.526817130011682,
        -0.4958414414137287,
        -0.463774460444293,
        -0.43077802102874174,
        -0.39701427551204055,
        -0.3626448890208966,
        -0.3278302557935016,
        -0.2927287413858578,
        -0.2574959543924111,
        -0.22228405103163215,
        -0.18724107564748935,
        -0.15251033986860651,
        -0.11822984285131014,
        -0.08453173471360642,
        -0.051541824947044707,
        -0.019379137274847504,
        0.011844487890199127,
        0.04202474254387037,
        0.07106515120240035,
        0.09887732177918349,
        0.12538114726068803,
        0.15050495848850343,
        0.17418562861531117,
        0.19636863005117938,
        0.21700804495245354,
        0.23606653052827536,
        0.2535152406491092,
        0.2693337054373425,
        0.2835096707018247,
        0.29603889924589993,
        0.3069249362318374,
        0.31617884092331905,
        0.32381888725152236,
        0.3298702357590344,
        0.3343645795690202,
        0.33733976710440605,
        0.3388394043429893
    ],
    "complete": true,
    "schema_version": "pds-ppml-v3.0",
    "hit_xy": [
        0,
        0,
        0,
        0,
        0,
        0,
        0,
        0,
        0,
        0,
        0,
        0,
        0,
        0,
        0,
        0,
        0,
        0,
        0,
        0,
        0,
        0,
        0,
        0,
        0,
        4,
        4,
        12,
        12,
        12,
        12,
        12,
        16,
        16,
        16,
        62,
        72,
        72,
        72,
        72,
        110,
        112,
        164,
        164,
        188,
        188,
        209,
        212,
        310,
        366,
        366,
        408,
        480,
        548,
        568,
        568,
        735,
        863,
        931,
        961,
        1049,
        1065,
        1237,
        1300,
        1464,
        1584,
        1994,
        2234,
        2432,
        2580,
        2854,
        2902,
        3265,
        3592,
        3666,
        3939,
        4053,
        4579,
        5025,
        5412,
        5772,
        6059,
        6455,
        7206,
        7690,
        8008,
        8652,
        9364,
        10139,
        10776,
        11647,
        12470,
        13054,
        13760,
        14488,
        15787,
        16891,
        17869,
        18855,
        19783,
        20506
    ],
    "project_toml_sha256": "0f476d319d0bc551a77a410c1947451ebb8d68d98f047a4d3a348358de256696"
}