{
    "created_at": "2026-06-03T03:40:52.449",
    "n_complete": 71,
    "drop_coeff_only": [
        0,
        0,
        2069,
        21278,
        27864,
        44691,
        75812,
        98837,
        136538,
        169829,
        208658,
        243859,
        278053,
        334058,
        386566,
        432306,
        518909,
        619309,
        693141,
        765157,
        864989,
        934913,
        993106,
        1064915,
        1130244,
        1237477,
        1363801,
        1444919,
        1547958,
        1671516,
        1865921,
        2041466,
        2164755,
        2264727,
        2409255,
        2518007,
        2623076,
        2714583,
        2799474,
        2911706,
        3029539,
        3168461,
        3314025,
        3481235,
        3642585,
        3811660,
        3959292,
        4063616,
        4192661,
        4287753,
        4368915,
        4432237,
        4506716,
        4588865,
        4693509,
        4860446,
        5043303,
        5186978,
        5345274,
        5463951,
        5582046,
        5673099,
        5710283,
        5740896,
        5796600,
        5871189,
        5899073,
        5971771,
        6050216,
        6149999,
        6245999,
        6345042,
        null,
        null,
        null,
        null,
        null,
        null,
        null,
        null,
        null,
        null,
        null,
        null,
        null,
        null,
        null,
        null,
        null,
        null,
        null,
        null,
        null,
        null,
        null,
        null,
        null,
        null,
        null,
        null,
        null
    ],
    "system": {
        "dt": 0.01,
        "P0_coeff": 1,
        "h": 3.04438,
        "P0_term_hex": "3000000",
        "name": "rect5x5",
        "topology_repr": "[(1, 6), (1, 2), (2, 7), (2, 3), (3, 8), (3, 4), (4, 9), (4, 5), (5, 10), (6, 11), (6, 7), (7, 12), (7, 8), (8, 13), (8, 9), (9, 14), (9, 10), (10, 15), (11, 16), (11, 12), (12, 17), (12, 13), (13, 18), (13, 14), (14, 19), (14, 15), (15, 20), (16, 21), (16, 17), (17, 22), (17, 18), (18, 23), (18, 19), (19, 24), (19, 20), (20, 25), (21, 22), (22, 23), (23, 24), (24, 25)]",
        "P0_nqubits": 25,
        "n_layers": 100,
        "g": 0,
        "n_qubits": 25,
        "J": 1
    },
    "julia_version": "1.12.6",
    "n_dropped": [
        0,
        0,
        3297,
        40396,
        62125,
        118242,
        238908,
        355402,
        608003,
        854410,
        1209205,
        1659595,
        2123654,
        2765553,
        3555664,
        4212257,
        5321133,
        6698147,
        8142243,
        10331619,
        12749002,
        15277731,
        18298768,
        21595952,
        25206009,
        28851433,
        33263591,
        37320504,
        41825266,
        47295811,
        54112179,
        61304599,
        68957637,
        78001340,
        87844309,
        98552279,
        110144448,
        121585318,
        134479886,
        148142569,
        162688945,
        176788896,
        191700969,
        207235001,
        223848397,
        241402239,
        260925191,
        281091734,
        302579950,
        324214281,
        349464984,
        374583035,
        401241853,
        428084910,
        454990203,
        483496399,
        514205863,
        545365223,
        578705633,
        612881428,
        648291904,
        684982612,
        722962722,
        758893789,
        796955967,
        837777104,
        878128394,
        918322159,
        960277629,
        1003916225,
        1049872985,
        1098797994,
        null,
        null,
        null,
        null,
        null,
        null,
        null,
        null,
        null,
        null,
        null,
        null,
        null,
        null,
        null,
        null,
        null,
        null,
        null,
        null,
        null,
        null,
        null,
        null,
        null,
        null,
        null,
        null,
        null
    ],
    "overlap_kept": [
        1,
        0.9981469226820251,
        0.9926063686130848,
        0.9834338752950258,
        0.9707203832509299,
        0.9545898656529019,
        0.9351962301603173,
        0.9127194567757699,
        0.8873612269524357,
        0.8593403594754598,
        0.8288879375899615,
        0.7962425604036155,
        0.7616457287500186,
        0.7253375887078689,
        0.6875532229370616,
        0.6485193088982988,
        0.6084514854813987,
        0.567552309691882,
        0.5260100639489258,
        0.4839976656434179,
        0.4416727091993812,
        0.39917776996847226,
        0.3566410293820028,
        0.3141774173422545,
        0.2718899528584284,
        0.22987122877976732,
        0.18820511296584802,
        0.14696829380032508,
        0.10623177072141034,
        0.06606225003226757,
        0.02652337736922384,
        -0.012323241807200049,
        -0.05041706079707477,
        -0.08769791793600458,
        -0.12410585661899065,
        -0.15958089418222735,
        -0.19406306547284566,
        -0.2274925460678389,
        -0.2598099954775115,
        -0.29095710293676025,
        -0.32087697516696045,
        -0.34951483575868314,
        -0.3768184390080391,
        -0.40273887967805483,
        -0.42723089294866756,
        -0.4502535033888598,
        -0.4717706235936549,
        -0.49175129972639925,
        -0.510170094049033,
        -0.5270074495828457,
        -0.5422497333025201,
        -0.5558892612257996,
        -0.5679241954167545,
        -0.5783588672238849,
        -0.587203182669981,
        -0.5944724101322798,
        -0.6001866994775867,
        -0.6043703894227316,
        -0.6070513560948213,
        -0.6082599845005042,
        -0.6080280817065462,
        -0.6063881607948017,
        -0.6033717892778332,
        -0.5990089202117984,
        -0.5933267859057877,
        -0.586349260406873,
        -0.5780957410164589,
        -0.5685810354455161,
        -0.557814955269578,
        -0.5458025064363863,
        -0.5325443625067307,
        -0.518037267683476,
        null,
        null,
        null,
        null,
        null,
        null,
        null,
        null,
        null,
        null,
        null,
        null,
        null,
        null,
        null,
        null,
        null,
        null,
        null,
        null,
        null,
        null,
        null,
        null,
        null,
        null,
        null,
        null,
        null
    ],
    "hit_any_weight": [
        0,
        0,
        1228,
        19118,
        34261,
        73551,
        163096,
        256565,
        471465,
        684581,
        1000547,
        1415736,
        1845601,
        2431495,
        3169098,
        3779951,
        4802224,
        6078838,
        7449102,
        9566462,
        11884013,
        14342818,
        17305662,
        20531037,
        24075765,
        27613956,
        31899790,
        35875585,
        40277308,
        45624295,
        52246258,
        59263133,
        66792882,
        75736613,
        85435054,
        96034272,
        107521372,
        118870735,
        131680412,
        145230863,
        159659406,
        173620435,
        188386944,
        203753766,
        220205812,
        237590579,
        256965899,
        277028118,
        298387289,
        319926528,
        345096069,
        370150798,
        396735137,
        423496045,
        450296694,
        478635953,
        509162560,
        540178245,
        573360359,
        607417477,
        642709858,
        679309513,
        717252439,
        753152893,
        791159367,
        831905915,
        872229321,
        912350388,
        954227413,
        997766226,
        1043626986,
        1092452952,
        null,
        null,
        null,
        null,
        null,
        null,
        null,
        null,
        null,
        null,
        null,
        null,
        null,
        null,
        null,
        null,
        null,
        null,
        null,
        null,
        null,
        null,
        null,
        null,
        null,
        null,
        null,
        null,
        null
    ],
    "drop_weight_only": [
        0,
        0,
        0,
        0,
        0,
        12,
        24,
        134,
        792,
        1536,
        3226,
        6876,
        12056,
        17058,
        25666,
        38082,
        52156,
        68356,
        90616,
        114668,
        153764,
        193759,
        236809,
        289136,
        351954,
        435282,
        531720,
        646300,
        759350,
        886992,
        1028688,
        1184172,
        1384772,
        1559572,
        1749686,
        1962212,
        2204801,
        2488993,
        2813633,
        3156029,
        3536897,
        3940835,
        4381549,
        4833185,
        5346409,
        5879973,
        6425167,
        7006893,
        7623238,
        8312582,
        9040996,
        9785377,
        10628843,
        11525971,
        12492151,
        13454259,
        14413322,
        15445704,
        16513968,
        17621122,
        18765466,
        19949068,
        21155510,
        22457482,
        23829518,
        25205880,
        26599014,
        28081822,
        29641034,
        31249712,
        32968447,
        34724303,
        null,
        null,
        null,
        null,
        null,
        null,
        null,
        null,
        null,
        null,
        null,
        null,
        null,
        null,
        null,
        null,
        null,
        null,
        null,
        null,
        null,
        null,
        null,
        null,
        null,
        null,
        null,
        null,
        null
    ],
    "hit_coeff": [
        0,
        0,
        3297,
        40396,
        62125,
        118230,
        238884,
        355268,
        607211,
        852874,
        1205979,
        1652719,
        2111598,
        2748495,
        3529998,
        4174175,
        5268977,
        6629791,
        8051627,
        10216951,
        12595238,
        15083972,
        18061959,
        21306816,
        24854055,
        28416151,
        32731871,
        36674204,
        41065916,
        46408819,
        53083491,
        60120427,
        67572865,
        76441768,
        86094623,
        96590067,
        107939647,
        119096325,
        131666253,
        144986540,
        159152048,
        172848061,
        187319420,
        202401816,
        218501988,
        235522266,
        254500024,
        274084841,
        294956712,
        315901699,
        340423988,
        364797658,
        390613010,
        416558939,
        442498052,
        470042140,
        499792541,
        529919519,
        562191665,
        595260306,
        629526438,
        665033544,
        701807212,
        736436307,
        773126449,
        812571224,
        851529380,
        890240337,
        930636595,
        972666513,
        1016904538,
        1064073691,
        null,
        null,
        null,
        null,
        null,
        null,
        null,
        null,
        null,
        null,
        null,
        null,
        null,
        null,
        null,
        null,
        null,
        null,
        null,
        null,
        null,
        null,
        null,
        null,
        null,
        null,
        null,
        null,
        null
    ],
    "drop_coeff_and_weight": [
        0,
        0,
        1228,
        19118,
        34261,
        73539,
        163072,
        256431,
        470673,
        683045,
        997321,
        1408860,
        1833545,
        2414437,
        3143432,
        3741869,
        4750068,
        6010482,
        7358486,
        9451794,
        11730249,
        14149059,
        17068853,
        20241901,
        23723811,
        27178674,
        31368070,
        35229285,
        39517958,
        44737303,
        51217570,
        58078961,
        65408110,
        74177041,
        83685368,
        94072060,
        105316571,
        116381742,
        128866779,
        142074834,
        156122509,
        169679600,
        184005395,
        198920581,
        214859403,
        231710606,
        250540732,
        270021225,
        290764051,
        311613946,
        336055073,
        360365421,
        386106294,
        411970074,
        437804543,
        465181694,
        494749238,
        524732541,
        556846391,
        589796355,
        623944392,
        659360445,
        696096929,
        730695411,
        767329849,
        806700035,
        845630307,
        884268566,
        924586379,
        966516514,
        1010658539,
        1057728649,
        null,
        null,
        null,
        null,
        null,
        null,
        null,
        null,
        null,
        null,
        null,
        null,
        null,
        null,
        null,
        null,
        null,
        null,
        null,
        null,
        null,
        null,
        null,
        null,
        null,
        null,
        null,
        null,
        null
    ],
    "hit_z": [
        0,
        0,
        0,
        0,
        0,
        0,
        0,
        0,
        0,
        0,
        0,
        0,
        0,
        0,
        0,
        0,
        0,
        0,
        0,
        0,
        0,
        0,
        0,
        0,
        0,
        0,
        0,
        0,
        0,
        0,
        0,
        0,
        0,
        0,
        0,
        0,
        0,
        0,
        0,
        0,
        0,
        0,
        0,
        0,
        0,
        0,
        0,
        0,
        0,
        0,
        0,
        0,
        0,
        0,
        0,
        0,
        0,
        0,
        0,
        0,
        0,
        0,
        0,
        0,
        0,
        0,
        0,
        0,
        0,
        0,
        0,
        0,
        null,
        null,
        null,
        null,
        null,
        null,
        null,
        null,
        null,
        null,
        null,
        null,
        null,
        null,
        null,
        null,
        null,
        null,
        null,
        null,
        null,
        null,
        null,
        null,
        null,
        null,
        null,
        null,
        null
    ],
    "manifest_toml_sha256": "0bc8dd956e2d53dfc75dae382811cbae5159e33b4ab25664d941105fcfb60c81",
    "git_dirty": true,
    "experiment": "rect5x5",
    "overlap_raw": [
        1,
        0.9981469226820251,
        0.9926063680251854,
        0.9834338754514447,
        0.9707203848025056,
        0.9545898877238316,
        0.9351962528265599,
        0.9127194604665358,
        0.8873612376939024,
        0.8593403574106714,
        0.8288879278854252,
        0.7962425403353997,
        0.7616457109307553,
        0.7253376127560481,
        0.6875532605174369,
        0.6485193570734468,
        0.6084515507688183,
        0.5675524280994781,
        0.5260101224114525,
        0.4839977283799439,
        0.4416727732076247,
        0.39917779036939943,
        0.35664101915704244,
        0.31417739213395923,
        0.27188993578689113,
        0.22987127898900966,
        0.18820523487568308,
        0.1469684333701451,
        0.10623188028663806,
        0.06606229664325372,
        0.026523374114853657,
        -0.012323217002386585,
        -0.05041698482066136,
        -0.08769788224461607,
        -0.12410587007400295,
        -0.15958094027644928,
        -0.19406310769591328,
        -0.2274925578823222,
        -0.2598099931271359,
        -0.2909570296530377,
        -0.3208768507185733,
        -0.3495146181092148,
        -0.3768181805546291,
        -0.4027385309086968,
        -0.4272305338746938,
        -0.45025323011434387,
        -0.4717704247530271,
        -0.4917512198065488,
        -0.5101701573677005,
        -0.5270075376159604,
        -0.542249730693086,
        -0.5558891507547985,
        -0.5679241335962946,
        -0.5783587730820665,
        -0.5872031034462278,
        -0.5944723874756589,
        -0.6001867473947575,
        -0.6043705400969449,
        -0.6070515521822708,
        -0.6082601995312689,
        -0.6080283625188027,
        -0.6063883103523654,
        -0.603371933227143,
        -0.5990090756112307,
        -0.5933270052899078,
        -0.5863493926365877,
        -0.5780958679060019,
        -0.5685811246523986,
        -0.5578150606923726,
        -0.5458026555064068,
        -0.5325444714968619,
        -0.5180374165389754,
        null,
        null,
        null,
        null,
        null,
        null,
        null,
        null,
        null,
        null,
        null,
        null,
        null,
        null,
        null,
        null,
        null,
        null,
        null,
        null,
        null,
        null,
        null,
        null,
        null,
        null,
        null,
        null,
        null
    ],
    "overlap_dropped": [
        0,
        0,
        -5.878993995850699e-10,
        1.5641884610787705e-10,
        1.5515756464970495e-9,
        2.2070929657819753e-8,
        2.2666242701105354e-8,
        3.6907659387242263e-9,
        1.074146666844401e-8,
        -2.0647885028229675e-9,
        -9.70453623161722e-9,
        -2.0068215872334765e-8,
        -1.781926331894875e-8,
        2.4048179247112153e-8,
        3.75803753332771e-8,
        4.8175148010576246e-8,
        6.52874196363319e-8,
        1.184075962060013e-7,
        5.846252669517984e-8,
        6.273652603067799e-8,
        6.40082435188406e-8,
        2.0400927163132214e-8,
        -1.0224960378906103e-8,
        -2.520829527162034e-8,
        -1.7071537266005655e-8,
        5.0209242357805386e-8,
        1.21909835048695e-7,
        1.395698200110516e-7,
        1.0956522772072548e-7,
        4.6610986156914225e-8,
        -3.254370182955083e-9,
        2.4804813462901348e-8,
        7.597641340602669e-8,
        3.569138851391509e-8,
        -1.3455012301436855e-8,
        -4.609422192766942e-8,
        -4.2223067634272285e-8,
        -1.1814483307088452e-8,
        2.3503756319789507e-9,
        7.328372251427165e-8,
        1.24448387134382e-7,
        2.1764946834848214e-7,
        2.584534099568599e-7,
        3.487693579980155e-7,
        3.590739737559191e-7,
        2.7327451592471845e-7,
        1.9884062779766093e-7,
        7.991985047727378e-8,
        -6.331866752436653e-8,
        -8.803311469729006e-8,
        2.609434099044048e-9,
        1.1047100107538682e-7,
        6.182045999511772e-8,
        9.414181829742168e-8,
        7.922375312999614e-8,
        2.2656620863184632e-8,
        -4.791717076956409e-8,
        -1.5067421335761063e-7,
        -1.9608744951826827e-7,
        -2.1503076464659608e-7,
        -2.808122564090793e-7,
        -1.4955756371072345e-7,
        -1.4394930977749427e-7,
        -1.55399432288175e-7,
        -2.19384120121177e-7,
        -1.322297147528004e-7,
        -1.2688954301384407e-7,
        -8.920688254269007e-8,
        -1.0542279458649375e-7,
        -1.4907002051176184e-7,
        -1.0899013125985901e-7,
        -1.4885549934511955e-7,
        null,
        null,
        null,
        null,
        null,
        null,
        null,
        null,
        null,
        null,
        null,
        null,
        null,
        null,
        null,
        null,
        null,
        null,
        null,
        null,
        null,
        null,
        null,
        null,
        null,
        null,
        null,
        null,
        null
    ],
    "rule": {
        "label": "xyz7_d1em09",
        "weight_period": 1,
        "family": "xyz+coeff",
        "tau_z": 0,
        "c_gate": 1.0e-16,
        "tau_xyz": 7,
        "tau_xy": 0,
        "rule_hash": "fbc9b4f1eb",
        "coeff_min": 1.0e-9
    },
    "n_kept": [
        1,
        17,
        307,
        570,
        1016,
        1799,
        2955,
        5244,
        7100,
        10750,
        14874,
        19014,
        25560,
        32446,
        40708,
        51378,
        63160,
        77270,
        96292,
        117218,
        139704,
        166764,
        197870,
        228168,
        257536,
        292962,
        327819,
        367903,
        411319,
        461059,
        510494,
        571544,
        637688,
        706784,
        779479,
        853966,
        929580,
        1018502,
        1102202,
        1190770,
        1278898,
        1372407,
        1472652,
        1580728,
        1699014,
        1820696,
        1946618,
        2078676,
        2215824,
        2355660,
        2495276,
        2634030,
        2784880,
        2941824,
        3097072,
        3258000,
        3419106,
        3589622,
        3767052,
        3946376,
        4140588,
        4336820,
        4535664,
        4743260,
        4947936,
        5148174,
        5351008,
        5553028,
        5761718,
        5976510,
        6196778,
        6430046,
        null,
        null,
        null,
        null,
        null,
        null,
        null,
        null,
        null,
        null,
        null,
        null,
        null,
        null,
        null,
        null,
        null,
        null,
        null,
        null,
        null,
        null,
        null,
        null,
        null,
        null,
        null,
        null,
        null
    ],
    "hit_xyz": [
        0,
        0,
        1228,
        19118,
        34261,
        73551,
        163096,
        256565,
        471465,
        684581,
        1000547,
        1415736,
        1845601,
        2431495,
        3169098,
        3779951,
        4802224,
        6078838,
        7449102,
        9566462,
        11884013,
        14342818,
        17305662,
        20531037,
        24075765,
        27613956,
        31899790,
        35875585,
        40277308,
        45624295,
        52246258,
        59263133,
        66792882,
        75736613,
        85435054,
        96034272,
        107521372,
        118870735,
        131680412,
        145230863,
        159659406,
        173620435,
        188386944,
        203753766,
        220205812,
        237590579,
        256965899,
        277028118,
        298387289,
        319926528,
        345096069,
        370150798,
        396735137,
        423496045,
        450296694,
        478635953,
        509162560,
        540178245,
        573360359,
        607417477,
        642709858,
        679309513,
        717252439,
        753152893,
        791159367,
        831905915,
        872229321,
        912350388,
        954227413,
        997766226,
        1043626986,
        1092452952,
        null,
        null,
        null,
        null,
        null,
        null,
        null,
        null,
        null,
        null,
        null,
        null,
        null,
        null,
        null,
        null,
        null,
        null,
        null,
        null,
        null,
        null,
        null,
        null,
        null,
        null,
        null,
        null,
        null
    ],
    "git_commit": "unknown",
    "n_raw": [
        1,
        17,
        3604,
        40966,
        63141,
        120041,
        241863,
        360646,
        615103,
        865160,
        1224079,
        1678609,
        2149214,
        2797999,
        3596372,
        4263635,
        5384293,
        6775417,
        8238535,
        10448837,
        12888706,
        15444495,
        18496638,
        21824120,
        25463545,
        29144395,
        33591410,
        37688407,
        42236585,
        47756870,
        54622673,
        61876143,
        69595325,
        78708124,
        88623788,
        99406245,
        111074028,
        122603820,
        135582088,
        149333339,
        163967843,
        178161303,
        193173621,
        208815729,
        225547411,
        243222935,
        262871809,
        283170410,
        304795774,
        326569941,
        351960260,
        377217065,
        404026733,
        431026734,
        458087275,
        486754399,
        517624969,
        548954845,
        582472685,
        616827804,
        652432492,
        689319432,
        727498386,
        763637049,
        801903903,
        842925278,
        883479402,
        923875187,
        966039347,
        1009892735,
        1056069763,
        1105228040,
        null,
        null,
        null,
        null,
        null,
        null,
        null,
        null,
        null,
        null,
        null,
        null,
        null,
        null,
        null,
        null,
        null,
        null,
        null,
        null,
        null,
        null,
        null,
        null,
        null,
        null,
        null,
        null,
        null
    ],
    "hit_multiple_weight": [
        0,
        0,
        0,
        0,
        0,
        0,
        0,
        0,
        0,
        0,
        0,
        0,
        0,
        0,
        0,
        0,
        0,
        0,
        0,
        0,
        0,
        0,
        0,
        0,
        0,
        0,
        0,
        0,
        0,
        0,
        0,
        0,
        0,
        0,
        0,
        0,
        0,
        0,
        0,
        0,
        0,
        0,
        0,
        0,
        0,
        0,
        0,
        0,
        0,
        0,
        0,
        0,
        0,
        0,
        0,
        0,
        0,
        0,
        0,
        0,
        0,
        0,
        0,
        0,
        0,
        0,
        0,
        0,
        0,
        0,
        0,
        0,
        null,
        null,
        null,
        null,
        null,
        null,
        null,
        null,
        null,
        null,
        null,
        null,
        null,
        null,
        null,
        null,
        null,
        null,
        null,
        null,
        null,
        null,
        null,
        null,
        null,
        null,
        null,
        null,
        null
    ],
    "autocorr_raw": [
        1,
        0.9981469226820251,
        0.9925975197085724,
        0.9833812078411727,
        0.9705467818343544,
        0.9541620672797362,
        0.9343134397684683,
        0.91110521543419,
        0.8846589192200185,
        0.8551124383781135,
        0.8226190697410566,
        0.7873464701868044,
        0.7494755204438919,
        0.7091991129460742,
        0.6667208748453199,
        0.622253837532925,
        0.5760190641081955,
        0.5282442461836746,
        0.4791622812388591,
        0.4290098414463399,
        0.3780259445119794,
        0.32645053661124057,
        0.27452309698390864,
        0.22248127318507946,
        0.17055955539581444,
        0.11898799758476877,
        0.06799099269265141,
        0.017786108392483645,
        -0.03141701063420864,
        -0.07941766856868629,
        -0.12602506773031685,
        -0.17105917709578733,
        -0.2143515164775687,
        -0.25574585334758193,
        -0.295098809861097,
        -0.3322803782068818,
        -0.36717434298551677,
        -0.39967860990081683,
        -0.429705440640584,
        -0.4571815944222459,
        -0.4820483772846495,
        -0.5042616008162092,
        -0.5237914526171109,
        -0.5406222813934092,
        -0.5547523001665439,
        -0.5661932116451646,
        -0.5749697603387697,
        -0.5811192164859809,
        -0.5846907973159226,
        -0.5857450315513572,
        -0.5843530733900146,
        -0.5805959724602094,
        -0.5745639064340085,
        -0.566355383093137,
        -0.5560764186783977,
        -0.5438396993132502,
        -0.5297637321786615,
        -0.5139719929332547,
        -0.4965920756254506,
        -0.4777548510392091,
        -0.45759363905960715,
        -0.4362434002470034,
        -0.4138399513775367,
        -0.3905192092519249,
        -0.36641646660260696,
        -0.3416657034494532,
        -0.31639893677426023,
        -0.29074561091096623,
        -0.2648320305880165,
        -0.2387808381166332,
        -0.21271053579790689,
        -0.1867350542256129,
        null,
        null,
        null,
        null,
        null,
        null,
        null,
        null,
        null,
        null,
        null,
        null,
        null,
        null,
        null,
        null,
        null,
        null,
        null,
        null,
        null,
        null,
        null,
        null,
        null,
        null,
        null,
        null,
        null
    ],
    "complete": false,
    "schema_version": "pds-ppml-v3.0",
    "hit_xy": [
        0,
        0,
        0,
        0,
        0,
        0,
        0,
        0,
        0,
        0,
        0,
        0,
        0,
        0,
        0,
        0,
        0,
        0,
        0,
        0,
        0,
        0,
        0,
        0,
        0,
        0,
        0,
        0,
        0,
        0,
        0,
        0,
        0,
        0,
        0,
        0,
        0,
        0,
        0,
        0,
        0,
        0,
        0,
        0,
        0,
        0,
        0,
        0,
        0,
        0,
        0,
        0,
        0,
        0,
        0,
        0,
        0,
        0,
        0,
        0,
        0,
        0,
        0,
        0,
        0,
        0,
        0,
        0,
        0,
        0,
        0,
        0,
        null,
        null,
        null,
        null,
        null,
        null,
        null,
        null,
        null,
        null,
        null,
        null,
        null,
        null,
        null,
        null,
        null,
        null,
        null,
        null,
        null,
        null,
        null,
        null,
        null,
        null,
        null,
        null,
        null
    ],
    "project_toml_sha256": "0f476d319d0bc551a77a410c1947451ebb8d68d98f047a4d3a348358de256696"
}