{
    "created_at": "2026-06-10T23:16:02.157",
    "n_complete": 100,
    "drop_coeff_only": [
        0,
        0,
        30,
        33,
        74,
        70,
        66,
        59,
        84,
        123,
        167,
        165,
        159,
        148,
        229,
        220,
        246,
        275,
        372,
        375,
        371,
        494,
        519,
        510,
        494,
        644,
        705,
        777,
        771,
        822,
        880,
        969,
        1015,
        995,
        1112,
        1319,
        1410,
        1517,
        1540,
        1661,
        1846,
        1856,
        1963,
        2176,
        2434,
        2453,
        2597,
        2668,
        2883,
        3146,
        3499,
        3814,
        4102,
        4345,
        4590,
        4679,
        5311,
        5807,
        6287,
        6470,
        6795,
        7439,
        8005,
        8427,
        8713,
        9331,
        9939,
        10855,
        11498,
        11828,
        12459,
        13090,
        13866,
        14902,
        15140,
        16046,
        16638,
        18176,
        19163,
        19970,
        20816,
        21989,
        23316,
        24322,
        25146,
        26617,
        27860,
        30332,
        31638,
        33195,
        34268,
        36170,
        38089,
        39336,
        40768,
        44412,
        46819,
        49381,
        52478,
        53802,
        55799
    ],
    "system": {
        "dt": 0.01,
        "P0_coeff": 1,
        "h": 3.04438,
        "P0_term_hex": "c000",
        "name": "chain16",
        "topology_repr": "[(1, 2), (2, 3), (3, 4), (4, 5), (5, 6), (6, 7), (7, 8), (8, 9), (9, 10), (10, 11), (11, 12), (12, 13), (13, 14), (14, 15), (15, 16), (16, 1)]",
        "P0_nqubits": 16,
        "n_layers": 100,
        "g": 0,
        "n_qubits": 16,
        "J": 1
    },
    "julia_version": "1.12.6",
    "n_dropped": [
        0,
        0,
        30,
        33,
        74,
        70,
        66,
        59,
        84,
        123,
        167,
        165,
        159,
        148,
        229,
        220,
        246,
        275,
        372,
        375,
        371,
        494,
        519,
        510,
        494,
        644,
        705,
        777,
        771,
        822,
        880,
        969,
        1015,
        995,
        1112,
        1319,
        1410,
        1517,
        1540,
        1661,
        1846,
        1856,
        1963,
        2176,
        2434,
        2453,
        2597,
        2668,
        2883,
        3146,
        3499,
        3814,
        4102,
        4345,
        4590,
        4679,
        5311,
        5807,
        6287,
        6470,
        6795,
        7439,
        8005,
        8427,
        8713,
        9331,
        9939,
        10855,
        11498,
        11828,
        12459,
        13090,
        13866,
        14902,
        15140,
        16046,
        16638,
        18176,
        19163,
        19970,
        20816,
        21989,
        23316,
        24322,
        25146,
        26617,
        27860,
        30332,
        31638,
        33195,
        34268,
        36170,
        38089,
        39336,
        40768,
        44412,
        46819,
        49381,
        52478,
        53802,
        55799
    ],
    "overlap_kept": [
        1,
        0.9981469226820251,
        0.9925975148175246,
        0.983381152886683,
        0.9705464151031374,
        0.9541605940683188,
        0.934308974383845,
        0.9110939475089592,
        0.8846339719285373,
        0.8550624035504614,
        0.8225262219315641,
        0.7871846798115332,
        0.7492081551139921,
        0.7087761703577067,
        0.6660764346310685,
        0.621303342223731,
        0.5746566561266812,
        0.526340247302487,
        0.4765609242815478,
        0.42552735910869033,
        0.3734491136946798,
        0.32053576961299646,
        0.2669961590464077,
        0.21303769018131602,
        0.158865884371641,
        0.10468354892614432,
        0.05069058664689471,
        -0.002916512164403719,
        -0.05594503399421622,
        -0.10820641094387665,
        -0.1595166014082708,
        -0.2096964825811735,
        -0.25857226986861503,
        -0.3059759728433901,
        -0.35174589230678444,
        -0.39572716158932153,
        -0.4377723296940825,
        -0.4777422187604464,
        -0.5155060314607403,
        -0.5509424442583029,
        -0.58394019340352,
        -0.6143987325089727,
        -0.6422286434247725,
        -0.6673528863799069,
        -0.6897067594161692,
        -0.7092385384102462,
        -0.7259098354584994,
        -0.7396958832697474,
        -0.7505856945677888,
        -0.7585820983089808,
        -0.7637016491720005,
        -0.7659744069289633,
        -0.7654435877128323,
        -0.7621650913572048,
        -0.7562069122782865,
        -0.7476484435393154,
        -0.7365799564427248,
        -0.7231008769093416,
        -0.7073198139909892,
        -0.6893531159646948,
        -0.6693239554140396,
        -0.6473612969139009,
        -0.6235990844622894,
        -0.5981747036915446,
        -0.5712284982770504,
        -0.5429027072728404,
        -0.5133406092767014,
        -0.48268575375310074,
        -0.4510812271938601,
        -0.4186690017800642,
        -0.3855893558690984,
        -0.3519803633421677,
        -0.31797744932611105,
        -0.2837132487289081,
        -0.24931659379431176,
        -0.21491287564530212,
        -0.18062360333617372,
        -0.14656619564054657,
        -0.11285379831866203,
        -0.07959546174356806,
        -0.04689499268488253,
        -0.014851760156663278,
        0.016439734818833047,
        0.04688999274793745,
        0.07641444697211797,
        0.10493419931442709,
        0.13237556211643678,
        0.15867038016571738,
        0.18375639476332067,
        0.20757674470383064,
        0.23008059656402935,
        0.2512231021984847,
        0.2709655505773988,
        0.28927513708858554,
        0.30612500221111577,
        0.3214949843924813,
        0.3353703771006549,
        0.3477425895916274,
        0.3586088555088823,
        0.3679719291240563,
        0.375840529589849
    ],
    "hit_any_weight": [
        0,
        0,
        0,
        0,
        0,
        0,
        0,
        0,
        0,
        0,
        0,
        0,
        0,
        0,
        0,
        0,
        0,
        0,
        0,
        0,
        0,
        0,
        0,
        0,
        0,
        0,
        0,
        0,
        0,
        0,
        0,
        0,
        0,
        0,
        0,
        0,
        0,
        0,
        0,
        0,
        0,
        0,
        0,
        0,
        0,
        0,
        0,
        0,
        0,
        0,
        0,
        0,
        0,
        0,
        0,
        0,
        0,
        0,
        0,
        0,
        0,
        0,
        0,
        0,
        0,
        0,
        0,
        0,
        0,
        0,
        0,
        0,
        0,
        0,
        0,
        0,
        0,
        0,
        0,
        0,
        0,
        0,
        0,
        0,
        0,
        0,
        0,
        0,
        0,
        0,
        0,
        0,
        0,
        0,
        0,
        0,
        0,
        0,
        0,
        0,
        0
    ],
    "drop_weight_only": [
        0,
        0,
        0,
        0,
        0,
        0,
        0,
        0,
        0,
        0,
        0,
        0,
        0,
        0,
        0,
        0,
        0,
        0,
        0,
        0,
        0,
        0,
        0,
        0,
        0,
        0,
        0,
        0,
        0,
        0,
        0,
        0,
        0,
        0,
        0,
        0,
        0,
        0,
        0,
        0,
        0,
        0,
        0,
        0,
        0,
        0,
        0,
        0,
        0,
        0,
        0,
        0,
        0,
        0,
        0,
        0,
        0,
        0,
        0,
        0,
        0,
        0,
        0,
        0,
        0,
        0,
        0,
        0,
        0,
        0,
        0,
        0,
        0,
        0,
        0,
        0,
        0,
        0,
        0,
        0,
        0,
        0,
        0,
        0,
        0,
        0,
        0,
        0,
        0,
        0,
        0,
        0,
        0,
        0,
        0,
        0,
        0,
        0,
        0,
        0,
        0
    ],
    "hit_coeff": [
        0,
        0,
        30,
        33,
        74,
        70,
        66,
        59,
        84,
        123,
        167,
        165,
        159,
        148,
        229,
        220,
        246,
        275,
        372,
        375,
        371,
        494,
        519,
        510,
        494,
        644,
        705,
        777,
        771,
        822,
        880,
        969,
        1015,
        995,
        1112,
        1319,
        1410,
        1517,
        1540,
        1661,
        1846,
        1856,
        1963,
        2176,
        2434,
        2453,
        2597,
        2668,
        2883,
        3146,
        3499,
        3814,
        4102,
        4345,
        4590,
        4679,
        5311,
        5807,
        6287,
        6470,
        6795,
        7439,
        8005,
        8427,
        8713,
        9331,
        9939,
        10855,
        11498,
        11828,
        12459,
        13090,
        13866,
        14902,
        15140,
        16046,
        16638,
        18176,
        19163,
        19970,
        20816,
        21989,
        23316,
        24322,
        25146,
        26617,
        27860,
        30332,
        31638,
        33195,
        34268,
        36170,
        38089,
        39336,
        40768,
        44412,
        46819,
        49381,
        52478,
        53802,
        55799
    ],
    "drop_coeff_and_weight": [
        0,
        0,
        0,
        0,
        0,
        0,
        0,
        0,
        0,
        0,
        0,
        0,
        0,
        0,
        0,
        0,
        0,
        0,
        0,
        0,
        0,
        0,
        0,
        0,
        0,
        0,
        0,
        0,
        0,
        0,
        0,
        0,
        0,
        0,
        0,
        0,
        0,
        0,
        0,
        0,
        0,
        0,
        0,
        0,
        0,
        0,
        0,
        0,
        0,
        0,
        0,
        0,
        0,
        0,
        0,
        0,
        0,
        0,
        0,
        0,
        0,
        0,
        0,
        0,
        0,
        0,
        0,
        0,
        0,
        0,
        0,
        0,
        0,
        0,
        0,
        0,
        0,
        0,
        0,
        0,
        0,
        0,
        0,
        0,
        0,
        0,
        0,
        0,
        0,
        0,
        0,
        0,
        0,
        0,
        0,
        0,
        0,
        0,
        0,
        0,
        0
    ],
    "hit_z": [
        0,
        0,
        0,
        0,
        0,
        0,
        0,
        0,
        0,
        0,
        0,
        0,
        0,
        0,
        0,
        0,
        0,
        0,
        0,
        0,
        0,
        0,
        0,
        0,
        0,
        0,
        0,
        0,
        0,
        0,
        0,
        0,
        0,
        0,
        0,
        0,
        0,
        0,
        0,
        0,
        0,
        0,
        0,
        0,
        0,
        0,
        0,
        0,
        0,
        0,
        0,
        0,
        0,
        0,
        0,
        0,
        0,
        0,
        0,
        0,
        0,
        0,
        0,
        0,
        0,
        0,
        0,
        0,
        0,
        0,
        0,
        0,
        0,
        0,
        0,
        0,
        0,
        0,
        0,
        0,
        0,
        0,
        0,
        0,
        0,
        0,
        0,
        0,
        0,
        0,
        0,
        0,
        0,
        0,
        0,
        0,
        0,
        0,
        0,
        0,
        0
    ],
    "manifest_toml_sha256": "0bc8dd956e2d53dfc75dae382811cbae5159e33b4ab25664d941105fcfb60c81",
    "git_dirty": true,
    "experiment": "chain16",
    "overlap_raw": [
        1,
        0.9981469226820251,
        0.9925975148175246,
        0.983381152886683,
        0.9705464151031374,
        0.9541605940683188,
        0.934308974383845,
        0.9110939475089592,
        0.8846339719285373,
        0.8550624235200821,
        0.8225262811367046,
        0.7871848103402235,
        0.7492081551139921,
        0.7087761703577067,
        0.6660764346310685,
        0.621303342223731,
        0.5746566561266812,
        0.526340247302487,
        0.47656092487705065,
        0.4255273606840172,
        0.37344911676490766,
        0.3205357870064932,
        0.26699619982033884,
        0.213037766266526,
        0.158865884371641,
        0.10468354892614432,
        0.0506905858986364,
        -0.002916514052998361,
        -0.055945037565505756,
        -0.10820640247224497,
        -0.15951657973402666,
        -0.20969644739738583,
        -0.25857223636041893,
        -0.30597595039592296,
        -0.3517458944054554,
        -0.39572720811777556,
        -0.43777244904437873,
        -0.4777421996053359,
        -0.5155059925999939,
        -0.5509423687988543,
        -0.5839400727359239,
        -0.614398559414443,
        -0.6422286441661376,
        -0.6673528880483048,
        -0.689706762174835,
        -0.7092385424209969,
        -0.725909840873822,
        -0.7396958897164971,
        -0.7505857019687594,
        -0.7585821068048434,
        -0.7637016716416152,
        -0.765974448632949,
        -0.7654436551415089,
        -0.7621651926355552,
        -0.7562070569028817,
        -0.7476486201745481,
        -0.7365798955262625,
        -0.7231008901007899,
        -0.7073198413015949,
        -0.6893531728420975,
        -0.6693240486920111,
        -0.6473614499137105,
        -0.623599106558333,
        -0.5981747235417848,
        -0.571228517335087,
        -0.5429027263365885,
        -0.5133406174229882,
        -0.4826857507776555,
        -0.45108122985254884,
        -0.418669023183643,
        -0.3855893984318747,
        -0.35198045410846035,
        -0.3179776077101573,
        -0.28371325023140603,
        -0.24931663890317338,
        -0.21491297303688753,
        -0.1806237798826038,
        -0.14656645437352606,
        -0.11285415197158218,
        -0.07959553096673543,
        -0.046895061560746916,
        -0.014851831329601667,
        0.016439657760024092,
        0.046889905136971825,
        0.0764145754275153,
        0.10493435481693501,
        0.1323757654431394,
        0.15867063337101656,
        0.18375647697501404,
        0.20757681537816144,
        0.23008065109980408,
        0.2512231392334422,
        0.270965497704641,
        0.28927506121264995,
        0.30612512608863296,
        0.32149491259649343,
        0.33537029835375504,
        0.3477424929325288,
        0.35860877151490705,
        0.36797204010726037,
        0.375840515210029
    ],
    "overlap_dropped": [
        0,
        0,
        0,
        0,
        0,
        0,
        0,
        0,
        0,
        1.996962071965881e-8,
        5.9205140445069834e-8,
        1.3052869025901275e-7,
        0,
        0,
        0,
        0,
        0,
        0,
        5.95502846381227e-10,
        1.5753268463897578e-9,
        3.07022785599536e-9,
        1.739349675863872e-8,
        4.0773931142906707e-8,
        7.608520998595088e-8,
        0,
        0,
        -7.48258310651204e-10,
        -1.8885946422453483e-9,
        -3.571289533095673e-9,
        8.471631679865532e-9,
        2.1674244123143947e-8,
        3.5183787648426896e-8,
        3.350819610994548e-8,
        2.2447467166290947e-8,
        -2.098670975164262e-9,
        -4.6528454059035785e-8,
        -1.193502962722339e-7,
        1.9155110496885187e-8,
        3.8860746352180694e-8,
        7.545944863334926e-8,
        1.2066759617024764e-7,
        1.7309452974614128e-7,
        -7.413650825699717e-10,
        -1.6683979679398808e-9,
        -2.7586657334009967e-9,
        -4.0107507464345325e-9,
        -5.415322653776038e-9,
        -6.4467496771532295e-9,
        -7.400970647849752e-9,
        -8.495862544886032e-9,
        -2.2469614694163887e-8,
        -4.170398558292884e-8,
        -6.742867668551663e-8,
        -1.0127835032899243e-7,
        -1.4462459522824872e-7,
        -1.7663523276411434e-7,
        6.09164623601746e-8,
        -1.3191448340009242e-8,
        -2.7310605673200454e-8,
        -5.68774026438765e-8,
        -9.32779716023702e-8,
        -1.5299980957624202e-7,
        -2.2096043579934404e-8,
        -1.985024021669384e-8,
        -1.9058036557513624e-8,
        -1.90637481519359e-8,
        -8.146286756985241e-9,
        2.9754452103960777e-9,
        -2.6586887045394738e-9,
        -2.1403578781156818e-8,
        -4.2562776250718824e-8,
        -9.076629265034874e-8,
        -1.5838404624384385e-7,
        -1.5024979327034192e-9,
        -4.510886160442782e-8,
        -9.739158541959147e-8,
        -1.765464300900664e-7,
        -2.587329794736685e-7,
        -3.53652920145444e-7,
        -6.922316735859403e-8,
        -6.887586438373431e-8,
        -7.117293838873292e-8,
        -7.705880895654954e-8,
        -8.761096563016052e-8,
        1.2845539733414789e-7,
        1.5550250792897494e-7,
        2.033267026199587e-7,
        2.5320529918020416e-7,
        8.22116933824164e-8,
        7.067433080739586e-8,
        5.453577471746766e-8,
        3.703495748076172e-8,
        -5.287275775742649e-8,
        -7.587593559559001e-8,
        1.238775171633544e-7,
        -7.179598786211958e-8,
        -7.874689987949923e-8,
        -9.665909858641576e-8,
        -8.399397523543348e-8,
        1.1098320404810812e-7,
        -1.4379820021343069e-8
    ],
    "rule": {
        "label": "coeff_d1em07",
        "weight_period": 1,
        "family": "coeff",
        "tau_z": 0,
        "c_gate": 1.0e-16,
        "tau_xyz": 0,
        "tau_xy": 0,
        "rule_hash": "dc458fd5fc",
        "coeff_min": 1.0e-7
    },
    "n_kept": [
        1,
        5,
        12,
        17,
        22,
        28,
        32,
        39,
        41,
        50,
        53,
        61,
        69,
        80,
        83,
        92,
        104,
        117,
        119,
        131,
        155,
        166,
        179,
        195,
        215,
        227,
        245,
        275,
        299,
        318,
        342,
        369,
        400,
        424,
        464,
        507,
        532,
        570,
        614,
        677,
        732,
        783,
        824,
        893,
        949,
        1030,
        1097,
        1169,
        1239,
        1317,
        1400,
        1515,
        1610,
        1695,
        1786,
        1895,
        1999,
        2153,
        2289,
        2421,
        2536,
        2686,
        2854,
        3011,
        3202,
        3395,
        3608,
        3835,
        4124,
        4373,
        4601,
        4872,
        5217,
        5534,
        5837,
        6186,
        6515,
        6878,
        7274,
        7645,
        8040,
        8430,
        8851,
        9303,
        9783,
        10224,
        10717,
        11166,
        11705,
        12242,
        12799,
        13453,
        14058,
        14631,
        15341,
        16080,
        16858,
        17637,
        18393,
        19237,
        20069
    ],
    "hit_xyz": [
        0,
        0,
        0,
        0,
        0,
        0,
        0,
        0,
        0,
        0,
        0,
        0,
        0,
        0,
        0,
        0,
        0,
        0,
        0,
        0,
        0,
        0,
        0,
        0,
        0,
        0,
        0,
        0,
        0,
        0,
        0,
        0,
        0,
        0,
        0,
        0,
        0,
        0,
        0,
        0,
        0,
        0,
        0,
        0,
        0,
        0,
        0,
        0,
        0,
        0,
        0,
        0,
        0,
        0,
        0,
        0,
        0,
        0,
        0,
        0,
        0,
        0,
        0,
        0,
        0,
        0,
        0,
        0,
        0,
        0,
        0,
        0,
        0,
        0,
        0,
        0,
        0,
        0,
        0,
        0,
        0,
        0,
        0,
        0,
        0,
        0,
        0,
        0,
        0,
        0,
        0,
        0,
        0,
        0,
        0,
        0,
        0,
        0,
        0,
        0,
        0
    ],
    "git_commit": "unknown",
    "n_raw": [
        1,
        5,
        42,
        50,
        96,
        98,
        98,
        98,
        125,
        173,
        220,
        226,
        228,
        228,
        312,
        312,
        350,
        392,
        491,
        506,
        526,
        660,
        698,
        705,
        709,
        871,
        950,
        1052,
        1070,
        1140,
        1222,
        1338,
        1415,
        1419,
        1576,
        1826,
        1942,
        2087,
        2154,
        2338,
        2578,
        2639,
        2787,
        3069,
        3383,
        3483,
        3694,
        3837,
        4122,
        4463,
        4899,
        5329,
        5712,
        6040,
        6376,
        6574,
        7310,
        7960,
        8576,
        8891,
        9331,
        10125,
        10859,
        11438,
        11915,
        12726,
        13547,
        14690,
        15622,
        16201,
        17060,
        17962,
        19083,
        20436,
        20977,
        22232,
        23153,
        25054,
        26437,
        27615,
        28856,
        30419,
        32167,
        33625,
        34929,
        36841,
        38577,
        41498,
        43343,
        45437,
        47067,
        49623,
        52147,
        53967,
        56109,
        60492,
        63677,
        67018,
        70871,
        73039,
        75868
    ],
    "weight_second_moment_raw": [
        1,
        1.0000029617816564,
        1.0000265588691284,
        1.0001056550820673,
        1.0002913501483999,
        1.000649578000144,
        1.0012592927855475,
        1.002210287957495,
        1.003600703017602,
        1.0055342803647678,
        1.0081174410389289,
        1.0114562527842308,
        1.015653366688534,
        1.0208049995909128,
        1.0269980384840425,
        1.0343073402729674,
        1.0427932955826922,
        1.052499718921662,
        1.063452119596908,
        1.0756563985174328,
        1.0890980056702657,
        1.1037415818455707,
        1.1195310964418257,
        1.136390481179321,
        1.1542247475775944,
        1.1729215644518234,
        1.192353260698307,
        1.2123792085736569,
        1.2328485337333723,
        1.2536030907252602,
        1.274480636578135,
        1.2953181307168942,
        1.3159550867559582,
        1.336236900823748,
        1.3560180819155063,
        1.375165312344486,
        1.393560270532433,
        1.411102154066638,
        1.4277098479682022,
        1.4433236912644103,
        1.4579068040892753,
        1.4714459473736623,
        1.483951897540431,
        1.4954593292321492,
        1.506026209762587,
        1.5157327194393244,
        1.5246797220007549,
        1.5329868188150086,
        1.540790029192391,
        1.5482391467938554,
        1.5554948287046992,
        1.5627254790146534,
        1.570103992701453,
        1.5778044280984476,
        1.585998677281885,
        1.5948532031940694,
        1.6045259103761909,
        1.6151632127571995,
        1.6268973571921512,
        1.6398440553609352,
        1.6541004695474795,
        1.6697435896456458,
        1.6868290299120132,
        1.705390264503417,
        1.7254383111105154,
        1.7469618621234686,
        1.7699278530088858,
        1.7942824482525952,
        1.8199524164219611,
        1.8468468579533104,
        1.8748592422371546,
        1.903869704761517,
        1.93374755043117,
        1.9643539059071538,
        1.9955444619458618,
        2.027172246271812,
        2.059090368352671,
        2.091154679679831,
        2.123226296575151,
        2.1551739370394203,
        2.1868760286074442,
        2.218222550423252,
        2.2491165795393266,
        2.2794755187431046,
        2.3092319906639514,
        2.3383343905009477,
        2.366747097134306,
        2.3944503496125376,
        2.421439802705386,
        2.4477257816114877,
        2.473332261375318,
        2.498295601657086,
        2.5226630715338736,
        2.546491202351555,
        2.5698440091629395,
        2.5927911228403815,
        2.6154058756077982,
        2.6377633827677514,
        2.6599386622393713,
        2.6820048318604237,
        2.704031421858643
    ],
    "hit_multiple_weight": [
        0,
        0,
        0,
        0,
        0,
        0,
        0,
        0,
        0,
        0,
        0,
        0,
        0,
        0,
        0,
        0,
        0,
        0,
        0,
        0,
        0,
        0,
        0,
        0,
        0,
        0,
        0,
        0,
        0,
        0,
        0,
        0,
        0,
        0,
        0,
        0,
        0,
        0,
        0,
        0,
        0,
        0,
        0,
        0,
        0,
        0,
        0,
        0,
        0,
        0,
        0,
        0,
        0,
        0,
        0,
        0,
        0,
        0,
        0,
        0,
        0,
        0,
        0,
        0,
        0,
        0,
        0,
        0,
        0,
        0,
        0,
        0,
        0,
        0,
        0,
        0,
        0,
        0,
        0,
        0,
        0,
        0,
        0,
        0,
        0,
        0,
        0,
        0,
        0,
        0,
        0,
        0,
        0,
        0,
        0,
        0,
        0,
        0,
        0,
        0,
        0
    ],
    "autocorr_raw": [
        1,
        0.9981469226820251,
        0.9925960394100215,
        0.983372351948895,
        0.9705173825897254,
        0.9540889541715651,
        0.934160884096981,
        0.9108225943038378,
        0.8841786396849464,
        0.8543481579533069,
        0.8214642444295561,
        0.7856732556760422,
        0.7471340463154315,
        0.7060171437481334,
        0.662503865819945,
        0.6167853867875646,
        0.5690617571839763,
        0.5195408833976902,
        0.4684374729494504,
        0.41597195157781436,
        0.3623693583318444,
        0.3078582249163006,
        0.25266944554370996,
        0.19703514352024565,
        0.1411875407303695,
        0.08535783609062186,
        0.029775098917766578,
        -0.025334816997354744,
        -0.07975033299956781,
        -0.1332551734577501,
        -0.1856393567560744,
        -0.23670014446349222,
        -0.28624294402864603,
        -0.3340821606386608,
        -0.3800419941898829,
        -0.4239571776455977,
        -0.4656736533990925,
        -0.5050491846191623,
        -0.5419538989282657,
        -0.5762707621499157,
        -0.6078959802602902,
        -0.6367393280880654,
        -0.6627244037244814,
        -0.6857888080308061,
        -0.7058842490605798,
        -0.7229765716469432,
        -0.737045712838413,
        -0.7480855842968254,
        -0.756103883195823,
        -0.7611218335740211,
        -0.7631738605005434,
        -0.7623071997986156,
        -0.7585814464419529,
        -0.7520680450854753,
        -0.7428497265132405,
        -0.7310198940793979,
        -0.7166819644797069,
        -0.6999486674192986,
        -0.6809413089348508,
        -0.6597890032845359,
        -0.6366278784358302,
        -0.6116002602588126,
        -0.5848538405707306,
        -0.5565408341766424,
        -0.5268171300116292,
        -0.4958414414136415,
        -0.4637744604441519,
        -0.43077802102851814,
        -0.3970142755116935,
        -0.36264488902036845,
        -0.3278302557927135,
        -0.29272874138470395,
        -0.25749595439075396,
        -0.22228405102929794,
        -0.18724107564426642,
        -0.152510339864249,
        -0.11822984284555026,
        -0.08453173470618153,
        -0.05154182493774676,
        -0.01937913726360617,
        0.011844487903184625,
        0.04202474255793015,
        0.07106515121609647,
        0.09887732178988062,
        0.12538114726394667,
        0.15050495847723688,
        0.17418562857863257,
        0.19636862997284638,
        0.2170080448087967,
        0.23606653028546976,
        0.2535152402596197,
        0.2693337048353378,
        0.28350966979731645,
        0.29603889791731774,
        0.3069249343167016,
        0.3161788382066173,
        0.3238188834513362,
        0.3298702305088967,
        0.33436457239641465,
        0.3373397574047472,
        0.33883939134834656
    ],
    "complete": true,
    "schema_version": "pds-ppml-v3.0",
    "hit_xy": [
        0,
        0,
        0,
        0,
        0,
        0,
        0,
        0,
        0,
        0,
        0,
        0,
        0,
        0,
        0,
        0,
        0,
        0,
        0,
        0,
        0,
        0,
        0,
        0,
        0,
        0,
        0,
        0,
        0,
        0,
        0,
        0,
        0,
        0,
        0,
        0,
        0,
        0,
        0,
        0,
        0,
        0,
        0,
        0,
        0,
        0,
        0,
        0,
        0,
        0,
        0,
        0,
        0,
        0,
        0,
        0,
        0,
        0,
        0,
        0,
        0,
        0,
        0,
        0,
        0,
        0,
        0,
        0,
        0,
        0,
        0,
        0,
        0,
        0,
        0,
        0,
        0,
        0,
        0,
        0,
        0,
        0,
        0,
        0,
        0,
        0,
        0,
        0,
        0,
        0,
        0,
        0,
        0,
        0,
        0,
        0,
        0,
        0,
        0,
        0,
        0
    ],
    "project_toml_sha256": "0f476d319d0bc551a77a410c1947451ebb8d68d98f047a4d3a348358de256696"
}