{
    "created_at": "2026-06-10T23:19:11.645",
    "n_complete": 100,
    "drop_coeff_only": [
        0,
        0,
        30,
        33,
        74,
        70,
        66,
        59,
        84,
        123,
        167,
        165,
        159,
        148,
        229,
        220,
        242,
        271,
        366,
        369,
        365,
        480,
        505,
        494,
        478,
        610,
        668,
        718,
        710,
        753,
        807,
        872,
        898,
        878,
        990,
        1113,
        1170,
        1247,
        1270,
        1339,
        1462,
        1470,
        1477,
        1676,
        1764,
        1816,
        1880,
        1896,
        1946,
        2089,
        2364,
        2512,
        2690,
        2854,
        2988,
        3043,
        3318,
        3510,
        3865,
        3892,
        4086,
        4250,
        4637,
        4738,
        4822,
        4807,
        5019,
        5274,
        5430,
        5589,
        5638,
        5844,
        5910,
        6186,
        6239,
        6240,
        6325,
        6784,
        6985,
        7234,
        7414,
        7815,
        8287,
        8638,
        8934,
        9378,
        9728,
        9833,
        10105,
        10196,
        10066,
        10204,
        10653,
        10740,
        11002,
        11256,
        12020,
        12471,
        12930,
        13886,
        14094
    ],
    "system": {
        "dt": 0.01,
        "P0_coeff": 1,
        "h": 3.04438,
        "P0_term_hex": "c000",
        "name": "chain16",
        "topology_repr": "[(1, 2), (2, 3), (3, 4), (4, 5), (5, 6), (6, 7), (7, 8), (8, 9), (9, 10), (10, 11), (11, 12), (12, 13), (13, 14), (14, 15), (15, 16), (16, 1)]",
        "P0_nqubits": 16,
        "n_layers": 100,
        "g": 0,
        "n_qubits": 16,
        "J": 1
    },
    "julia_version": "1.12.6",
    "n_dropped": [
        0,
        0,
        30,
        33,
        74,
        70,
        66,
        59,
        84,
        123,
        167,
        165,
        159,
        148,
        229,
        220,
        246,
        275,
        372,
        375,
        371,
        494,
        519,
        510,
        494,
        644,
        705,
        777,
        771,
        822,
        880,
        969,
        1015,
        995,
        1114,
        1283,
        1372,
        1479,
        1504,
        1661,
        1810,
        1826,
        1847,
        2068,
        2200,
        2334,
        2429,
        2477,
        2541,
        2730,
        3109,
        3384,
        3747,
        3981,
        4154,
        4260,
        4649,
        4897,
        5619,
        5820,
        6099,
        6356,
        7039,
        7294,
        7498,
        7616,
        8120,
        8484,
        8897,
        9359,
        9891,
        10424,
        10602,
        11242,
        11394,
        11461,
        11707,
        12572,
        13065,
        13591,
        14417,
        15174,
        16186,
        17245,
        18096,
        19343,
        20298,
        20936,
        21623,
        22033,
        22031,
        22521,
        23214,
        23450,
        24097,
        25216,
        26796,
        28366,
        29357,
        31675,
        32326
    ],
    "overlap_kept": [
        1,
        0.9981469226820251,
        0.9925975148175246,
        0.983381152886683,
        0.9705464151031374,
        0.9541605940683188,
        0.934308974383845,
        0.9110939475089592,
        0.8846339719285373,
        0.8550624035504614,
        0.8225262219315641,
        0.7871846798115332,
        0.7492081551139921,
        0.7087761703577067,
        0.6660764346310685,
        0.621303342223731,
        0.5746566561266812,
        0.526340247302487,
        0.4765609242815478,
        0.42552735910869033,
        0.3734491136946798,
        0.32053576961299646,
        0.2669961590464077,
        0.21303769018131602,
        0.158865884371641,
        0.10468354892614432,
        0.05069058664689471,
        -0.002916512164403719,
        -0.05594503399421622,
        -0.10820641094387665,
        -0.1595166014082708,
        -0.2096964825811735,
        -0.25857226986861503,
        -0.3059759728433901,
        -0.35174589230678444,
        -0.39572716158932153,
        -0.4377723296940825,
        -0.4777422187604464,
        -0.5155060314607403,
        -0.5509424442583029,
        -0.5839401934035201,
        -0.6143987325089734,
        -0.6422286434247756,
        -0.6673528863799195,
        -0.6897067594162113,
        -0.7092385384103722,
        -0.7259098354588511,
        -0.7396958832706894,
        -0.7505856945702523,
        -0.7585820983152595,
        -0.763701649187344,
        -0.7659744069644513,
        -0.7654435877899805,
        -0.7621650915149616,
        -0.756206912581903,
        -0.7476484440900907,
        -0.7365799573867269,
        -0.7231008784416291,
        -0.7073198163523529,
        -0.6893531194282124,
        -0.6693239602599186,
        -0.6473613033917762,
        -0.6235990927799182,
        -0.5981747139225074,
        -0.5712285103301479,
        -0.5429027208584971,
        -0.5133406238900114,
        -0.4826857686913625,
        -0.4510812415997017,
        -0.41866901472109175,
        -0.3855893664570257,
        -0.3519803708599318,
        -0.3179774533552788,
        -0.2837132491601056,
        -0.24931659134280093,
        -0.21491287188412592,
        -0.18062360065904787,
        -0.14656632245475348,
        -0.11285409465679694,
        -0.07959585564195933,
        -0.04689549825543921,
        -0.014852391024315768,
        0.016439076344820367,
        0.046889298654487765,
        0.07641369786090514,
        0.10493334942569874,
        0.13237455691326097,
        0.15866916346337975,
        0.18375514410250843,
        0.20757546589943998,
        0.2300793234534578,
        0.2512218592347967,
        0.27096427153106584,
        0.28927383865823697,
        0.30612392757456985,
        0.3214939809534203,
        0.33536946239730286,
        0.34774179023204405,
        0.3586080011575614,
        0.3679710346933551,
        0.37583964532018427
    ],
    "hit_any_weight": [
        0,
        0,
        0,
        0,
        0,
        0,
        0,
        0,
        0,
        0,
        0,
        0,
        0,
        0,
        0,
        0,
        4,
        4,
        6,
        6,
        6,
        14,
        14,
        16,
        16,
        34,
        37,
        59,
        61,
        69,
        73,
        97,
        117,
        117,
        124,
        170,
        202,
        232,
        234,
        322,
        348,
        356,
        370,
        392,
        436,
        518,
        549,
        581,
        595,
        641,
        745,
        872,
        1057,
        1127,
        1166,
        1217,
        1331,
        1387,
        1754,
        1928,
        2013,
        2106,
        2402,
        2556,
        2676,
        2809,
        3101,
        3210,
        3467,
        3770,
        4253,
        4580,
        4692,
        5056,
        5155,
        5221,
        5382,
        5788,
        6080,
        6357,
        7003,
        7359,
        7899,
        8607,
        9162,
        9965,
        10570,
        11103,
        11518,
        11837,
        11965,
        12317,
        12561,
        12710,
        13095,
        13960,
        14776,
        15895,
        16427,
        17789,
        18232
    ],
    "drop_weight_only": [
        0,
        0,
        0,
        0,
        0,
        0,
        0,
        0,
        0,
        0,
        0,
        0,
        0,
        0,
        0,
        0,
        0,
        0,
        0,
        0,
        0,
        0,
        0,
        0,
        0,
        0,
        0,
        0,
        0,
        0,
        0,
        0,
        0,
        0,
        2,
        2,
        2,
        2,
        2,
        6,
        6,
        8,
        14,
        20,
        20,
        22,
        36,
        40,
        44,
        58,
        66,
        80,
        98,
        102,
        104,
        128,
        132,
        137,
        143,
        153,
        159,
        185,
        215,
        230,
        244,
        262,
        293,
        308,
        330,
        362,
        397,
        435,
        473,
        511,
        567,
        607,
        686,
        763,
        831,
        887,
        943,
        1019,
        1085,
        1127,
        1173,
        1199,
        1237,
        1283,
        1358,
        1407,
        1481,
        1561,
        1629,
        1731,
        1857,
        1945,
        2024,
        2138,
        2286,
        2412,
        2525
    ],
    "hit_coeff": [
        0,
        0,
        30,
        33,
        74,
        70,
        66,
        59,
        84,
        123,
        167,
        165,
        159,
        148,
        229,
        220,
        246,
        275,
        372,
        375,
        371,
        494,
        519,
        510,
        494,
        644,
        705,
        777,
        771,
        822,
        880,
        969,
        1015,
        995,
        1112,
        1281,
        1370,
        1477,
        1502,
        1655,
        1804,
        1818,
        1833,
        2048,
        2180,
        2312,
        2393,
        2437,
        2497,
        2672,
        3043,
        3304,
        3649,
        3879,
        4050,
        4132,
        4517,
        4760,
        5476,
        5667,
        5940,
        6171,
        6824,
        7064,
        7254,
        7354,
        7827,
        8176,
        8567,
        8997,
        9494,
        9989,
        10129,
        10731,
        10827,
        10854,
        11021,
        11809,
        12234,
        12704,
        13474,
        14155,
        15101,
        16118,
        16923,
        18144,
        19061,
        19653,
        20265,
        20626,
        20550,
        20960,
        21585,
        21719,
        22240,
        23271,
        24772,
        26228,
        27071,
        29263,
        29801
    ],
    "drop_coeff_and_weight": [
        0,
        0,
        0,
        0,
        0,
        0,
        0,
        0,
        0,
        0,
        0,
        0,
        0,
        0,
        0,
        0,
        4,
        4,
        6,
        6,
        6,
        14,
        14,
        16,
        16,
        34,
        37,
        59,
        61,
        69,
        73,
        97,
        117,
        117,
        122,
        168,
        200,
        230,
        232,
        316,
        342,
        348,
        356,
        372,
        416,
        496,
        513,
        541,
        551,
        583,
        679,
        792,
        959,
        1025,
        1062,
        1089,
        1199,
        1250,
        1611,
        1775,
        1854,
        1921,
        2187,
        2326,
        2432,
        2547,
        2808,
        2902,
        3137,
        3408,
        3856,
        4145,
        4219,
        4545,
        4588,
        4614,
        4696,
        5025,
        5249,
        5470,
        6060,
        6340,
        6814,
        7480,
        7989,
        8766,
        9333,
        9820,
        10160,
        10430,
        10484,
        10756,
        10932,
        10979,
        11238,
        12015,
        12752,
        13757,
        14141,
        15377,
        15707
    ],
    "hit_z": [
        0,
        0,
        0,
        0,
        0,
        0,
        0,
        0,
        0,
        0,
        0,
        0,
        0,
        0,
        0,
        0,
        0,
        0,
        0,
        0,
        0,
        0,
        0,
        0,
        0,
        0,
        0,
        0,
        0,
        0,
        0,
        0,
        0,
        0,
        0,
        0,
        0,
        0,
        0,
        0,
        0,
        0,
        0,
        0,
        0,
        0,
        0,
        0,
        0,
        0,
        0,
        0,
        0,
        0,
        0,
        0,
        0,
        0,
        0,
        0,
        0,
        0,
        0,
        0,
        0,
        0,
        0,
        0,
        0,
        0,
        0,
        0,
        0,
        0,
        0,
        0,
        0,
        0,
        0,
        0,
        0,
        0,
        0,
        0,
        0,
        0,
        0,
        0,
        0,
        0,
        0,
        0,
        0,
        0,
        0,
        0,
        0,
        0,
        0,
        0,
        0
    ],
    "manifest_toml_sha256": "0bc8dd956e2d53dfc75dae382811cbae5159e33b4ab25664d941105fcfb60c81",
    "git_dirty": true,
    "experiment": "chain16",
    "overlap_raw": [
        1,
        0.9981469226820251,
        0.9925975148175246,
        0.983381152886683,
        0.9705464151031374,
        0.9541605940683188,
        0.934308974383845,
        0.9110939475089592,
        0.8846339719285373,
        0.8550624235200821,
        0.8225262811367046,
        0.7871848103402235,
        0.7492081551139921,
        0.7087761703577067,
        0.6660764346310685,
        0.621303342223731,
        0.5746566561266812,
        0.526340247302487,
        0.47656092487705065,
        0.4255273606840172,
        0.37344911676490766,
        0.3205357870064932,
        0.26699619982033884,
        0.213037766266526,
        0.158865884371641,
        0.10468354892614432,
        0.0506905858986364,
        -0.002916514052998361,
        -0.055945037565505756,
        -0.10820640247224497,
        -0.15951657973402666,
        -0.20969644739738583,
        -0.25857223636041893,
        -0.30597595039592296,
        -0.3517458944054554,
        -0.39572720811777556,
        -0.43777244904437873,
        -0.4777421996053359,
        -0.5155059925999939,
        -0.5509423687988543,
        -0.583940072735924,
        -0.6143985594144438,
        -0.6422286441661407,
        -0.6673528880483175,
        -0.689706762174877,
        -0.7092385424211229,
        -0.7259098408741738,
        -0.739695889717439,
        -0.7505857019712227,
        -0.7585821068111652,
        -0.7637016716571066,
        -0.7659744486688667,
        -0.7654436552196675,
        -0.762165192795189,
        -0.7562070572096018,
        -0.7476486207298484,
        -0.7365798964757809,
        -0.7231008916399546,
        -0.7073198436592939,
        -0.6893531762822239,
        -0.6693240535311299,
        -0.6473614563819381,
        -0.6235991147905249,
        -0.5981747335716783,
        -0.5712285290115968,
        -0.5429027400589345,
        -0.5133406312087955,
        -0.4826857647511457,
        -0.4510812441204994,
        -0.4186690492228871,
        -0.385589434458829,
        -0.35198049927347497,
        -0.3179776616247993,
        -0.2837133135318952,
        -0.24931671328552468,
        -0.21491305799210636,
        -0.18062386828452354,
        -0.1465665554730164,
        -0.11285436821449187,
        -0.07959591595461499,
        -0.046895540066469524,
        -0.014852415325967346,
        0.016438954161821954,
        0.046889177218833046,
        0.07641381127192852,
        0.10493351155854895,
        0.13237478953992848,
        0.1586694790511608,
        0.1837550888165144,
        0.20757537624198855,
        0.23007918320953522,
        0.2512216650519065,
        0.2709640466158703,
        0.2892735863102755,
        0.3061236675853963,
        0.3214937199262671,
        0.33536921777964757,
        0.3477415672603124,
        0.3586080265493343,
        0.3679712948520409,
        0.37583976088869575
    ],
    "overlap_dropped": [
        0,
        0,
        0,
        0,
        0,
        0,
        0,
        0,
        0,
        1.996962071965881e-8,
        5.9205140445069834e-8,
        1.3052869025901275e-7,
        0,
        0,
        0,
        0,
        0,
        0,
        5.95502846381227e-10,
        1.5753268463897578e-9,
        3.07022785599536e-9,
        1.739349675863872e-8,
        4.0773931142906707e-8,
        7.608520998595088e-8,
        0,
        0,
        -7.48258310651204e-10,
        -1.8885946422453483e-9,
        -3.571289533095673e-9,
        8.471631679865532e-9,
        2.1674244123143947e-8,
        3.5183787648426896e-8,
        3.350819610994548e-8,
        2.2447467166290947e-8,
        -2.098670975164262e-9,
        -4.6528454059035785e-8,
        -1.193502962722339e-7,
        1.9155110496877994e-8,
        3.8860746351874266e-8,
        7.545944862942362e-8,
        1.2066759613845545e-7,
        1.7309452956561301e-7,
        -7.413650825758286e-10,
        -1.6683979679739007e-9,
        -2.758665733550541e-9,
        -4.010750746994821e-9,
        -5.415322655688048e-9,
        -6.4467496834890666e-9,
        -7.400970442679182e-9,
        -8.495905716556197e-9,
        -2.2469762626203774e-8,
        -4.17044153944618e-8,
        -6.742968707443412e-8,
        -1.0128022739549315e-7,
        -1.4462769884271285e-7,
        -1.766397577169459e-7,
        6.09109460022225e-8,
        -1.3198325490467339e-8,
        -2.7306941022436727e-8,
        -5.6854011470718286e-8,
        -9.327121130763183e-8,
        -1.529901619173898e-7,
        -2.2010606698185943e-8,
        -1.964917079202547e-8,
        -1.868144892490322e-8,
        -1.9200437309979513e-8,
        -7.318784036736537e-9,
        3.940216782490053e-9,
        -2.5207976703240707e-9,
        -3.4501795371253804e-8,
        -6.800180330878515e-8,
        -1.2841354317969104e-7,
        -2.0826952046319873e-7,
        -6.437178961678105e-8,
        -1.219427237556801e-7,
        -1.8610798045454236e-7,
        -2.6762547566172037e-7,
        -2.330182629164858e-7,
        -2.7355769492219746e-7,
        -6.03126556669709e-8,
        -4.181103030830363e-8,
        -2.430165157806169e-8,
        -1.2218299841475778e-7,
        -1.214356547173614e-7,
        1.134110233834784e-7,
        1.6213285021514001e-7,
        2.3262666752409366e-7,
        3.155877810429926e-7,
        -5.528599402186843e-8,
        -8.96574514449964e-8,
        -1.4024392257422005e-7,
        -1.9418289013688186e-7,
        -2.2491519554790977e-7,
        -2.523479614764341e-7,
        -2.599891735657068e-7,
        -2.610271532485079e-7,
        -2.4461765530228233e-7,
        -2.2297173162476793e-7,
        2.5391772933332505e-8,
        2.601586857688168e-7,
        1.1556851150021771e-7
    ],
    "rule": {
        "label": "xyz8_d1em07",
        "weight_period": 1,
        "family": "xyz+coeff",
        "tau_z": 0,
        "c_gate": 1.0e-16,
        "tau_xyz": 8,
        "tau_xy": 0,
        "rule_hash": "00e4fb7ccf",
        "coeff_min": 1.0e-7
    },
    "n_kept": [
        1,
        5,
        12,
        17,
        22,
        28,
        32,
        39,
        41,
        50,
        53,
        61,
        69,
        80,
        83,
        92,
        104,
        117,
        119,
        131,
        155,
        166,
        179,
        195,
        215,
        227,
        245,
        275,
        299,
        318,
        342,
        369,
        400,
        424,
        462,
        505,
        530,
        568,
        610,
        669,
        722,
        765,
        804,
        865,
        925,
        991,
        1044,
        1105,
        1163,
        1225,
        1286,
        1367,
        1445,
        1509,
        1577,
        1670,
        1758,
        1862,
        1974,
        2080,
        2187,
        2290,
        2402,
        2532,
        2649,
        2805,
        2941,
        3087,
        3273,
        3428,
        3579,
        3735,
        3912,
        4077,
        4252,
        4423,
        4579,
        4774,
        4951,
        5174,
        5340,
        5525,
        5693,
        5884,
        6116,
        6332,
        6555,
        6794,
        7048,
        7294,
        7548,
        7780,
        7983,
        8263,
        8557,
        8863,
        9132,
        9407,
        9700,
        10029,
        10333
    ],
    "hit_xyz": [
        0,
        0,
        0,
        0,
        0,
        0,
        0,
        0,
        0,
        0,
        0,
        0,
        0,
        0,
        0,
        0,
        4,
        4,
        6,
        6,
        6,
        14,
        14,
        16,
        16,
        34,
        37,
        59,
        61,
        69,
        73,
        97,
        117,
        117,
        124,
        170,
        202,
        232,
        234,
        322,
        348,
        356,
        370,
        392,
        436,
        518,
        549,
        581,
        595,
        641,
        745,
        872,
        1057,
        1127,
        1166,
        1217,
        1331,
        1387,
        1754,
        1928,
        2013,
        2106,
        2402,
        2556,
        2676,
        2809,
        3101,
        3210,
        3467,
        3770,
        4253,
        4580,
        4692,
        5056,
        5155,
        5221,
        5382,
        5788,
        6080,
        6357,
        7003,
        7359,
        7899,
        8607,
        9162,
        9965,
        10570,
        11103,
        11518,
        11837,
        11965,
        12317,
        12561,
        12710,
        13095,
        13960,
        14776,
        15895,
        16427,
        17789,
        18232
    ],
    "git_commit": "unknown",
    "n_raw": [
        1,
        5,
        42,
        50,
        96,
        98,
        98,
        98,
        125,
        173,
        220,
        226,
        228,
        228,
        312,
        312,
        350,
        392,
        491,
        506,
        526,
        660,
        698,
        705,
        709,
        871,
        950,
        1052,
        1070,
        1140,
        1222,
        1338,
        1415,
        1419,
        1576,
        1788,
        1902,
        2047,
        2114,
        2330,
        2532,
        2591,
        2651,
        2933,
        3125,
        3325,
        3473,
        3582,
        3704,
        3955,
        4395,
        4751,
        5192,
        5490,
        5731,
        5930,
        6407,
        6759,
        7593,
        7900,
        8286,
        8646,
        9441,
        9826,
        10147,
        10421,
        11061,
        11571,
        12170,
        12787,
        13470,
        14159,
        14514,
        15319,
        15646,
        15884,
        16286,
        17346,
        18016,
        18765,
        19757,
        20699,
        21879,
        23129,
        24212,
        25675,
        26853,
        27730,
        28671,
        29327,
        29579,
        30301,
        31197,
        31713,
        32654,
        34079,
        35928,
        37773,
        39057,
        41704,
        42659
    ],
    "weight_second_moment_raw": [
        1,
        1.0000029617816564,
        1.0000265588691284,
        1.0001056550820673,
        1.0002913501483999,
        1.000649578000144,
        1.0012592927855475,
        1.002210287957495,
        1.003600703017602,
        1.0055342803647678,
        1.0081174410389289,
        1.0114562527842308,
        1.015653366688534,
        1.0208049995909128,
        1.0269980384840425,
        1.0343073402729674,
        1.0427932955826922,
        1.052499718921662,
        1.063452119596908,
        1.0756563985174328,
        1.0890980056702657,
        1.1037415818455707,
        1.1195310964418257,
        1.136390481179321,
        1.1542247475775944,
        1.1729215644518234,
        1.192353260698307,
        1.2123792085736569,
        1.2328485337333723,
        1.2536030907252602,
        1.274480636578135,
        1.2953181307168942,
        1.3159550867559582,
        1.336236900823748,
        1.3560180819155063,
        1.37516531234421,
        1.3935602705315346,
        1.4111021540644844,
        1.4277098479636787,
        1.4433236912552194,
        1.4579068040714493,
        1.471445947340814,
        1.483951897481641,
        1.4954593291306668,
        1.5060262095911254,
        1.5157327191573313,
        1.5246797215443055,
        1.5329868180879571,
        1.540790028052587,
        1.5482391450334052,
        1.555494826022364,
        1.5627254749793866,
        1.5701039867031263,
        1.5778044192866965,
        1.5859986644812738,
        1.594853184797417,
        1.6045258842089605,
        1.6151631759060046,
        1.626897305786537,
        1.639843984313396,
        1.6541003722311485,
        1.6697434575076398,
        1.6868288520065164,
        1.7053900269478979,
        1.7254379964566013,
        1.746961448620811,
        1.7699273137838385,
        1.794281750374546,
        1.8199515198781382,
        1.846845714522842,
        1.8748577942840374,
        1.9038678839513912,
        1.9337452763781875,
        1.964351084782404,
        1.9955409850712655,
        2.0271679887066822,
        2.0590851875038094,
        2.091148413952214,
        2.1232187640873184,
        2.155164934408684,
        2.1868653298339633,
        2.218209905841926,
        2.2491017148701182,
        2.279458134198047,
        2.3092117601069564,
        2.338310960628173,
        2.3667200866389226,
        2.394419348288419,
        2.4214043704830956,
        2.447685447447516,
        2.4732865220121107,
        2.498243920203638,
        2.52260487586268,
        2.54642588333905,
        2.569770918779388,
        2.5927095721001177,
        2.6153151324850783,
        2.6376626700856565,
        2.659827155635681,
        2.681881657891851,
        2.7038956562840695
    ],
    "hit_multiple_weight": [
        0,
        0,
        0,
        0,
        0,
        0,
        0,
        0,
        0,
        0,
        0,
        0,
        0,
        0,
        0,
        0,
        0,
        0,
        0,
        0,
        0,
        0,
        0,
        0,
        0,
        0,
        0,
        0,
        0,
        0,
        0,
        0,
        0,
        0,
        0,
        0,
        0,
        0,
        0,
        0,
        0,
        0,
        0,
        0,
        0,
        0,
        0,
        0,
        0,
        0,
        0,
        0,
        0,
        0,
        0,
        0,
        0,
        0,
        0,
        0,
        0,
        0,
        0,
        0,
        0,
        0,
        0,
        0,
        0,
        0,
        0,
        0,
        0,
        0,
        0,
        0,
        0,
        0,
        0,
        0,
        0,
        0,
        0,
        0,
        0,
        0,
        0,
        0,
        0,
        0,
        0,
        0,
        0,
        0,
        0,
        0,
        0,
        0,
        0,
        0,
        0
    ],
    "autocorr_raw": [
        1,
        0.9981469226820251,
        0.9925960394100215,
        0.983372351948895,
        0.9705173825897254,
        0.9540889541715651,
        0.934160884096981,
        0.9108225943038378,
        0.8841786396849464,
        0.8543481579533069,
        0.8214642444295561,
        0.7856732556760422,
        0.7471340463154315,
        0.7060171437481334,
        0.662503865819945,
        0.6167853867875646,
        0.5690617571839763,
        0.5195408833976902,
        0.4684374729494504,
        0.41597195157781436,
        0.3623693583318444,
        0.3078582249163006,
        0.25266944554370996,
        0.19703514352024565,
        0.1411875407303695,
        0.08535783609062186,
        0.029775098917766578,
        -0.025334816997354744,
        -0.07975033299956781,
        -0.1332551734577501,
        -0.1856393567560744,
        -0.23670014446349222,
        -0.28624294402864603,
        -0.3340821606386608,
        -0.3800419941898829,
        -0.4239571776455977,
        -0.4656736533990925,
        -0.5050491846191623,
        -0.5419538989282657,
        -0.5762707621499157,
        -0.6078959802602902,
        -0.6367393280880654,
        -0.6627244037244814,
        -0.6857888080308061,
        -0.7058842490605798,
        -0.7229765716469432,
        -0.737045712838413,
        -0.7480855842968254,
        -0.756103883195823,
        -0.7611218335740211,
        -0.7631738605005434,
        -0.7623071997986156,
        -0.7585814464419529,
        -0.7520680450854753,
        -0.7428497265132407,
        -0.7310198940793983,
        -0.7166819644797076,
        -0.6999486674193,
        -0.6809413089348534,
        -0.6597890032845407,
        -0.6366278784358389,
        -0.6116002602588279,
        -0.5848538405707568,
        -0.5565408341766864,
        -0.5268171300117022,
        -0.4958414414137598,
        -0.46377446044434034,
        -0.4307780210288135,
        -0.39701427551214924,
        -0.36264488902106135,
        -0.32783025579375213,
        -0.29272874138624017,
        -0.25749595439299716,
        -0.22228405103253351,
        -0.18724107564887904,
        -0.15251033987075116,
        -0.11822984285461761,
        -0.08453173471869543,
        -0.05154182495484535,
        -0.019379137286744605,
        0.011844487872163727,
        0.04202474251671556,
        0.07106515116181605,
        0.09887732171899787,
        0.12538114717214643,
        0.15050495835930128,
        0.17418562842830873,
        0.1963686297827087,
        0.2170080445701065,
        0.23606652998803757,
        0.25351523989167524,
        0.26933370438341503,
        0.28350966924616117,
        0.296038897249828,
        0.3069249335139108,
        0.31617883724773166,
        0.3238188823138389,
        0.329870229168731,
        0.3343645708282581,
        0.3373397555823883,
        0.33883938924517276
    ],
    "complete": true,
    "schema_version": "pds-ppml-v3.0",
    "hit_xy": [
        0,
        0,
        0,
        0,
        0,
        0,
        0,
        0,
        0,
        0,
        0,
        0,
        0,
        0,
        0,
        0,
        0,
        0,
        0,
        0,
        0,
        0,
        0,
        0,
        0,
        0,
        0,
        0,
        0,
        0,
        0,
        0,
        0,
        0,
        0,
        0,
        0,
        0,
        0,
        0,
        0,
        0,
        0,
        0,
        0,
        0,
        0,
        0,
        0,
        0,
        0,
        0,
        0,
        0,
        0,
        0,
        0,
        0,
        0,
        0,
        0,
        0,
        0,
        0,
        0,
        0,
        0,
        0,
        0,
        0,
        0,
        0,
        0,
        0,
        0,
        0,
        0,
        0,
        0,
        0,
        0,
        0,
        0,
        0,
        0,
        0,
        0,
        0,
        0,
        0,
        0,
        0,
        0,
        0,
        0,
        0,
        0,
        0,
        0,
        0,
        0
    ],
    "project_toml_sha256": "0f476d319d0bc551a77a410c1947451ebb8d68d98f047a4d3a348358de256696"
}