{
    "created_at": "2026-06-10T23:18:33.774",
    "n_complete": 100,
    "drop_coeff_only": [
        0,
        0,
        30,
        33,
        74,
        70,
        66,
        59,
        82,
        121,
        160,
        158,
        150,
        139,
        218,
        209,
        215,
        242,
        331,
        333,
        329,
        412,
        433,
        420,
        401,
        495,
        555,
        563,
        553,
        572,
        628,
        626,
        650,
        626,
        718,
        742,
        762,
        804,
        817,
        842,
        845,
        861,
        925,
        1021,
        1152,
        1226,
        1219,
        1271,
        1258,
        1351,
        1522,
        1516,
        1541,
        1544,
        1725,
        1754,
        1915,
        1982,
        2019,
        2243,
        2257,
        2236,
        2214,
        2187,
        2323,
        2279,
        2229,
        2337,
        2445,
        2399,
        2490,
        2460,
        2689,
        2745,
        2831,
        2908,
        2918,
        2971,
        3092,
        3063,
        3290,
        3272,
        3455,
        3601,
        3634,
        3590,
        3549,
        3533,
        3634,
        3762,
        3792,
        3774,
        3798,
        4068,
        4816,
        4782,
        5120,
        5320,
        5237,
        5271,
        5303
    ],
    "system": {
        "dt": 0.01,
        "P0_coeff": 1,
        "h": 3.04438,
        "P0_term_hex": "c000",
        "name": "chain16",
        "topology_repr": "[(1, 2), (2, 3), (3, 4), (4, 5), (5, 6), (6, 7), (7, 8), (8, 9), (9, 10), (10, 11), (11, 12), (12, 13), (13, 14), (14, 15), (15, 16), (16, 1)]",
        "P0_nqubits": 16,
        "n_layers": 100,
        "g": 0,
        "n_qubits": 16,
        "J": 1
    },
    "julia_version": "1.12.6",
    "n_dropped": [
        0,
        0,
        30,
        33,
        74,
        70,
        66,
        59,
        84,
        123,
        167,
        165,
        159,
        148,
        229,
        220,
        246,
        275,
        372,
        375,
        371,
        494,
        519,
        510,
        495,
        627,
        689,
        725,
        719,
        788,
        852,
        876,
        981,
        957,
        1067,
        1113,
        1135,
        1189,
        1210,
        1253,
        1276,
        1349,
        1511,
        1645,
        1969,
        2168,
        2175,
        2363,
        2447,
        2581,
        2817,
        2844,
        2882,
        2948,
        3347,
        3476,
        3735,
        3858,
        4045,
        4809,
        4935,
        5012,
        5055,
        5074,
        5440,
        5514,
        5519,
        5786,
        6232,
        6288,
        6658,
        6675,
        7197,
        7398,
        7846,
        8221,
        8447,
        8836,
        9459,
        9586,
        10370,
        10590,
        11277,
        11790,
        11942,
        12068,
        12301,
        12339,
        12633,
        12923,
        12995,
        13097,
        13285,
        14242,
        16830,
        16970,
        18059,
        18897,
        18941,
        19657,
        20236
    ],
    "overlap_kept": [
        1,
        0.9981469226820251,
        0.9925975148175246,
        0.983381152886683,
        0.9705464151031374,
        0.9541605940683188,
        0.934308974383845,
        0.9110939475089592,
        0.8846339719285373,
        0.8550624035504614,
        0.8225262219315641,
        0.7871846798115332,
        0.7492081551139921,
        0.7087761703577067,
        0.6660764346310685,
        0.621303342223731,
        0.5746566561266812,
        0.526340247302487,
        0.4765609242815478,
        0.42552735910869033,
        0.3734491136946798,
        0.32053576961299646,
        0.2669961590464077,
        0.21303769018131602,
        0.158865884371641,
        0.10468354892614432,
        0.05069058664689471,
        -0.002916512164403736,
        -0.055945033994216575,
        -0.1082064109438797,
        -0.1595166014082879,
        -0.20969648258124723,
        -0.2585722698688793,
        -0.30597597284422373,
        -0.351745892309192,
        -0.3957271615957981,
        -0.4377723297104112,
        -0.47774221880071643,
        -0.5155060315522884,
        -0.5509424444590776,
        -0.5839401938229064,
        -0.6143987333390495,
        -0.6422286452668392,
        -0.6673528900510306,
        -0.6897067654261626,
        -0.7092385470872735,
        -0.7259098478219961,
        -0.7396959011303017,
        -0.7505857205658055,
        -0.7585821361163645,
        -0.7637017030139832,
        -0.765974481273154,
        -0.7654436870402217,
        -0.7621652202757123,
        -0.7562070753015178,
        -0.7476486453024065,
        -0.7365802021462129,
        -0.7231011814051573,
        -0.7073201865803399,
        -0.6893535681920219,
        -0.6693245017954067,
        -0.6473619558976573,
        -0.623599880092678,
        -0.5981756609665916,
        -0.5712296445542282,
        -0.5429040710511788,
        -0.5133422187885496,
        -0.4826876349678193,
        -0.45108340195941626,
        -0.418671293332338,
        -0.38559185972701165,
        -0.35198305960083887,
        -0.31798031410752514,
        -0.2837162252826963,
        -0.24931963140374117,
        -0.2149159210644223,
        -0.18062658625447386,
        -0.1465690329500715,
        -0.11285659540642276,
        -0.07959781973863711,
        -0.04689678800170843,
        -0.014853052329592598,
        0.016439125747224823,
        0.04689029277216726,
        0.0764159483729628,
        0.10493725713846988,
        0.13238059388276197,
        0.15867786138599818,
        0.18376690232046036,
        0.20759084910978376,
        0.2300988979862517,
        0.25124619670414733,
        0.27099375470425147,
        0.28930884983374927,
        0.3061648779148038,
        0.3215412152812052,
        0.3354232534535719,
        0.34780220948503754,
        0.3586753243644712,
        0.36804520497117804,
        0.3759203961142526
    ],
    "hit_any_weight": [
        0,
        0,
        0,
        0,
        0,
        0,
        0,
        0,
        2,
        2,
        7,
        7,
        9,
        9,
        11,
        11,
        31,
        33,
        41,
        42,
        42,
        82,
        86,
        90,
        94,
        132,
        134,
        162,
        166,
        216,
        224,
        250,
        331,
        331,
        349,
        371,
        373,
        385,
        393,
        411,
        431,
        488,
        586,
        624,
        817,
        942,
        956,
        1092,
        1189,
        1230,
        1295,
        1328,
        1341,
        1404,
        1622,
        1722,
        1820,
        1876,
        2026,
        2566,
        2678,
        2776,
        2841,
        2887,
        3117,
        3235,
        3290,
        3449,
        3787,
        3889,
        4168,
        4215,
        4508,
        4653,
        5015,
        5313,
        5529,
        5865,
        6367,
        6523,
        7080,
        7318,
        7822,
        8189,
        8308,
        8478,
        8752,
        8806,
        8999,
        9161,
        9203,
        9323,
        9487,
        10174,
        12014,
        12188,
        12939,
        13577,
        13704,
        14386,
        14933
    ],
    "drop_weight_only": [
        0,
        0,
        0,
        0,
        0,
        0,
        0,
        0,
        0,
        0,
        0,
        0,
        0,
        0,
        0,
        0,
        0,
        0,
        0,
        0,
        0,
        0,
        0,
        0,
        1,
        2,
        4,
        6,
        6,
        10,
        10,
        11,
        15,
        15,
        21,
        25,
        28,
        39,
        44,
        54,
        60,
        78,
        90,
        94,
        100,
        118,
        122,
        140,
        156,
        160,
        164,
        172,
        182,
        190,
        204,
        227,
        239,
        257,
        283,
        311,
        343,
        371,
        407,
        440,
        463,
        493,
        529,
        565,
        593,
        633,
        677,
        727,
        777,
        819,
        891,
        926,
        972,
        1018,
        1058,
        1118,
        1156,
        1196,
        1221,
        1271,
        1302,
        1372,
        1430,
        1498,
        1574,
        1650,
        1709,
        1769,
        1837,
        1902,
        2019,
        2097,
        2187,
        2245,
        2320,
        2406,
        2478
    ],
    "hit_coeff": [
        0,
        0,
        30,
        33,
        74,
        70,
        66,
        59,
        84,
        123,
        167,
        165,
        159,
        148,
        229,
        220,
        246,
        275,
        372,
        375,
        371,
        494,
        519,
        510,
        494,
        625,
        685,
        719,
        713,
        778,
        842,
        865,
        966,
        942,
        1046,
        1088,
        1107,
        1150,
        1166,
        1199,
        1216,
        1271,
        1421,
        1551,
        1869,
        2050,
        2053,
        2223,
        2291,
        2421,
        2653,
        2672,
        2700,
        2758,
        3143,
        3249,
        3496,
        3601,
        3762,
        4498,
        4592,
        4641,
        4648,
        4634,
        4977,
        5021,
        4990,
        5221,
        5639,
        5655,
        5981,
        5948,
        6420,
        6579,
        6955,
        7295,
        7475,
        7818,
        8401,
        8468,
        9214,
        9394,
        10056,
        10519,
        10640,
        10696,
        10871,
        10841,
        11059,
        11273,
        11286,
        11328,
        11448,
        12340,
        14811,
        14873,
        15872,
        16652,
        16621,
        17251,
        17758
    ],
    "drop_coeff_and_weight": [
        0,
        0,
        0,
        0,
        0,
        0,
        0,
        0,
        2,
        2,
        7,
        7,
        9,
        9,
        11,
        11,
        31,
        33,
        41,
        42,
        42,
        82,
        86,
        90,
        93,
        130,
        130,
        156,
        160,
        206,
        214,
        239,
        316,
        316,
        328,
        346,
        345,
        346,
        349,
        357,
        371,
        410,
        496,
        530,
        717,
        824,
        834,
        952,
        1033,
        1070,
        1131,
        1156,
        1159,
        1214,
        1418,
        1495,
        1581,
        1619,
        1743,
        2255,
        2335,
        2405,
        2434,
        2447,
        2654,
        2742,
        2761,
        2884,
        3194,
        3256,
        3491,
        3488,
        3731,
        3834,
        4124,
        4387,
        4557,
        4847,
        5309,
        5405,
        5924,
        6122,
        6601,
        6918,
        7006,
        7106,
        7322,
        7308,
        7425,
        7511,
        7494,
        7554,
        7650,
        8272,
        9995,
        10091,
        10752,
        11332,
        11384,
        11980,
        12455
    ],
    "hit_z": [
        0,
        0,
        0,
        0,
        0,
        0,
        0,
        0,
        0,
        0,
        0,
        0,
        0,
        0,
        0,
        0,
        0,
        0,
        0,
        0,
        0,
        0,
        0,
        0,
        0,
        0,
        0,
        0,
        0,
        0,
        0,
        0,
        0,
        0,
        0,
        0,
        0,
        0,
        0,
        0,
        0,
        0,
        0,
        0,
        0,
        0,
        0,
        0,
        0,
        0,
        0,
        0,
        0,
        0,
        0,
        0,
        0,
        0,
        0,
        0,
        0,
        0,
        0,
        0,
        0,
        0,
        0,
        0,
        0,
        0,
        0,
        0,
        0,
        0,
        0,
        0,
        0,
        0,
        0,
        0,
        0,
        0,
        0,
        0,
        0,
        0,
        0,
        0,
        0,
        0,
        0,
        0,
        0,
        0,
        0,
        0,
        0,
        0,
        0,
        0,
        0
    ],
    "manifest_toml_sha256": "0bc8dd956e2d53dfc75dae382811cbae5159e33b4ab25664d941105fcfb60c81",
    "git_dirty": true,
    "experiment": "chain16",
    "overlap_raw": [
        1,
        0.9981469226820251,
        0.9925975148175246,
        0.983381152886683,
        0.9705464151031374,
        0.9541605940683188,
        0.934308974383845,
        0.9110939475089592,
        0.8846339719285373,
        0.8550624235200821,
        0.8225262811367046,
        0.7871848103402235,
        0.7492081551139921,
        0.7087761703577067,
        0.6660764346310685,
        0.621303342223731,
        0.5746566561266812,
        0.526340247302487,
        0.47656092487705065,
        0.4255273606840172,
        0.37344911676490766,
        0.3205357870064932,
        0.26699619982033884,
        0.213037766266526,
        0.158865884371641,
        0.10468354892614432,
        0.0506905858986364,
        -0.0029165140529983785,
        -0.05594503756550612,
        -0.10820640247224808,
        -0.15951657973404415,
        -0.20969644739746118,
        -0.2585722363606901,
        -0.30597595039678094,
        -0.35174589440796283,
        -0.39572720812457646,
        -0.4377724490615904,
        -0.4777421996477526,
        -0.515505992699833,
        -0.5509423690260501,
        -0.583940073220683,
        -0.6143985603880758,
        -0.6422286460082268,
        -0.6673528917195055,
        -0.6897067681850279,
        -0.7092385510984759,
        -0.7259098532382665,
        -0.7396959075790236,
        -0.7505857279444466,
        -0.7585821450117695,
        -0.7637017259739091,
        -0.7659745235377989,
        -0.7654437550736414,
        -0.7621653220060093,
        -0.7562072202508263,
        -0.7476488287779364,
        -0.7365801486974005,
        -0.7231011938516326,
        -0.7073202124510317,
        -0.6893536226083098,
        -0.669324605201073,
        -0.6473621322416174,
        -0.6235999251096945,
        -0.598175706215767,
        -0.5712296781648356,
        -0.5429040910304803,
        -0.5133422215668246,
        -0.4826876171386383,
        -0.4510833763521276,
        -0.4186714700095689,
        -0.3855919569102133,
        -0.3519831946681397,
        -0.31798049641911397,
        -0.28371623640997173,
        -0.24931966598386776,
        -0.21491599796618044,
        -0.180626740919579,
        -0.14656929183844508,
        -0.11285676513413002,
        -0.0795980621130642,
        -0.04689708851855928,
        -0.014853189417419768,
        0.016438965102320485,
        0.04689012155654973,
        0.0764159884169652,
        0.1049373354066705,
        0.1323807097013235,
        0.15867802503285194,
        0.18376683513754438,
        0.2075907450044323,
        0.23009875264568433,
        0.2512460058970555,
        0.27099365786966517,
        0.28930879387840047,
        0.30616477238562656,
        0.3215410545309573,
        0.3354230355383033,
        0.34780204293080547,
        0.3586751220988779,
        0.36804521654924244,
        0.3759203920910411
    ],
    "overlap_dropped": [
        0,
        0,
        0,
        0,
        0,
        0,
        0,
        0,
        0,
        1.996962071965881e-8,
        5.9205140445069834e-8,
        1.3052869025901275e-7,
        0,
        0,
        0,
        0,
        0,
        0,
        5.95502846381227e-10,
        1.5753268463897578e-9,
        3.07022785599536e-9,
        1.739349675863872e-8,
        4.0773931142906707e-8,
        7.608520998595088e-8,
        0,
        0,
        -7.48258310651204e-10,
        -1.8885946427852945e-9,
        -3.5712895398176398e-9,
        8.471631614443572e-9,
        2.1674243761874386e-8,
        3.5183786043390656e-8,
        3.350818919699929e-8,
        2.2447442767500803e-8,
        -2.0987708216988566e-9,
        -4.6528778324669934e-8,
        -1.1935117924174191e-7,
        1.9152963836349954e-8,
        3.885245534065e-8,
        7.54330274817457e-8,
        1.206022234746954e-7,
        1.7295097366348923e-7,
        -7.413876188697374e-10,
        -1.6684749086820102e-9,
        -2.758865209723146e-9,
        -4.011202339423875e-9,
        -5.416270485448408e-9,
        -6.448721937327236e-9,
        -7.378641046639481e-9,
        -8.89540494533533e-9,
        -2.295992579702035e-8,
        -4.2264644882313055e-8,
        -6.803341962359682e-8,
        -1.017302969560201e-7,
        -1.4494930853260173e-7,
        -1.8347552987670992e-7,
        5.3448812352762545e-8,
        -1.2446475283433437e-8,
        -2.587069175994223e-8,
        -5.441628797208983e-8,
        -1.034056663001645e-7,
        -1.76343960083654e-7,
        -4.501701652925482e-8,
        -4.524917537149476e-8,
        -3.3610607419809665e-8,
        -1.9979301562960897e-8,
        -2.77827501335454e-9,
        1.782918103922246e-8,
        2.5607288660602244e-8,
        -1.7667723092578015e-7,
        -9.718320165687396e-8,
        -1.3506730086748718e-7,
        -1.8231158883763365e-7,
        -1.1127275420568954e-8,
        -3.4580126604637856e-8,
        -7.690175812235631e-8,
        -1.5466510513509085e-7,
        -2.5888837357374384e-7,
        -1.697277072605044e-7,
        -2.423744270886784e-7,
        -3.005168508536549e-7,
        -1.3708782716940857e-7,
        -1.6064490433661184e-7,
        -1.7121561753320491e-7,
        4.004400240430749e-8,
        7.826820061092509e-8,
        1.1581856153808047e-7,
        1.6364685376323013e-7,
        -6.718291597512312e-8,
        -1.0410535144491596e-7,
        -1.4534056735984858e-7,
        -1.9080709187618434e-7,
        -9.683458627089616e-8,
        -5.5955348794142535e-8,
        -1.0552917721007121e-7,
        -1.6075024791140814e-7,
        -2.1791526856169486e-7,
        -1.6655423207509153e-7,
        -2.0226559324733608e-7,
        1.1578064420633688e-8,
        -4.023211473101507e-9
    ],
    "rule": {
        "label": "xyz7_d1em07",
        "weight_period": 1,
        "family": "xyz+coeff",
        "tau_z": 0,
        "c_gate": 1.0e-16,
        "tau_xyz": 7,
        "tau_xy": 0,
        "rule_hash": "f54bf14be9",
        "coeff_min": 1.0e-7
    },
    "n_kept": [
        1,
        5,
        12,
        17,
        22,
        28,
        32,
        39,
        41,
        50,
        53,
        61,
        69,
        80,
        83,
        92,
        104,
        117,
        119,
        131,
        155,
        166,
        179,
        195,
        214,
        225,
        241,
        269,
        291,
        308,
        326,
        350,
        378,
        406,
        436,
        466,
        490,
        516,
        547,
        584,
        625,
        655,
        675,
        717,
        761,
        791,
        838,
        872,
        925,
        983,
        1030,
        1076,
        1130,
        1183,
        1234,
        1295,
        1348,
        1394,
        1459,
        1527,
        1587,
        1642,
        1720,
        1813,
        1873,
        1967,
        2045,
        2117,
        2203,
        2297,
        2378,
        2462,
        2546,
        2631,
        2737,
        2824,
        2896,
        2989,
        3085,
        3211,
        3301,
        3423,
        3519,
        3622,
        3723,
        3837,
        3932,
        4041,
        4138,
        4217,
        4285,
        4403,
        4521,
        4632,
        4752,
        4856,
        4970,
        5103,
        5243,
        5425,
        5585
    ],
    "hit_xyz": [
        0,
        0,
        0,
        0,
        0,
        0,
        0,
        0,
        2,
        2,
        7,
        7,
        9,
        9,
        11,
        11,
        31,
        33,
        41,
        42,
        42,
        82,
        86,
        90,
        94,
        132,
        134,
        162,
        166,
        216,
        224,
        250,
        331,
        331,
        349,
        371,
        373,
        385,
        393,
        411,
        431,
        488,
        586,
        624,
        817,
        942,
        956,
        1092,
        1189,
        1230,
        1295,
        1328,
        1341,
        1404,
        1622,
        1722,
        1820,
        1876,
        2026,
        2566,
        2678,
        2776,
        2841,
        2887,
        3117,
        3235,
        3290,
        3449,
        3787,
        3889,
        4168,
        4215,
        4508,
        4653,
        5015,
        5313,
        5529,
        5865,
        6367,
        6523,
        7080,
        7318,
        7822,
        8189,
        8308,
        8478,
        8752,
        8806,
        8999,
        9161,
        9203,
        9323,
        9487,
        10174,
        12014,
        12188,
        12939,
        13577,
        13704,
        14386,
        14933
    ],
    "git_commit": "unknown",
    "n_raw": [
        1,
        5,
        42,
        50,
        96,
        98,
        98,
        98,
        125,
        173,
        220,
        226,
        228,
        228,
        312,
        312,
        350,
        392,
        491,
        506,
        526,
        660,
        698,
        705,
        709,
        852,
        930,
        994,
        1010,
        1096,
        1178,
        1226,
        1359,
        1363,
        1503,
        1579,
        1625,
        1705,
        1757,
        1837,
        1901,
        2004,
        2186,
        2362,
        2730,
        2959,
        3013,
        3235,
        3372,
        3564,
        3847,
        3920,
        4012,
        4131,
        4581,
        4771,
        5083,
        5252,
        5504,
        6336,
        6522,
        6654,
        6775,
        6887,
        7313,
        7481,
        7564,
        7903,
        8435,
        8585,
        9036,
        9137,
        9743,
        10029,
        10583,
        11045,
        11343,
        11825,
        12544,
        12797,
        13671,
        14013,
        14796,
        15412,
        15665,
        15905,
        16233,
        16380,
        16771,
        17140,
        17280,
        17500,
        17806,
        18874,
        21582,
        21826,
        23029,
        24000,
        24184,
        25082,
        25821
    ],
    "weight_second_moment_raw": [
        1,
        1.0000029617816564,
        1.0000265588691284,
        1.0001056550820673,
        1.0002913501483999,
        1.000649578000144,
        1.0012592927855475,
        1.002210287957495,
        1.003600703017602,
        1.0055342803647678,
        1.0081174410389289,
        1.0114562527842308,
        1.015653366688534,
        1.0208049995909128,
        1.0269980384840425,
        1.0343073402729674,
        1.0427932955826922,
        1.052499718921662,
        1.063452119596908,
        1.0756563985174328,
        1.0890980056702657,
        1.1037415818455707,
        1.1195310964418257,
        1.136390481179321,
        1.1542247475775944,
        1.1729215644516742,
        1.1923532606975904,
        1.2123792085713767,
        1.2328485337274095,
        1.2536030907114257,
        1.2744806365485617,
        1.2953181306570332,
        1.3159550866405942,
        1.336236900609599,
        1.3560180815309169,
        1.3751653116707299,
        1.3935602693786293,
        1.411102152133492,
        1.4277098447924714,
        1.4433236861412477,
        1.4579067959645187,
        1.4714459346968556,
        1.4839518780638292,
        1.4954592997441687,
        1.5060261657363727,
        1.5157326545823917,
        1.5246796276702406,
        1.5329866832905326,
        1.5407898367626882,
        1.5482388766389346,
        1.5554944535317812,
        1.562724963420017,
        1.570103291222535,
        1.5778034829342549,
        1.5859974156393342,
        1.5948515342428025,
        1.6045237217902508,
        1.6151603668364758,
        1.626893686550148,
        1.6398393582066648,
        1.6540945045599293,
        1.6697360704869542,
        1.686819619412977,
        1.7053785685938445,
        1.725423872558337,
        1.7469441541516972,
        1.7699062728989392,
        1.7942563110069791,
        1.81992094859132,
        1.8468091917091713,
        1.8748144097891757,
        1.9038166331760846,
        1.9336850569125488,
        1.9642806935888593,
        1.9954591162342945,
        2.0270732317348874,
        2.0589760261544803,
        2.0910232255606274,
        2.1230758193578527,
        2.1550023976440977,
        2.1866812595753604,
        2.2180022559345347,
        2.2488683359612103,
        2.279196775719351,
        2.308920072808733,
        2.337986499739753,
        2.3663603157576865,
        2.3940216440539963,
        2.420966028095011,
        2.447203687020933,
        2.4727584956914006,
        2.4976667198623517,
        2.521975541096415,
        2.5457414093040884,
        2.569028263296373,
        2.591905661285584,
        2.614446864011512,
        2.636726913035594,
        2.6588207457897584,
        2.680801387215053,
        2.702738255344095
    ],
    "hit_multiple_weight": [
        0,
        0,
        0,
        0,
        0,
        0,
        0,
        0,
        0,
        0,
        0,
        0,
        0,
        0,
        0,
        0,
        0,
        0,
        0,
        0,
        0,
        0,
        0,
        0,
        0,
        0,
        0,
        0,
        0,
        0,
        0,
        0,
        0,
        0,
        0,
        0,
        0,
        0,
        0,
        0,
        0,
        0,
        0,
        0,
        0,
        0,
        0,
        0,
        0,
        0,
        0,
        0,
        0,
        0,
        0,
        0,
        0,
        0,
        0,
        0,
        0,
        0,
        0,
        0,
        0,
        0,
        0,
        0,
        0,
        0,
        0,
        0,
        0,
        0,
        0,
        0,
        0,
        0,
        0,
        0,
        0,
        0,
        0,
        0,
        0,
        0,
        0,
        0,
        0,
        0,
        0,
        0,
        0,
        0,
        0,
        0,
        0,
        0,
        0,
        0,
        0
    ],
    "autocorr_raw": [
        1,
        0.9981469226820251,
        0.9925960394100215,
        0.983372351948895,
        0.9705173825897254,
        0.9540889541715651,
        0.934160884096981,
        0.9108225943038378,
        0.8841786396849464,
        0.8543481579533069,
        0.8214642444295561,
        0.7856732556760422,
        0.7471340463154315,
        0.7060171437481334,
        0.662503865819945,
        0.6167853867875646,
        0.5690617571839763,
        0.5195408833976902,
        0.4684374729494504,
        0.41597195157781436,
        0.3623693583318444,
        0.3078582249163006,
        0.25266944554370996,
        0.19703514352024565,
        0.1411875407303695,
        0.08535783609062186,
        0.029775098917766578,
        -0.025334816997354744,
        -0.07975033299956781,
        -0.1332551734577501,
        -0.1856393567560744,
        -0.23670014446349222,
        -0.28624294402864603,
        -0.3340821606386608,
        -0.3800419941898829,
        -0.4239571776455977,
        -0.4656736533990925,
        -0.5050491846191623,
        -0.5419538989282658,
        -0.5762707621499159,
        -0.6078959802602907,
        -0.6367393280880663,
        -0.6627244037244833,
        -0.6857888080308101,
        -0.705884249060588,
        -0.7229765716469598,
        -0.7370457128384458,
        -0.7480855842968878,
        -0.7561038831959384,
        -0.7611218335742289,
        -0.763173860500909,
        -0.7623071997992446,
        -0.7585814464430121,
        -0.7520680450872237,
        -0.7428497265160734,
        -0.7310198940839086,
        -0.7166819644867717,
        -0.6999486674301942,
        -0.680941308951411,
        -0.6597890033093601,
        -0.6366278784725579,
        -0.6116002603124798,
        -0.5848538406482277,
        -0.5565408342872952,
        -0.5268171301679313,
        -0.495841441632164,
        -0.4637744607466657,
        -0.43077802144336425,
        -0.3970142760754392,
        -0.36264488977979137,
        -0.32783025680715566,
        -0.29272874272883986,
        -0.2574959561578145,
        -0.22228405333479115,
        -0.1872410786302317,
        -0.15251034370407524,
        -0.11822984774938078,
        -0.08453174092691804,
        -0.051541832777652286,
        -0.01937914708149193,
        0.011844475684219955,
        0.04202472744225888,
        0.07106513262688721,
        0.09887729906007942,
        0.12538111962702134,
        0.15050492505780905,
        0.17418558838313505,
        0.19636858188035233,
        0.21700798756216763,
        0.23606646248296362,
        0.25351516034708116,
        0.2693336110990628,
        0.2835095603576373,
        0.29603877072289403,
        0.3069247871394216,
        0.3161786686369172,
        0.3238186888936255,
        0.3298700081766425,
        0.334364319306282,
        0.3373394703690216,
        0.3388390669646807
    ],
    "complete": true,
    "schema_version": "pds-ppml-v3.0",
    "hit_xy": [
        0,
        0,
        0,
        0,
        0,
        0,
        0,
        0,
        0,
        0,
        0,
        0,
        0,
        0,
        0,
        0,
        0,
        0,
        0,
        0,
        0,
        0,
        0,
        0,
        0,
        0,
        0,
        0,
        0,
        0,
        0,
        0,
        0,
        0,
        0,
        0,
        0,
        0,
        0,
        0,
        0,
        0,
        0,
        0,
        0,
        0,
        0,
        0,
        0,
        0,
        0,
        0,
        0,
        0,
        0,
        0,
        0,
        0,
        0,
        0,
        0,
        0,
        0,
        0,
        0,
        0,
        0,
        0,
        0,
        0,
        0,
        0,
        0,
        0,
        0,
        0,
        0,
        0,
        0,
        0,
        0,
        0,
        0,
        0,
        0,
        0,
        0,
        0,
        0,
        0,
        0,
        0,
        0,
        0,
        0,
        0,
        0,
        0,
        0,
        0,
        0
    ],
    "project_toml_sha256": "0f476d319d0bc551a77a410c1947451ebb8d68d98f047a4d3a348358de256696"
}