{
    "created_at": "2026-06-10T23:12:50.116",
    "n_complete": 100,
    "drop_coeff_only": [
        0,
        0,
        30,
        38,
        33,
        68,
        70,
        64,
        62,
        58,
        54,
        51,
        97,
        90,
        99,
        101,
        95,
        87,
        121,
        160,
        156,
        148,
        175,
        263,
        259,
        255,
        265,
        259,
        261,
        274,
        263,
        249,
        311,
        362,
        353,
        339,
        337,
        371,
        403,
        389,
        377,
        533,
        517,
        497,
        527,
        526,
        502,
        576,
        582,
        553,
        546,
        627,
        675,
        731,
        713,
        698,
        755,
        746,
        797,
        799,
        782,
        963,
        993,
        990,
        1032,
        1187,
        1240,
        1393,
        1376,
        1482,
        1569,
        1567,
        1595,
        1659,
        1639,
        1609,
        1778,
        1819,
        1795,
        1826,
        1790,
        1937,
        2089,
        2075,
        2151,
        2114,
        2330,
        2363,
        2313,
        2341,
        2568,
        2565,
        2529,
        2653,
        2609,
        2560,
        2686,
        2738,
        2734,
        2788,
        2772
    ],
    "system": {
        "dt": 0.01,
        "P0_coeff": 1,
        "h": 3.04438,
        "P0_term_hex": "c000",
        "name": "chain16",
        "topology_repr": "[(1, 2), (2, 3), (3, 4), (4, 5), (5, 6), (6, 7), (7, 8), (8, 9), (9, 10), (10, 11), (11, 12), (12, 13), (13, 14), (14, 15), (15, 16), (16, 1)]",
        "P0_nqubits": 16,
        "n_layers": 100,
        "g": 0,
        "n_qubits": 16,
        "J": 1
    },
    "julia_version": "1.12.6",
    "n_dropped": [
        0,
        0,
        30,
        38,
        33,
        76,
        78,
        72,
        70,
        66,
        62,
        67,
        132,
        126,
        173,
        177,
        171,
        163,
        197,
        244,
        240,
        232,
        259,
        421,
        417,
        413,
        425,
        449,
        519,
        538,
        527,
        569,
        751,
        802,
        793,
        819,
        819,
        885,
        947,
        935,
        923,
        1157,
        1153,
        1141,
        1273,
        1365,
        1346,
        1545,
        1801,
        1782,
        1837,
        2014,
        2264,
        2394,
        2416,
        2488,
        2575,
        2606,
        2663,
        2978,
        3181,
        3484,
        3538,
        3548,
        3873,
        4636,
        4816,
        5047,
        5147,
        5495,
        5688,
        6068,
        6201,
        6535,
        6587,
        6853,
        7255,
        7713,
        7815,
        8394,
        8779,
        8957,
        9710,
        9701,
        10509,
        10541,
        11374,
        12135,
        12288,
        12679,
        13536,
        13642,
        13962,
        14865,
        15426,
        15715,
        16278,
        16818,
        17186,
        17386,
        17815
    ],
    "overlap_kept": [
        1,
        0.9981469226820251,
        0.9925975148175246,
        0.983381152886683,
        0.9705465017437478,
        0.9541607630437252,
        0.9343092172772968,
        0.9110942516930688,
        0.8846343192037118,
        0.8550627744019669,
        0.8225265970371524,
        0.7871850412748248,
        0.7492082362815704,
        0.7087757663575913,
        0.6660752571291314,
        0.6213009927195613,
        0.5746525860935334,
        0.5263363915270031,
        0.4765575019937669,
        0.42552448568334167,
        0.3734469115419383,
        0.3205341907901123,
        0.2669950985086798,
        0.2130369725773263,
        0.15886512652757928,
        0.10468232536636513,
        0.05068832242110509,
        -0.0029205615825589554,
        -0.055951830699847306,
        -0.10821720046084557,
        -0.15953189957428277,
        -0.20971789014319178,
        -0.2586018534046881,
        -0.30601654524672484,
        -0.35180112444549116,
        -0.39580168880466243,
        -0.43787190120305686,
        -0.4778736162636131,
        -0.5156775433081389,
        -0.5511639185697244,
        -0.584222390164128,
        -0.6147558694476056,
        -0.6426763882592007,
        -0.6679111233840225,
        -0.6903963857212431,
        -0.7100830623871311,
        -0.7269355191777782,
        -0.7409316722547801,
        -0.7520633897816437,
        -0.7603363827039991,
        -0.7657679454722378,
        -0.7683927402960876,
        -0.7682569132598035,
        -0.7654192137324635,
        -0.7599501915990523,
        -0.7519315413005785,
        -0.7414552702381874,
        -0.7286228034398181,
        -0.7135440287631781,
        -0.6963363157848653,
        -0.6771235147413318,
        -0.6560350245724864,
        -0.6332058140181576,
        -0.6087724915348712,
        -0.5828752459575057,
        -0.5556561228120088,
        -0.5272580457028806,
        -0.4978244251258681,
        -0.46750043568529814,
        -0.4364266646900611,
        -0.40474390112665193,
        -0.3725910142924248,
        -0.34010566317027635,
        -0.30742291499067154,
        -0.27467229532784976,
        -0.2419811050637547,
        -0.20947283469490738,
        -0.17726684963645653,
        -0.14547792228707024,
        -0.114214809073301,
        -0.0835833841949493,
        -0.05368344789210753,
        -0.02460926266579956,
        0.0035479264049268584,
        0.030707233099063307,
        0.056792546867740566,
        0.08173451609693962,
        0.10547082955406513,
        0.12794661285869843,
        0.14911432883138867,
        0.16893402808513036,
        0.18737326026684004,
        0.2044076276584629,
        0.2200202060072331,
        0.2341993782877315,
        0.24694444438187474,
        0.258257747527515,
        0.26815268844411577,
        0.2766472776643509,
        0.2837656550105553,
        0.2895376309226142
    ],
    "hit_any_weight": [
        0,
        0,
        0,
        0,
        0,
        8,
        8,
        8,
        8,
        8,
        8,
        16,
        35,
        36,
        74,
        76,
        76,
        76,
        76,
        84,
        84,
        84,
        84,
        158,
        158,
        158,
        160,
        190,
        258,
        264,
        264,
        320,
        440,
        440,
        440,
        480,
        482,
        514,
        544,
        546,
        546,
        624,
        636,
        644,
        746,
        839,
        844,
        969,
        1219,
        1229,
        1291,
        1387,
        1589,
        1663,
        1703,
        1790,
        1820,
        1860,
        1866,
        2179,
        2399,
        2521,
        2545,
        2558,
        2841,
        3449,
        3576,
        3654,
        3771,
        4013,
        4119,
        4501,
        4606,
        4876,
        4948,
        5244,
        5477,
        5894,
        6020,
        6568,
        6989,
        7020,
        7621,
        7626,
        8358,
        8427,
        9044,
        9772,
        9975,
        10338,
        10968,
        11077,
        11433,
        12212,
        12817,
        13155,
        13592,
        14080,
        14452,
        14598,
        15043
    ],
    "drop_weight_only": [
        0,
        0,
        0,
        0,
        0,
        0,
        0,
        0,
        0,
        0,
        2,
        2,
        2,
        2,
        2,
        6,
        6,
        8,
        8,
        10,
        11,
        11,
        13,
        13,
        15,
        17,
        17,
        21,
        26,
        30,
        32,
        34,
        44,
        44,
        47,
        49,
        55,
        59,
        68,
        71,
        71,
        75,
        85,
        93,
        103,
        105,
        113,
        121,
        129,
        133,
        138,
        150,
        158,
        184,
        199,
        213,
        219,
        223,
        242,
        252,
        270,
        282,
        291,
        303,
        311,
        346,
        388,
        411,
        425,
        437,
        463,
        503,
        535,
        557,
        579,
        606,
        642,
        667,
        683,
        707,
        757,
        803,
        839,
        865,
        891,
        924,
        996,
        1032,
        1066,
        1101,
        1137,
        1177,
        1233,
        1284,
        1322,
        1354,
        1406,
        1458,
        1510,
        1562,
        1608
    ],
    "hit_coeff": [
        0,
        0,
        30,
        38,
        33,
        76,
        78,
        72,
        70,
        66,
        60,
        65,
        130,
        124,
        171,
        171,
        165,
        155,
        189,
        234,
        229,
        221,
        246,
        408,
        402,
        396,
        408,
        428,
        493,
        508,
        495,
        535,
        707,
        758,
        746,
        770,
        764,
        826,
        879,
        864,
        852,
        1082,
        1068,
        1048,
        1170,
        1260,
        1233,
        1424,
        1672,
        1649,
        1699,
        1864,
        2106,
        2210,
        2217,
        2275,
        2356,
        2383,
        2421,
        2726,
        2911,
        3202,
        3247,
        3245,
        3562,
        4290,
        4428,
        4636,
        4722,
        5058,
        5225,
        5565,
        5666,
        5978,
        6008,
        6247,
        6613,
        7046,
        7132,
        7687,
        8022,
        8154,
        8871,
        8836,
        9618,
        9617,
        10378,
        11103,
        11222,
        11578,
        12399,
        12465,
        12729,
        13581,
        14104,
        14361,
        14872,
        15360,
        15676,
        15824,
        16207
    ],
    "drop_coeff_and_weight": [
        0,
        0,
        0,
        0,
        0,
        8,
        8,
        8,
        8,
        8,
        6,
        14,
        33,
        34,
        72,
        70,
        70,
        68,
        68,
        74,
        73,
        73,
        71,
        145,
        143,
        141,
        143,
        169,
        232,
        234,
        232,
        286,
        396,
        396,
        393,
        431,
        427,
        455,
        476,
        475,
        475,
        549,
        551,
        551,
        643,
        734,
        731,
        848,
        1090,
        1096,
        1153,
        1237,
        1431,
        1479,
        1504,
        1577,
        1601,
        1637,
        1624,
        1927,
        2129,
        2239,
        2254,
        2255,
        2530,
        3103,
        3188,
        3243,
        3346,
        3576,
        3656,
        3998,
        4071,
        4319,
        4369,
        4638,
        4835,
        5227,
        5337,
        5861,
        6232,
        6217,
        6782,
        6761,
        7467,
        7503,
        8048,
        8740,
        8909,
        9237,
        9831,
        9900,
        10200,
        10928,
        11495,
        11801,
        12186,
        12622,
        12942,
        13036,
        13435
    ],
    "hit_z": [
        0,
        0,
        0,
        0,
        0,
        0,
        0,
        0,
        0,
        0,
        0,
        0,
        0,
        0,
        0,
        0,
        0,
        0,
        0,
        0,
        0,
        0,
        0,
        0,
        0,
        0,
        0,
        0,
        0,
        0,
        0,
        0,
        0,
        0,
        0,
        0,
        0,
        0,
        0,
        0,
        0,
        0,
        0,
        0,
        0,
        0,
        0,
        0,
        0,
        0,
        0,
        0,
        0,
        0,
        0,
        0,
        0,
        0,
        0,
        0,
        0,
        0,
        0,
        0,
        0,
        0,
        0,
        0,
        0,
        0,
        0,
        0,
        0,
        0,
        0,
        0,
        0,
        0,
        0,
        0,
        0,
        0,
        0,
        0,
        0,
        0,
        0,
        0,
        0,
        0,
        0,
        0,
        0,
        0,
        0,
        0,
        0,
        0,
        0,
        0,
        0
    ],
    "manifest_toml_sha256": "0bc8dd956e2d53dfc75dae382811cbae5159e33b4ab25664d941105fcfb60c81",
    "git_dirty": true,
    "experiment": "chain16",
    "overlap_raw": [
        1,
        0.9981469226820251,
        0.9925975148175246,
        0.983381152886683,
        0.9705465017437478,
        0.9541607630437252,
        0.9343092172772968,
        0.9110942516930688,
        0.8846343192037118,
        0.8550627744019669,
        0.8225265970371524,
        0.7871850412748248,
        0.7492083626074033,
        0.7087761015423831,
        0.6660759101830368,
        0.6213021128603657,
        0.5746543612848091,
        0.5263363915270031,
        0.4765575019937669,
        0.42552448568334167,
        0.3734469115419383,
        0.3205341907901123,
        0.2669950985086798,
        0.21303697756003862,
        0.15886513885834086,
        0.10468234815470316,
        0.050688359061567975,
        -0.002920369647924445,
        -0.055951416386520986,
        -0.10821648926047128,
        -0.15953189957428277,
        -0.20971789014319178,
        -0.2586018534046881,
        -0.30601655266508804,
        -0.35180114207706265,
        -0.3958017201548185,
        -0.43787195061332085,
        -0.4778736890490118,
        -0.5156776452117365,
        -0.551164056165684,
        -0.584223626951945,
        -0.6147567320745533,
        -0.6426778324447728,
        -0.6679110904825427,
        -0.690396335861724,
        -0.7100828437705385,
        -0.7269350930996712,
        -0.7409308860405732,
        -0.7520621898534378,
        -0.7603347268830323,
        -0.7657679454722378,
        -0.7683927484165193,
        -0.7682569306950343,
        -0.7654192416259165,
        -0.7599502309963486,
        -0.7519315930942192,
        -0.7414553958615493,
        -0.7286230257782571,
        -0.713544373263796,
        -0.6963368145996028,
        -0.6771242035914901,
        -0.6560358884593145,
        -0.633205947100775,
        -0.6087728243533758,
        -0.5828758286468585,
        -0.5556570225912988,
        -0.5272593398944204,
        -0.49782617781173594,
        -0.4675007152387962,
        -0.4364271558442952,
        -0.4047447903452874,
        -0.37259241230776935,
        -0.34010690361717133,
        -0.30742289283182794,
        -0.27467227131621946,
        -0.24198107791620466,
        -0.20947273853991227,
        -0.17726652552850136,
        -0.1454772865357252,
        -0.11421509650994649,
        -0.08358389744506044,
        -0.05368449902791585,
        -0.02461093455156033,
        0.003547923521362861,
        0.03070722859775285,
        0.056792532626841814,
        0.08173448972272836,
        0.10547077299862219,
        0.12794651191917428,
        0.14911417471493235,
        0.1689338128919854,
        0.1873726967225832,
        0.20440662722554623,
        0.22001825255388624,
        0.23419835801314692,
        0.24694278220212937,
        0.25825792529110847,
        0.2681532190092599,
        0.27664824587929543,
        0.28376732104793007,
        0.28954026400842076
    ],
    "overlap_dropped": [
        0,
        0,
        0,
        0,
        0,
        0,
        0,
        0,
        0,
        0,
        0,
        0,
        1.263258329134218e-7,
        3.3518479179926365e-7,
        6.530539054454814e-7,
        1.1201408044445069e-6,
        1.7751912756007947e-6,
        0,
        0,
        0,
        0,
        0,
        0,
        4.9827123310771756e-9,
        1.233076156814766e-8,
        2.2788338035663817e-8,
        3.664046288913614e-8,
        1.919346345103782e-7,
        4.1431332631905153e-7,
        7.112003742838867e-7,
        0,
        0,
        0,
        -7.418363208416615e-9,
        -1.7631571461301483e-8,
        -3.135015605643812e-8,
        -4.9410263967003986e-8,
        -7.278539870281967e-8,
        -1.0190359763997262e-7,
        -1.375959596540001e-7,
        -1.2367878169115735e-6,
        -8.626269476723739e-7,
        -1.444185572119766e-6,
        3.2901479726044655e-8,
        4.985951907282838e-8,
        2.186165925543527e-7,
        4.2607810698178676e-7,
        7.862142068284569e-7,
        1.199928205915639e-6,
        1.6558209667286223e-6,
        0,
        -8.120431661689947e-9,
        -1.743523081986642e-8,
        -2.7893452962912192e-8,
        -3.93972963517017e-8,
        -5.179364070070115e-8,
        -1.2562336191424713e-7,
        -2.2233843894623767e-7,
        -3.445006179057848e-7,
        -4.988147375161591e-7,
        -6.888501582057206e-7,
        -8.638868280575094e-7,
        -1.330826175258723e-7,
        -3.328185045606078e-7,
        -5.826893527860904e-7,
        -8.997792899591641e-7,
        -1.2941915398181798e-6,
        -1.7526858678102118e-6,
        -2.7955349809039787e-7,
        -4.911542341111565e-7,
        -8.892186354338321e-7,
        -1.3980153445429953e-6,
        -1.2404468949657038e-6,
        2.2158843600560726e-8,
        2.4011630289528065e-8,
        2.714755005348416e-8,
        9.615499511845381e-8,
        3.241079551547045e-7,
        6.357513450371735e-7,
        -2.874366454856474e-7,
        -5.132501111389337e-7,
        -1.0511358083150823e-6,
        -1.6718857607686359e-6,
        -2.8835639973410535e-9,
        -4.501310457549516e-9,
        -1.4240898754879543e-8,
        -2.6374211264618836e-8,
        -5.65554429451264e-8,
        -1.0093952415876674e-7,
        -1.5411645630981028e-7,
        -2.1519314495982018e-7,
        -5.635442568397087e-7,
        -1.000432916670295e-6,
        -1.9534533468721796e-6,
        -1.020274584562153e-6,
        -1.6621797453636804e-6,
        1.7776359343647164e-7,
        5.305651441529355e-7,
        9.682149445793679e-7,
        1.666037374756724e-6,
        2.6330858065519603e-6
    ],
    "rule": {
        "label": "xy4_d1em06",
        "weight_period": 1,
        "family": "xy+coeff",
        "tau_z": 0,
        "c_gate": 1.0e-16,
        "tau_xyz": 0,
        "tau_xy": 4,
        "rule_hash": "34da84079e",
        "coeff_min": 1.0e-6
    },
    "n_kept": [
        1,
        5,
        12,
        12,
        17,
        20,
        20,
        26,
        28,
        32,
        36,
        39,
        41,
        48,
        49,
        51,
        57,
        65,
        69,
        70,
        76,
        84,
        95,
        97,
        101,
        105,
        116,
        124,
        130,
        132,
        143,
        157,
        163,
        168,
        177,
        191,
        197,
        210,
        216,
        234,
        246,
        258,
        274,
        294,
        304,
        311,
        335,
        347,
        357,
        386,
        405,
        417,
        437,
        453,
        471,
        492,
        515,
        528,
        557,
        575,
        602,
        621,
        644,
        664,
        690,
        715,
        742,
        769,
        800,
        838,
        862,
        900,
        933,
        970,
        1003,
        1047,
        1071,
        1109,
        1139,
        1170,
        1206,
        1253,
        1299,
        1343,
        1377,
        1422,
        1460,
        1511,
        1573,
        1615,
        1670,
        1729,
        1775,
        1823,
        1883,
        1934,
        1996,
        2072,
        2134,
        2176,
        2222
    ],
    "hit_xyz": [
        0,
        0,
        0,
        0,
        0,
        0,
        0,
        0,
        0,
        0,
        0,
        0,
        0,
        0,
        0,
        0,
        0,
        0,
        0,
        0,
        0,
        0,
        0,
        0,
        0,
        0,
        0,
        0,
        0,
        0,
        0,
        0,
        0,
        0,
        0,
        0,
        0,
        0,
        0,
        0,
        0,
        0,
        0,
        0,
        0,
        0,
        0,
        0,
        0,
        0,
        0,
        0,
        0,
        0,
        0,
        0,
        0,
        0,
        0,
        0,
        0,
        0,
        0,
        0,
        0,
        0,
        0,
        0,
        0,
        0,
        0,
        0,
        0,
        0,
        0,
        0,
        0,
        0,
        0,
        0,
        0,
        0,
        0,
        0,
        0,
        0,
        0,
        0,
        0,
        0,
        0,
        0,
        0,
        0,
        0,
        0,
        0,
        0,
        0,
        0,
        0
    ],
    "git_commit": "unknown",
    "n_raw": [
        1,
        5,
        42,
        50,
        50,
        96,
        98,
        98,
        98,
        98,
        98,
        106,
        173,
        174,
        222,
        228,
        228,
        228,
        266,
        314,
        316,
        316,
        354,
        518,
        518,
        518,
        541,
        573,
        649,
        670,
        670,
        726,
        914,
        970,
        970,
        1010,
        1016,
        1095,
        1163,
        1169,
        1169,
        1415,
        1427,
        1435,
        1577,
        1676,
        1681,
        1892,
        2158,
        2168,
        2242,
        2431,
        2701,
        2847,
        2887,
        2980,
        3090,
        3134,
        3220,
        3553,
        3783,
        4105,
        4182,
        4212,
        4563,
        5351,
        5558,
        5816,
        5947,
        6333,
        6550,
        6968,
        7134,
        7505,
        7590,
        7900,
        8326,
        8822,
        8954,
        9564,
        9985,
        10210,
        11009,
        11044,
        11886,
        11963,
        12834,
        13646,
        13861,
        14294,
        15206,
        15371,
        15737,
        16688,
        17309,
        17649,
        18274,
        18890,
        19320,
        19562,
        20037
    ],
    "weight_second_moment_raw": [
        1,
        1.0000029617816564,
        1.0000265588691284,
        1.0001056550820673,
        1.0002913501417774,
        1.000649577989535,
        1.001259292768062,
        1.002210287922794,
        1.0036007029924912,
        1.0055342803946095,
        1.008117441211679,
        1.0114562532425442,
        1.0156533676290784,
        1.0208050012477101,
        1.0269980411400819,
        1.0343073441663386,
        1.0427933008138666,
        1.0524997253343356,
        1.063452126576733,
        1.0756564047776493,
        1.0890980090509237,
        1.1037415793134473,
        1.1195310844417339,
        1.1363904566637175,
        1.154224710081025,
        1.1729215199687002,
        1.1923532280502687,
        1.2123792292356208,
        1.2328486861053791,
        1.2536035100710332,
        1.2744815418243658,
        1.295319859241527,
        1.3159581379134981,
        1.3362419888896004,
        1.3560261986601947,
        1.375177798835274,
        1.3935788971152454,
        1.41112920681531,
        1.4277482195945386,
        1.4433769733714026,
        1.4579793776973113,
        1.4715430681248796,
        1.4840797720569052,
        1.4956251794616984,
        1.5062383224905598,
        1.516000478874378,
        1.5250136244195922,
        1.5333984693391287,
        1.5412921214102628,
        1.5488454277329642,
        1.5562200521393996,
        1.5635853505976787,
        1.5711151111666226,
        1.5789842266860705,
        1.5873653688450315,
        1.5964257319176798,
        1.606323911722942,
        1.6172069817632253,
        1.629207823264952,
        1.6424427602375091,
        1.65700954232215,
        1.6729857115913518,
        1.6904273790921513,
        1.7093684292531435,
        1.7298201596222282,
        1.7517713544379587,
        1.775188780873693,
        1.8000180885019996,
        1.8261850834156501,
        1.8535973415099394,
        1.8821461187307513,
        1.911708510740636,
        1.9421498111302329,
        1.9733260132157702,
        2.005086400508932,
        2.037276170213896,
        2.06973903596991,
        2.102319758041557,
        2.1348665541431795,
        2.167233346586573,
        2.1992818094561497,
        2.2308831836399046,
        2.26191983466163,
        2.2922865350806516,
        2.3218914596360993,
        2.3506568880105445,
        2.3785196167355194,
        2.4054310870657734,
        2.431357242162652,
        2.4562781311054516,
        2.480187282084699,
        2.503090871427009,
        2.525006716824765,
        2.5459631269951792,
        2.56599764114234,
        2.585155692004015,
        2.6034892268392307,
        2.621055320599184,
        2.6379148131538503,
        2.6541310000847735,
        2.6697684054489392
    ],
    "hit_multiple_weight": [
        0,
        0,
        0,
        0,
        0,
        0,
        0,
        0,
        0,
        0,
        0,
        0,
        0,
        0,
        0,
        0,
        0,
        0,
        0,
        0,
        0,
        0,
        0,
        0,
        0,
        0,
        0,
        0,
        0,
        0,
        0,
        0,
        0,
        0,
        0,
        0,
        0,
        0,
        0,
        0,
        0,
        0,
        0,
        0,
        0,
        0,
        0,
        0,
        0,
        0,
        0,
        0,
        0,
        0,
        0,
        0,
        0,
        0,
        0,
        0,
        0,
        0,
        0,
        0,
        0,
        0,
        0,
        0,
        0,
        0,
        0,
        0,
        0,
        0,
        0,
        0,
        0,
        0,
        0,
        0,
        0,
        0,
        0,
        0,
        0,
        0,
        0,
        0,
        0,
        0,
        0,
        0,
        0,
        0,
        0,
        0,
        0,
        0,
        0,
        0,
        0
    ],
    "autocorr_raw": [
        1,
        0.9981469226820251,
        0.9925960394100215,
        0.983372351948895,
        0.9705173825897254,
        0.9540889541717664,
        0.9341608840988948,
        0.9108225943125617,
        0.8841786397124729,
        0.8543481580226445,
        0.8214642445793523,
        0.7856732559653636,
        0.7471340468283624,
        0.7060171445978772,
        0.6625038671521655,
        0.6167853887827683,
        0.5690617600588306,
        0.5195408874052763,
        0.46843747837859495,
        0.4159719587518113,
        0.3623693676070985,
        0.3078582366816982,
        0.2526694602218689,
        0.19703516157223055,
        0.14118756266599816,
        0.0853578624871506,
        0.029775130450536688,
        -0.025334779507785746,
        -0.07975028851819835,
        -0.13325512063696748,
        -0.18563929380034802,
        -0.23670006894726897,
        -0.286242852656277,
        -0.334082048933674,
        -0.3800418560994743,
        -0.42395700504493067,
        -0.4656734354789693,
        -0.5050489071399736,
        -0.5419535433229518,
        -0.5762703044590977,
        -0.6078953898838783,
        -0.6367385663396097,
        -0.6627234221773984,
        -0.6857875466494429,
        -0.7058826341138917,
        -0.7229745134083586,
        -0.7370431030821553,
        -0.7480822936084771,
        -0.7560997581230562,
        -0.761116693651977,
        -0.7631674951950448,
        -0.762299365418911,
        -0.7585718630826591,
        -0.7520563936644089,
        -0.7428356459774897,
        -0.7310029788558668,
        -0.7166617622480608,
        -0.6999246772843802,
        -0.680912980071899,
        -0.6597557341236883,
        -0.6365890164422636,
        -0.6115551023514402,
        -0.5848016342057005,
        -0.5564807791022032,
        -0.5267483806785845,
        -0.49576311000112316,
        -0.46368562043443123,
        -0.4306777112378144,
        -0.3969015044573021,
        -0.36251863947888363,
        -0.3276894893806731,
        -0.2925724029726843,
        -0.2573229761458119,
        -0.2220933558696691,
        -0.18703157988524863,
        -0.152280954835965,
        -0.1179794752723408,
        -0.08425928565406268,
        -0.05124618716076433,
        -0.019059190811848765,
        0.012189881912159653,
        0.04239675005720511,
        0.07146497519941965,
        0.09930621416147184,
        0.12584042241900587,
        0.15099600844646688,
        0.174709939513686,
        0.1969277996963884,
        0.21760380110483413,
        0.23670074956467205,
        0.2541899662023621,
        0.27005116659374195,
        0.28427229932798664,
        0.29684934601976976,
        0.30778608496925136,
        0.3170938208218982,
        0.3247910827173202,
        0.33090329353749504,
        0.3354624129691159,
        0.3385065571815357,
        0.3400795979901102
    ],
    "complete": true,
    "schema_version": "pds-ppml-v3.0",
    "hit_xy": [
        0,
        0,
        0,
        0,
        0,
        8,
        8,
        8,
        8,
        8,
        8,
        16,
        35,
        36,
        74,
        76,
        76,
        76,
        76,
        84,
        84,
        84,
        84,
        158,
        158,
        158,
        160,
        190,
        258,
        264,
        264,
        320,
        440,
        440,
        440,
        480,
        482,
        514,
        544,
        546,
        546,
        624,
        636,
        644,
        746,
        839,
        844,
        969,
        1219,
        1229,
        1291,
        1387,
        1589,
        1663,
        1703,
        1790,
        1820,
        1860,
        1866,
        2179,
        2399,
        2521,
        2545,
        2558,
        2841,
        3449,
        3576,
        3654,
        3771,
        4013,
        4119,
        4501,
        4606,
        4876,
        4948,
        5244,
        5477,
        5894,
        6020,
        6568,
        6989,
        7020,
        7621,
        7626,
        8358,
        8427,
        9044,
        9772,
        9975,
        10338,
        10968,
        11077,
        11433,
        12212,
        12817,
        13155,
        13592,
        14080,
        14452,
        14598,
        15043
    ],
    "project_toml_sha256": "0f476d319d0bc551a77a410c1947451ebb8d68d98f047a4d3a348358de256696"
}