{
    "created_at": "2026-06-10T23:32:21.050",
    "n_complete": 100,
    "drop_coeff_only": [
        0,
        0,
        18,
        62,
        63,
        108,
        140,
        142,
        164,
        187,
        226,
        282,
        292,
        301,
        359,
        361,
        350,
        471,
        456,
        482,
        530,
        582,
        558,
        637,
        608,
        660,
        682,
        743,
        766,
        849,
        878,
        992,
        1048,
        1080,
        1179,
        1220,
        1189,
        1362,
        1350,
        1382,
        1423,
        1564,
        1618,
        1695,
        1888,
        1932,
        2008,
        1990,
        2085,
        2069,
        1980,
        2268,
        2278,
        2242,
        2224,
        2419,
        2415,
        2516,
        2568,
        2769,
        2963,
        3056,
        3252,
        3320,
        3308,
        3258,
        3261,
        3275,
        3404,
        3475,
        3684,
        3677,
        3869,
        4090,
        4528,
        4725,
        4835,
        4823,
        4886,
        4912,
        4871,
        4912,
        4882,
        4865,
        5004,
        5024,
        5073,
        5071,
        5285,
        5404,
        5476,
        5716,
        6185,
        6365,
        6752,
        6832,
        6907,
        7010,
        7006,
        7003,
        6985
    ],
    "system": {
        "dt": 0.01,
        "P0_coeff": 1,
        "h": 3.04438,
        "P0_term_hex": "c000",
        "name": "chain16",
        "topology_repr": "[(1, 2), (2, 3), (3, 4), (4, 5), (5, 6), (6, 7), (7, 8), (8, 9), (9, 10), (10, 11), (11, 12), (12, 13), (13, 14), (14, 15), (15, 16), (16, 1)]",
        "P0_nqubits": 16,
        "n_layers": 100,
        "g": 0,
        "n_qubits": 16,
        "J": 1
    },
    "julia_version": "1.12.6",
    "n_dropped": [
        0,
        0,
        18,
        62,
        63,
        110,
        146,
        148,
        171,
        194,
        249,
        308,
        342,
        354,
        440,
        443,
        434,
        589,
        576,
        625,
        700,
        837,
        826,
        935,
        934,
        998,
        1037,
        1158,
        1203,
        1351,
        1421,
        1642,
        1754,
        1851,
        2087,
        2288,
        2294,
        2589,
        2653,
        2736,
        2828,
        3142,
        3255,
        3421,
        3944,
        4195,
        4415,
        4642,
        4945,
        5077,
        5188,
        5862,
        6093,
        6140,
        6238,
        6737,
        6979,
        7254,
        7479,
        8137,
        8933,
        9705,
        10249,
        10738,
        11029,
        11354,
        11626,
        11877,
        12259,
        12745,
        13499,
        13835,
        14525,
        15317,
        16721,
        17599,
        18538,
        19329,
        20221,
        21037,
        21698,
        22417,
        22969,
        23580,
        24395,
        24845,
        25554,
        25900,
        27020,
        27958,
        28634,
        30037,
        32375,
        33916,
        35592,
        37106,
        38305,
        39807,
        40788,
        41937,
        43100
    ],
    "overlap_kept": [
        1,
        0.9981469226820251,
        0.9925975148175246,
        0.9833811420257546,
        0.9705463940552953,
        0.9541605641870397,
        0.9343089377542992,
        0.911093911644169,
        0.8846339482041028,
        0.8550624133744726,
        0.822526304575934,
        0.7871849037785739,
        0.7492083828236333,
        0.7087763885513976,
        0.6660766341941431,
        0.6213035214187617,
        0.5746568165401094,
        0.5263403916517525,
        0.4765610577194968,
        0.4255274893266461,
        0.3734492517264971,
        0.3205359336432773,
        0.2669963717749143,
        0.21303798250799638,
        0.15886617150458837,
        0.10468381862978564,
        0.05069082179213118,
        -0.0029163154740052617,
        -0.055944868815985295,
        -0.10820626366062258,
        -0.15951645744448437,
        -0.20969632772579586,
        -0.2585720939023814,
        -0.3059757737988368,
        -0.3517456809381638,
        -0.3957269695696474,
        -0.43777221620877776,
        -0.4777420426622624,
        -0.5155057681638505,
        -0.5509420808712907,
        -0.5839397156497732,
        -0.6143981254846019,
        -0.6422281201869611,
        -0.6673524731796893,
        -0.6897064620594296,
        -0.7092383403938757,
        -0.7259097122429734,
        -0.739695806862142,
        -0.7505856381887777,
        -0.7585820392126144,
        -0.7637015767213989,
        -0.765974326149894,
        -0.7654435184589401,
        -0.7621650690772767,
        -0.756206985823348,
        -0.7476486712134547,
        -0.7365801310253604,
        -0.7231011037377333,
        -0.7073201269391471,
        -0.6893535577652591,
        -0.6693245647279117,
        -0.6473621133566989,
        -0.6235999405425388,
        -0.5981755668301922,
        -0.5712293382592758,
        -0.5429035125896183,
        -0.5133414016994243,
        -0.48268657847931573,
        -0.4510821518835874,
        -0.41867011334268245,
        -0.38559075226911305,
        -0.3519821505198243,
        -0.3179797336582038,
        -0.28371588311086055,
        -0.2493196119442959,
        -0.21491628513011485,
        -0.1806273786904721,
        -0.14657026917491717,
        -0.11285805817553439,
        -0.07959940858256633,
        -0.0468983977971779,
        -0.014854373115225916,
        0.0164381868548765,
        0.04688980319338535,
        0.07641613358099492,
        0.10493810792606174,
        0.1323820661618159,
        0.15867988148861878,
        0.18376909220303017,
        0.20759301605693917,
        0.2301008531060638,
        0.25124777131876114,
        0.2709949709971707,
        0.28930971748271245,
        0.3061653719667438,
        0.3215413572539136,
        0.3354231056273874,
        0.3478019785684939,
        0.35867514736177225,
        0.3680454424638113,
        0.3759211737162491
    ],
    "hit_any_weight": [
        0,
        0,
        0,
        0,
        0,
        2,
        6,
        6,
        7,
        7,
        23,
        26,
        50,
        53,
        81,
        82,
        84,
        118,
        120,
        143,
        170,
        255,
        268,
        298,
        326,
        338,
        355,
        415,
        437,
        502,
        543,
        650,
        706,
        771,
        908,
        1068,
        1105,
        1227,
        1303,
        1354,
        1405,
        1578,
        1637,
        1726,
        2056,
        2263,
        2407,
        2652,
        2860,
        3008,
        3208,
        3594,
        3815,
        3898,
        4014,
        4318,
        4564,
        4738,
        4911,
        5368,
        5970,
        6649,
        6997,
        7418,
        7721,
        8096,
        8365,
        8602,
        8855,
        9270,
        9815,
        10158,
        10656,
        11227,
        12193,
        12874,
        13703,
        14506,
        15335,
        16125,
        16827,
        17505,
        18087,
        18715,
        19391,
        19821,
        20481,
        20829,
        21735,
        22554,
        23158,
        24321,
        26190,
        27551,
        28840,
        30274,
        31398,
        32797,
        33782,
        34934,
        36115
    ],
    "drop_weight_only": [
        0,
        0,
        0,
        0,
        0,
        0,
        0,
        0,
        0,
        0,
        0,
        0,
        0,
        0,
        0,
        1,
        4,
        6,
        6,
        14,
        14,
        17,
        23,
        29,
        31,
        38,
        41,
        58,
        66,
        76,
        102,
        118,
        130,
        144,
        166,
        172,
        176,
        180,
        196,
        220,
        254,
        287,
        320,
        361,
        405,
        475,
        501,
        557,
        607,
        629,
        655,
        709,
        756,
        831,
        871,
        932,
        1004,
        1104,
        1197,
        1283,
        1370,
        1434,
        1536,
        1608,
        1692,
        1773,
        1857,
        2024,
        2152,
        2256,
        2412,
        2617,
        2763,
        2907,
        3094,
        3259,
        3394,
        3544,
        3664,
        3774,
        3917,
        4055,
        4212,
        4410,
        4551,
        4690,
        4878,
        5065,
        5305,
        5568,
        5875,
        6189,
        6488,
        6769,
        7090,
        7364,
        7634,
        8006,
        8306,
        8529,
        8767
    ],
    "hit_coeff": [
        0,
        0,
        18,
        62,
        63,
        110,
        146,
        148,
        171,
        194,
        249,
        308,
        342,
        354,
        440,
        442,
        430,
        583,
        570,
        611,
        686,
        820,
        803,
        906,
        903,
        960,
        996,
        1100,
        1137,
        1275,
        1319,
        1524,
        1624,
        1707,
        1921,
        2116,
        2118,
        2409,
        2457,
        2516,
        2574,
        2855,
        2935,
        3060,
        3539,
        3720,
        3914,
        4085,
        4338,
        4448,
        4533,
        5153,
        5337,
        5309,
        5367,
        5805,
        5975,
        6150,
        6282,
        6854,
        7563,
        8271,
        8713,
        9130,
        9337,
        9581,
        9769,
        9853,
        10107,
        10489,
        11087,
        11218,
        11762,
        12410,
        13627,
        14340,
        15144,
        15785,
        16557,
        17263,
        17781,
        18362,
        18757,
        19170,
        19844,
        20155,
        20676,
        20835,
        21715,
        22390,
        22759,
        23848,
        25887,
        27147,
        28502,
        29742,
        30671,
        31801,
        32482,
        33408,
        34333
    ],
    "drop_coeff_and_weight": [
        0,
        0,
        0,
        0,
        0,
        2,
        6,
        6,
        7,
        7,
        23,
        26,
        50,
        53,
        81,
        81,
        80,
        112,
        114,
        129,
        156,
        238,
        245,
        269,
        295,
        300,
        314,
        357,
        371,
        426,
        441,
        532,
        576,
        627,
        742,
        896,
        929,
        1047,
        1107,
        1134,
        1151,
        1291,
        1317,
        1365,
        1651,
        1788,
        1906,
        2095,
        2253,
        2379,
        2553,
        2885,
        3059,
        3067,
        3143,
        3386,
        3560,
        3634,
        3714,
        4085,
        4600,
        5215,
        5461,
        5810,
        6029,
        6323,
        6508,
        6578,
        6703,
        7014,
        7403,
        7541,
        7893,
        8320,
        9099,
        9615,
        10309,
        10962,
        11671,
        12351,
        12910,
        13450,
        13875,
        14305,
        14840,
        15131,
        15603,
        15764,
        16430,
        16986,
        17283,
        18132,
        19702,
        20782,
        21750,
        22910,
        23764,
        24791,
        25476,
        26405,
        27348
    ],
    "hit_z": [
        0,
        0,
        0,
        0,
        0,
        0,
        0,
        0,
        0,
        0,
        0,
        0,
        0,
        0,
        0,
        0,
        0,
        0,
        0,
        0,
        0,
        0,
        0,
        0,
        0,
        0,
        0,
        0,
        0,
        0,
        0,
        0,
        0,
        0,
        0,
        0,
        0,
        0,
        0,
        0,
        0,
        0,
        0,
        0,
        0,
        0,
        0,
        0,
        0,
        0,
        0,
        0,
        0,
        0,
        0,
        0,
        0,
        0,
        0,
        0,
        0,
        0,
        0,
        0,
        0,
        0,
        0,
        0,
        0,
        0,
        0,
        0,
        0,
        0,
        0,
        0,
        0,
        0,
        0,
        0,
        0,
        0,
        0,
        0,
        0,
        0,
        0,
        0,
        0,
        0,
        0,
        0,
        0,
        0,
        0,
        0,
        0,
        0,
        0,
        0,
        0
    ],
    "manifest_toml_sha256": "0bc8dd956e2d53dfc75dae382811cbae5159e33b4ab25664d941105fcfb60c81",
    "git_dirty": true,
    "experiment": "chain16",
    "overlap_raw": [
        1,
        0.9981469226820251,
        0.9925975148175246,
        0.9833811420257546,
        0.9705463940552953,
        0.9541605645137503,
        0.9343089393185909,
        0.911093911644169,
        0.8846339482041028,
        0.8550624133744726,
        0.822526304575934,
        0.7871849037845885,
        0.7492083828438215,
        0.7087763886014151,
        0.666076634509896,
        0.621303522273592,
        0.5746568165401094,
        0.5263403918136343,
        0.476561058156512,
        0.42552749021343955,
        0.37344925331384404,
        0.3205359336432773,
        0.2669963717749143,
        0.21303798251721595,
        0.15886617152992794,
        0.10468381868095117,
        0.05069082205270707,
        -0.002916314755177205,
        -0.05594486738608995,
        -0.10820626358788159,
        -0.15951645727043676,
        -0.2096963274119721,
        -0.25857209339784926,
        -0.3059757730374449,
        -0.3517456809474809,
        -0.39572696959295106,
        -0.4377722162475802,
        -0.47774204271545667,
        -0.5155057683978543,
        -0.5509420814102811,
        -0.5839397166864402,
        -0.6143981250111595,
        -0.6422281192768523,
        -0.6673524716791643,
        -0.689706461166326,
        -0.7092383391294225,
        -0.7259097104905382,
        -0.7396958046651118,
        -0.7505856357886881,
        -0.7585820391665349,
        -0.7637015775885928,
        -0.765974326151011,
        -0.7654435184617155,
        -0.7621650690823998,
        -0.7562069858392307,
        -0.7476486713794833,
        -0.7365801314320235,
        -0.7231011044785485,
        -0.7073201282868021,
        -0.6893535601996622,
        -0.6693245688949925,
        -0.6473621145902669,
        -0.6235999405159708,
        -0.5981755667814566,
        -0.5712293381787353,
        -0.5429035124727646,
        -0.5133414013994132,
        -0.48268657791064706,
        -0.45108215092942483,
        -0.41867011204036747,
        -0.38559075305139145,
        -0.3519821519602281,
        -0.3179797341427805,
        -0.2837158842631802,
        -0.24931961399344302,
        -0.21491628719425787,
        -0.18062737949234353,
        -0.14657027078089416,
        -0.1128580610393879,
        -0.07959941294324727,
        -0.04689840105727291,
        -0.0148543744031067,
        0.016438185714585253,
        0.046889802407496274,
        0.0764161333850517,
        0.10493810860204299,
        0.13238206490309595,
        0.15867988004149491,
        0.1837690904709415,
        0.20759301386353965,
        0.23010084996707678,
        0.2512477669557265,
        0.2709949653019898,
        0.28930971759299623,
        0.3061653726021157,
        0.32154135623405933,
        0.33542310477000903,
        0.3478019780873661,
        0.35867514759835395,
        0.368045443564206,
        0.37592117355547316
    ],
    "overlap_dropped": [
        0,
        0,
        0,
        0,
        0,
        3.2671067976507516e-10,
        1.5642916670014494e-9,
        0,
        0,
        0,
        0,
        6.014582298535395e-12,
        2.0188129723510783e-11,
        5.0017566952384586e-11,
        3.157528623683924e-10,
        8.54830265872112e-10,
        0,
        1.6188186367411964e-10,
        4.3701518379779375e-10,
        8.867934552771001e-10,
        1.587346923501605e-9,
        0,
        0,
        9.219566700528582e-12,
        2.5339564675842915e-11,
        5.116553423387991e-11,
        2.6057589584927177e-10,
        7.188280564705483e-10,
        1.4298953482741455e-9,
        7.274099824320083e-11,
        1.7404759665283226e-10,
        3.138237447662681e-10,
        5.0453216455273e-10,
        7.61391919734381e-10,
        -9.317130330762126e-12,
        -2.3303645887124143e-11,
        -3.880245446602031e-11,
        -5.3194309899832343e-11,
        -2.3400384768317806e-10,
        -5.389903881548691e-10,
        -1.0366669637343931e-9,
        4.73442363061697e-10,
        9.101087591268097e-10,
        1.500524882187209e-9,
        8.931037010238831e-10,
        1.2644531725011137e-9,
        1.7524351690012807e-9,
        2.197030243075656e-9,
        2.40008954869756e-9,
        4.6079465473277106e-11,
        -8.671939255659264e-10,
        -1.1170114346160745e-12,
        -2.7754509125178865e-12,
        -5.123173806868683e-12,
        -1.588275911251807e-11,
        -1.660286887273024e-10,
        -4.066631038800101e-10,
        -7.408152044598957e-10,
        -1.347654953735963e-9,
        -2.4344031394478777e-9,
        -4.167080803026642e-9,
        -1.2335680527134898e-9,
        2.6568000887797814e-11,
        4.873564451323219e-11,
        8.054045933230417e-11,
        1.168537051588023e-10,
        3.0001113360716187e-10,
        5.686686717672879e-10,
        9.541625728806846e-10,
        1.3023149543490172e-9,
        -7.822784007784786e-10,
        -1.4404037941401939e-9,
        -4.845766973298806e-10,
        -1.1523196300104657e-9,
        -2.0491471316782216e-9,
        -2.0641430274057903e-9,
        -8.018714325298059e-10,
        -1.6059769784434773e-9,
        -2.8638535119500794e-9,
        -4.360680937529932e-9,
        -3.2600950073444366e-9,
        -1.287880783899086e-9,
        -1.1402912454637084e-9,
        -7.858890779211519e-10,
        -1.9594322253601325e-10,
        6.759812405015606e-10,
        -1.2587199408690299e-9,
        -1.4471238698771038e-9,
        -1.73208866493156e-9,
        -2.193399515864197e-9,
        -3.1389870169287595e-9,
        -4.363034669319478e-9,
        -5.695180856545839e-9,
        1.1028378029302322e-10,
        6.353718866812159e-10,
        -1.0198542794159815e-9,
        -8.573783647400438e-10,
        -4.811277435970023e-10,
        2.36581693457413e-10,
        1.100394686631905e-9,
        -1.6077592208742404e-10
    ],
    "rule": {
        "label": "xyz7_d1em09",
        "weight_period": 1,
        "family": "xyz+coeff",
        "tau_z": 0,
        "c_gate": 1.0e-16,
        "tau_xyz": 7,
        "tau_xy": 0,
        "rule_hash": "fbc9b4f1eb",
        "coeff_min": 1.0e-9
    },
    "n_kept": [
        1,
        5,
        24,
        34,
        41,
        51,
        61,
        75,
        83,
        100,
        115,
        123,
        143,
        170,
        179,
        203,
        228,
        247,
        271,
        305,
        330,
        362,
        398,
        434,
        476,
        502,
        538,
        579,
        631,
        656,
        700,
        740,
        786,
        843,
        904,
        954,
        1044,
        1110,
        1180,
        1244,
        1334,
        1393,
        1464,
        1540,
        1613,
        1696,
        1768,
        1884,
        1964,
        2042,
        2176,
        2270,
        2352,
        2454,
        2562,
        2667,
        2791,
        2917,
        3027,
        3134,
        3259,
        3401,
        3551,
        3710,
        3880,
        4024,
        4174,
        4336,
        4501,
        4645,
        4796,
        4969,
        5130,
        5322,
        5444,
        5586,
        5762,
        6019,
        6215,
        6407,
        6616,
        6811,
        7015,
        7223,
        7426,
        7613,
        7816,
        8008,
        8198,
        8426,
        8593,
        8815,
        9015,
        9269,
        9489,
        9753,
        10019,
        10286,
        10584,
        10876,
        11218
    ],
    "hit_xyz": [
        0,
        0,
        0,
        0,
        0,
        2,
        6,
        6,
        7,
        7,
        23,
        26,
        50,
        53,
        81,
        82,
        84,
        118,
        120,
        143,
        170,
        255,
        268,
        298,
        326,
        338,
        355,
        415,
        437,
        502,
        543,
        650,
        706,
        771,
        908,
        1068,
        1105,
        1227,
        1303,
        1354,
        1405,
        1578,
        1637,
        1726,
        2056,
        2263,
        2407,
        2652,
        2860,
        3008,
        3208,
        3594,
        3815,
        3898,
        4014,
        4318,
        4564,
        4738,
        4911,
        5368,
        5970,
        6649,
        6997,
        7418,
        7721,
        8096,
        8365,
        8602,
        8855,
        9270,
        9815,
        10158,
        10656,
        11227,
        12193,
        12874,
        13703,
        14506,
        15335,
        16125,
        16827,
        17505,
        18087,
        18715,
        19391,
        19821,
        20481,
        20829,
        21735,
        22554,
        23158,
        24321,
        26190,
        27551,
        28840,
        30274,
        31398,
        32797,
        33782,
        34934,
        36115
    ],
    "git_commit": "unknown",
    "n_raw": [
        1,
        5,
        42,
        96,
        104,
        161,
        207,
        223,
        254,
        294,
        364,
        431,
        485,
        524,
        619,
        646,
        662,
        836,
        847,
        930,
        1030,
        1199,
        1224,
        1369,
        1410,
        1500,
        1575,
        1737,
        1834,
        2007,
        2121,
        2382,
        2540,
        2694,
        2991,
        3242,
        3338,
        3699,
        3833,
        3980,
        4162,
        4535,
        4719,
        4961,
        5557,
        5891,
        6183,
        6526,
        6909,
        7119,
        7364,
        8132,
        8445,
        8594,
        8800,
        9404,
        9770,
        10171,
        10506,
        11271,
        12192,
        13106,
        13800,
        14448,
        14909,
        15378,
        15800,
        16213,
        16760,
        17390,
        18295,
        18804,
        19655,
        20639,
        22165,
        23185,
        24300,
        25348,
        26436,
        27444,
        28314,
        29228,
        29984,
        30803,
        31821,
        32458,
        33370,
        33908,
        35218,
        36384,
        37227,
        38852,
        41390,
        43185,
        45081,
        46859,
        48324,
        50093,
        51372,
        52813,
        54318
    ],
    "weight_second_moment_raw": [
        1,
        1.0000029617816564,
        1.0000265588691284,
        1.0001056550822565,
        1.0002913501488409,
        1.0006495780004676,
        1.0012592927837816,
        1.0022102879488997,
        1.0036007029924858,
        1.0055342803068905,
        1.008117440922976,
        1.0114562525740165,
        1.0156533663345955,
        1.0208049990289794,
        1.0269980376329793,
        1.0343073390342399,
        1.0427932938391296,
        1.0524997165370107,
        1.0634521164157509,
        1.0756563943668487,
        1.0890980003599486,
        1.1037415751687343,
        1.1195310881783762,
        1.1363904710971902,
        1.1542247354352793,
        1.1729215500005497,
        1.1923532436854674,
        1.212379188744444,
        1.232848510832555,
        1.253603064499524,
        1.2744806067772823,
        1.2953180970924514,
        1.3159550490591352,
        1.3362368587997877,
        1.3560180352949334,
        1.3751652608259297,
        1.3935602137579413,
        1.4111020915870096,
        1.4277097791877587,
        1.4433236153639128,
        1.457906719918197,
        1.4714458533035404,
        1.48395179126519,
        1.4954592075017588,
        1.5060260680306783,
        1.515732551412974,
        1.5246795190566798,
        1.5329865692706912,
        1.540789717392318,
        1.5482387519891123,
        1.5554943236874519,
        1.56272482847825,
        1.5701031512896548,
        1.5778033381218683,
        1.5859972660610122,
        1.5948513800101298,
        1.6045235630085053,
        1.615160203600831,
        1.626893518941647,
        1.639839186286661,
        1.6540943283678227,
        1.6697358900386425,
        1.686819434699981,
        1.705378379581725,
        1.72542367918819,
        1.7469439563466216,
        1.7699060705648089,
        1.794256104039752,
        1.819920736884271,
        1.8468089751602335,
        1.8748141883075595,
        1.903816406691343,
        1.9336848253791818,
        1.9642804569913486,
        1.9954588745893556,
        2.0270729850896894,
        2.058975774586477,
        2.0910229691725575,
        2.1230755582686993,
        2.1550021319815795,
        2.1866809894656463,
        2.218001981496138,
        2.2488680572951787,
        2.2791964929066046,
        2.308919785906072,
        2.3379862087806744,
        2.366360020753612,
        2.3940213450014567,
        2.4209657249823593,
        2.4472033798361688,
        2.472758184432416,
        2.4976664045443453,
        2.5219752217540305,
        2.5457410859982046,
        2.569027936116342,
        2.5919053303509267,
        2.614446529472304,
        2.6367265750709565,
        2.6588204046045743,
        2.6808010430392035,
        2.7027379084287153
    ],
    "hit_multiple_weight": [
        0,
        0,
        0,
        0,
        0,
        0,
        0,
        0,
        0,
        0,
        0,
        0,
        0,
        0,
        0,
        0,
        0,
        0,
        0,
        0,
        0,
        0,
        0,
        0,
        0,
        0,
        0,
        0,
        0,
        0,
        0,
        0,
        0,
        0,
        0,
        0,
        0,
        0,
        0,
        0,
        0,
        0,
        0,
        0,
        0,
        0,
        0,
        0,
        0,
        0,
        0,
        0,
        0,
        0,
        0,
        0,
        0,
        0,
        0,
        0,
        0,
        0,
        0,
        0,
        0,
        0,
        0,
        0,
        0,
        0,
        0,
        0,
        0,
        0,
        0,
        0,
        0,
        0,
        0,
        0,
        0,
        0,
        0,
        0,
        0,
        0,
        0,
        0,
        0,
        0,
        0,
        0,
        0,
        0,
        0,
        0,
        0,
        0,
        0,
        0,
        0
    ],
    "autocorr_raw": [
        1,
        0.9981469226820251,
        0.9925960394100215,
        0.983372351948895,
        0.9705173825897012,
        0.9540889541713338,
        0.9341608840959189,
        0.910822594300472,
        0.8841786396764479,
        0.8543481579349227,
        0.821464244394013,
        0.7856732556129615,
        0.7471340462107884,
        0.7060171435837935,
        0.6625038655733078,
        0.616785386431336,
        0.5690617566860912,
        0.5195408827213961,
        0.4684374720535595,
        0.41597195041712415,
        0.36236935685772065,
        0.30785822307741156,
        0.2526694432868934,
        0.19703514079148726,
        0.14118753747586565,
        0.08535783225789739,
        0.02977509445681558,
        -0.0253348221329379,
        -0.07975033885150058,
        -0.13325518006204873,
        -0.18563936414214588,
        -0.23670015265335753,
        -0.28624295303631797,
        -0.33408217046969385,
        -0.38004200484110773,
        -0.42395718910504737,
        -0.4656736656461206,
        -0.5050491976247486,
        -0.5419539126554977,
        -0.5762707765546298,
        -0.6078959952918516,
        -0.6367393436902623,
        -0.6627244198365047,
        -0.6857888245882848,
        -0.7058842659966416,
        -0.7229765888932692,
        -0.7370457303262574,
        -0.7480856019579729,
        -0.7561039009634613,
        -0.7611218513835077,
        -0.7631738782900546,
        -0.7623072175096657,
        -0.758581464019783,
        -0.7520680624793138,
        -0.7428497436764436,
        -0.7310199109694848,
        -0.7166819810583094,
        -0.699948683652051,
        -0.6809413247912468,
        -0.6597890187377874,
        -0.6366278934627617,
        -0.6116002748398309,
        -0.5848538546899076,
        -0.5565408478219522,
        -0.5268171431753815,
        -0.49584145409315,
        -0.4637744726426804,
        -0.43077803275654397,
        -0.3970142867885263,
        -0.3626448998761628,
        -0.3278302662709107,
        -0.2927287515449374,
        -0.2574959643122479,
        -0.2222840608147882,
        -0.187241085424465,
        -0.15251034980287018,
        -0.11822985314490835,
        -0.08453174561336135,
        -0.05154183675133814,
        -0.019379150340981123,
        0.011844473138086876,
        0.04202472560636078,
        0.07106513149586398,
        0.0988772986264109,
        0.12538111988113626,
        0.15050492598821497,
        0.17418558997655947,
        0.19636858412188446,
        0.2170079904353914,
        0.23606646597007303,
        0.2535151644289715,
        0.26933361575539355,
        0.2835095655668655,
        0.29603877646227955,
        0.3069247933850102,
        0.3161786753635092,
        0.3238186960747416,
        0.3298700157845007,
        0.33436432731180005,
        0.3373394787418618,
        0.3388390756733531
    ],
    "complete": true,
    "schema_version": "pds-ppml-v3.0",
    "hit_xy": [
        0,
        0,
        0,
        0,
        0,
        0,
        0,
        0,
        0,
        0,
        0,
        0,
        0,
        0,
        0,
        0,
        0,
        0,
        0,
        0,
        0,
        0,
        0,
        0,
        0,
        0,
        0,
        0,
        0,
        0,
        0,
        0,
        0,
        0,
        0,
        0,
        0,
        0,
        0,
        0,
        0,
        0,
        0,
        0,
        0,
        0,
        0,
        0,
        0,
        0,
        0,
        0,
        0,
        0,
        0,
        0,
        0,
        0,
        0,
        0,
        0,
        0,
        0,
        0,
        0,
        0,
        0,
        0,
        0,
        0,
        0,
        0,
        0,
        0,
        0,
        0,
        0,
        0,
        0,
        0,
        0,
        0,
        0,
        0,
        0,
        0,
        0,
        0,
        0,
        0,
        0,
        0,
        0,
        0,
        0,
        0,
        0,
        0,
        0,
        0,
        0
    ],
    "project_toml_sha256": "0f476d319d0bc551a77a410c1947451ebb8d68d98f047a4d3a348358de256696"
}