{
    "created_at": "2026-06-10T23:34:44.513",
    "n_complete": 100,
    "drop_coeff_only": [
        0,
        0,
        18,
        62,
        63,
        110,
        146,
        148,
        171,
        194,
        241,
        300,
        326,
        338,
        426,
        428,
        416,
        563,
        550,
        587,
        648,
        754,
        744,
        844,
        888,
        952,
        1029,
        1109,
        1196,
        1298,
        1430,
        1496,
        1625,
        1700,
        1858,
        1987,
        2055,
        2358,
        2466,
        2526,
        2796,
        2918,
        3220,
        3398,
        3602,
        3813,
        4181,
        4333,
        4597,
        4743,
        5128,
        5518,
        5790,
        6086,
        6500,
        6832,
        7189,
        7534,
        7967,
        8438,
        8617,
        9151,
        9740,
        10261,
        10779,
        11254,
        11888,
        12259,
        13030,
        13903,
        14585,
        15264,
        15980,
        17107,
        17591,
        18674,
        19546,
        20584,
        21529,
        22445,
        23763,
        24847,
        25922,
        27201,
        28235,
        29596,
        31033,
        32279,
        34294,
        35339,
        37073,
        38683,
        40182,
        41567,
        43905,
        45417,
        46962,
        48956,
        51047,
        53029,
        55101
    ],
    "system": {
        "dt": 0.01,
        "P0_coeff": 1,
        "h": 3.04438,
        "P0_term_hex": "c000",
        "name": "chain16",
        "topology_repr": "[(1, 2), (2, 3), (3, 4), (4, 5), (5, 6), (6, 7), (7, 8), (8, 9), (9, 10), (10, 11), (11, 12), (12, 13), (13, 14), (14, 15), (15, 16), (16, 1)]",
        "P0_nqubits": 16,
        "n_layers": 100,
        "g": 0,
        "n_qubits": 16,
        "J": 1
    },
    "julia_version": "1.12.6",
    "n_dropped": [
        0,
        0,
        18,
        62,
        63,
        110,
        146,
        148,
        171,
        194,
        249,
        308,
        342,
        354,
        442,
        444,
        447,
        632,
        623,
        676,
        738,
        854,
        887,
        988,
        1110,
        1174,
        1283,
        1447,
        1544,
        1662,
        1900,
        1992,
        2168,
        2333,
        2506,
        2701,
        2859,
        3304,
        3514,
        3746,
        4088,
        4402,
        4912,
        5179,
        5592,
        5964,
        6557,
        6981,
        7535,
        7813,
        8504,
        9372,
        9906,
        10385,
        11333,
        12094,
        12832,
        13548,
        14608,
        15608,
        16307,
        17558,
        18930,
        20038,
        21355,
        22684,
        24005,
        25655,
        27401,
        29187,
        30802,
        32828,
        34428,
        36931,
        38652,
        41033,
        44030,
        46541,
        49353,
        52341,
        55811,
        58829,
        62267,
        65701,
        69009,
        72810,
        77317,
        81440,
        86012,
        91132,
        96154,
        101443,
        106439,
        112109,
        118950,
        124288,
        130771,
        138563,
        145710,
        152272,
        160007
    ],
    "overlap_kept": [
        1,
        0.9981469226820251,
        0.9925975148175246,
        0.9833811420257546,
        0.9705463940552953,
        0.9541605641870397,
        0.9343089377542992,
        0.911093911644169,
        0.8846339482041028,
        0.8550624133744726,
        0.822526304575934,
        0.7871849037785739,
        0.7492083828236333,
        0.7087763885513976,
        0.6660766341941431,
        0.6213035214187617,
        0.5746568165401094,
        0.5263403916517525,
        0.47656105771949675,
        0.4255274893266461,
        0.37344925172649696,
        0.3205359336432765,
        0.26699637177491153,
        0.21303798250798756,
        0.15886617150456298,
        0.10468381862972105,
        0.05069082179198733,
        -0.0029163154742784946,
        -0.05594486881640069,
        -0.10820626366052646,
        -0.15951645744242962,
        -0.2096963277179703,
        -0.25857209388054164,
        -0.30597577374709123,
        -0.35174568082775204,
        -0.3957269693516821,
        -0.43777221580333914,
        -0.47774204194112724,
        -0.5155057669312999,
        -0.5509420788327779,
        -0.5839397123666288,
        -0.6143981203103535,
        -0.6422281121770376,
        -0.6673524597814492,
        -0.6897064422676675,
        -0.7092383115630408,
        -0.7259096704920168,
        -0.7396957467890096,
        -0.7505855523742617,
        -0.7585819175433252,
        -0.7637014056802494,
        -0.7659740880925042,
        -0.7654431898758374,
        -0.762164618098083,
        -0.7562063724895243,
        -0.7476478443565153,
        -0.7365790256741008,
        -0.7230996377345815,
        -0.7073181970732046,
        -0.6893510352465118,
        -0.6693212899622273,
        -0.6473578901338188,
        -0.6235945268239858,
        -0.5981686730094974,
        -0.5712206133546335,
        -0.5428925379213623,
        -0.513327675655805,
        -0.4826695099558599,
        -0.45106104623823606,
        -0.41864415898512025,
        -0.3855590068529308,
        -0.3519435251859059,
        -0.31793297784741303,
        -0.2836595681436456,
        -0.2492521129577155,
        -0.21483576051975642,
        -0.18053175888719994,
        -0.14645723750135795,
        -0.11272503390663526,
        -0.07944353278856278,
        -0.046716511408494345,
        -0.01464300503869301,
        0.016682832991676815,
        0.04717186027016226,
        0.07674008357600912,
        0.10530879133210205,
        0.13280468695799114,
        0.15916001545565303,
        0.1843126876657602,
        0.20820639265876015,
        0.2307906970242534,
        0.25202112876060717,
        0.27185923201913026,
        0.2902726093227328,
        0.3072349242251171,
        0.3227258745107276,
        0.3367311330208977,
        0.349242261076771,
        0.36025658151118634,
        0.3697770222530707,
        0.3778119250701438
    ],
    "hit_any_weight": [
        0,
        0,
        0,
        0,
        0,
        0,
        0,
        0,
        0,
        0,
        8,
        8,
        16,
        16,
        16,
        16,
        31,
        69,
        73,
        89,
        90,
        100,
        143,
        144,
        222,
        222,
        254,
        338,
        348,
        364,
        470,
        496,
        543,
        633,
        648,
        714,
        804,
        946,
        1048,
        1220,
        1292,
        1484,
        1692,
        1781,
        1990,
        2151,
        2376,
        2648,
        2938,
        3070,
        3376,
        3854,
        4116,
        4299,
        4833,
        5262,
        5643,
        6014,
        6641,
        7170,
        7690,
        8407,
        9190,
        9777,
        10576,
        11430,
        12117,
        13396,
        14371,
        15284,
        16217,
        17564,
        18448,
        19824,
        21061,
        22359,
        24484,
        25957,
        27824,
        29896,
        32048,
        33982,
        36345,
        38500,
        40774,
        43214,
        46284,
        49161,
        51718,
        55793,
        59081,
        62760,
        66257,
        70542,
        75045,
        78871,
        83809,
        89607,
        94663,
        99243,
        104906
    ],
    "drop_weight_only": [
        0,
        0,
        0,
        0,
        0,
        0,
        0,
        0,
        0,
        0,
        0,
        0,
        0,
        0,
        2,
        2,
        2,
        4,
        4,
        6,
        8,
        10,
        11,
        17,
        19,
        21,
        27,
        34,
        40,
        44,
        52,
        65,
        69,
        84,
        96,
        107,
        117,
        137,
        147,
        169,
        175,
        201,
        227,
        249,
        274,
        297,
        323,
        366,
        408,
        444,
        466,
        514,
        581,
        630,
        674,
        762,
        850,
        906,
        979,
        1089,
        1200,
        1274,
        1360,
        1498,
        1641,
        1771,
        1910,
        2038,
        2208,
        2375,
        2543,
        2685,
        2864,
        3060,
        3270,
        3477,
        3713,
        3963,
        4225,
        4496,
        4825,
        5126,
        5464,
        5809,
        6163,
        6609,
        6996,
        7497,
        7947,
        8494,
        9011,
        9542,
        10063,
        10720,
        11417,
        12079,
        12781,
        13526,
        14336,
        15105,
        15910
    ],
    "hit_coeff": [
        0,
        0,
        18,
        62,
        63,
        110,
        146,
        148,
        171,
        194,
        249,
        308,
        342,
        354,
        440,
        442,
        445,
        628,
        619,
        670,
        730,
        844,
        876,
        971,
        1091,
        1153,
        1256,
        1413,
        1504,
        1618,
        1848,
        1927,
        2099,
        2249,
        2410,
        2594,
        2742,
        3167,
        3367,
        3577,
        3913,
        4201,
        4685,
        4930,
        5318,
        5667,
        6234,
        6615,
        7127,
        7369,
        8038,
        8858,
        9325,
        9755,
        10659,
        11332,
        11982,
        12642,
        13629,
        14519,
        15107,
        16284,
        17570,
        18540,
        19714,
        20913,
        22095,
        23617,
        25193,
        26812,
        28259,
        30143,
        31564,
        33871,
        35382,
        37556,
        40317,
        42578,
        45128,
        47845,
        50986,
        53703,
        56803,
        59892,
        62846,
        66201,
        70321,
        73943,
        78065,
        82638,
        87143,
        91901,
        96376,
        101389,
        107533,
        112209,
        117990,
        125037,
        131374,
        137167,
        144097
    ],
    "drop_coeff_and_weight": [
        0,
        0,
        0,
        0,
        0,
        0,
        0,
        0,
        0,
        0,
        8,
        8,
        16,
        16,
        14,
        14,
        29,
        65,
        69,
        83,
        82,
        90,
        132,
        127,
        203,
        201,
        227,
        304,
        308,
        320,
        418,
        431,
        474,
        549,
        552,
        607,
        687,
        809,
        901,
        1051,
        1117,
        1283,
        1465,
        1532,
        1716,
        1854,
        2053,
        2282,
        2530,
        2626,
        2910,
        3340,
        3535,
        3669,
        4159,
        4500,
        4793,
        5108,
        5662,
        6081,
        6490,
        7133,
        7830,
        8279,
        8935,
        9659,
        10207,
        11358,
        12163,
        12909,
        13674,
        14879,
        15584,
        16764,
        17791,
        18882,
        20771,
        21994,
        23599,
        25400,
        27223,
        28856,
        30881,
        32691,
        34611,
        36605,
        39288,
        41664,
        43771,
        47299,
        50070,
        53218,
        56194,
        59822,
        63628,
        66792,
        71028,
        76081,
        80327,
        84138,
        88996
    ],
    "hit_z": [
        0,
        0,
        0,
        0,
        0,
        0,
        0,
        0,
        0,
        0,
        0,
        0,
        0,
        0,
        0,
        0,
        0,
        0,
        0,
        0,
        0,
        0,
        0,
        0,
        0,
        0,
        0,
        0,
        0,
        0,
        0,
        0,
        0,
        0,
        0,
        0,
        0,
        0,
        0,
        0,
        0,
        0,
        0,
        0,
        0,
        0,
        0,
        0,
        0,
        0,
        0,
        0,
        0,
        0,
        0,
        0,
        0,
        0,
        0,
        0,
        0,
        0,
        0,
        0,
        0,
        0,
        0,
        0,
        0,
        0,
        0,
        0,
        0,
        0,
        0,
        0,
        0,
        0,
        0,
        0,
        0,
        0,
        0,
        0,
        0,
        0,
        0,
        0,
        0,
        0,
        0,
        0,
        0,
        0,
        0,
        0,
        0,
        0,
        0,
        0,
        0
    ],
    "manifest_toml_sha256": "0bc8dd956e2d53dfc75dae382811cbae5159e33b4ab25664d941105fcfb60c81",
    "git_dirty": true,
    "experiment": "chain16",
    "overlap_raw": [
        1,
        0.9981469226820251,
        0.9925975148175246,
        0.9833811420257546,
        0.9705463940552953,
        0.9541605645137503,
        0.9343089393185909,
        0.911093911644169,
        0.8846339482041028,
        0.8550624133744726,
        0.822526304575934,
        0.7871849037845885,
        0.7492083828438215,
        0.7087763886014151,
        0.666076634509896,
        0.621303522273592,
        0.5746568165401094,
        0.5263403918136343,
        0.47656105815651195,
        0.42552749021343955,
        0.3734492533138439,
        0.3205359336432765,
        0.26699637177491153,
        0.21303798251720707,
        0.15886617152990237,
        0.10468381868088657,
        0.05069082205256551,
        -0.002916314755419051,
        -0.05594486738635631,
        -0.1082062635877855,
        -0.1595164572683822,
        -0.20969632740414731,
        -0.2585720933760121,
        -0.3059757729857067,
        -0.351745680837068,
        -0.3957269693705986,
        -0.4377722158363192,
        -0.477742041986998,
        -0.5155057671559659,
        -0.550942079237657,
        -0.583939713249079,
        -0.6143981196633522,
        -0.6422281110745119,
        -0.6673524592562019,
        -0.6897064413768215,
        -0.7092383102977109,
        -0.7259096687402,
        -0.7396957445738863,
        -0.7505855499484299,
        -0.7585819175145179,
        -0.7637014065159946,
        -0.7659740876516423,
        -0.7654431890813351,
        -0.762164618113981,
        -0.7562063725211908,
        -0.747647844555434,
        -0.7365790261095013,
        -0.7230996385057867,
        -0.7073181985813732,
        -0.6893510378946759,
        -0.669321294234525,
        -0.6473578912735144,
        -0.6235945284434796,
        -0.5981686728825165,
        -0.5712206132005616,
        -0.5428925360197221,
        -0.5133276751507962,
        -0.48266950918881124,
        -0.4510610453581258,
        -0.41864415807345623,
        -0.38555900795876735,
        -0.3519435271473019,
        -0.3179329780741255,
        -0.2836595674309095,
        -0.24925211235005557,
        -0.21483576266830387,
        -0.18053175996257317,
        -0.14645723939414873,
        -0.11272503644559699,
        -0.0794435337402827,
        -0.04671651232341379,
        -0.014643005737200097,
        0.016682830807527606,
        0.047171857889310255,
        0.07674008092901637,
        0.10530878835717192,
        0.1328046829431991,
        0.15916001093271873,
        0.18431268273254042,
        0.20820638795965013,
        0.23079069394205673,
        0.2520211262924232,
        0.27185923272329826,
        0.29027261171204544,
        0.30723492562483684,
        0.3227258737289212,
        0.33673113176361663,
        0.3492422598124997,
        0.3602565806107676,
        0.3697770204267544,
        0.37781192228776267
    ],
    "overlap_dropped": [
        0,
        0,
        0,
        0,
        0,
        3.2671067976507516e-10,
        1.5642916670014494e-9,
        0,
        0,
        0,
        0,
        6.014582298535395e-12,
        2.0188129723510783e-11,
        5.0017566952384586e-11,
        3.157528623683924e-10,
        8.54830265872112e-10,
        0,
        1.6188186366815466e-10,
        4.370151836861053e-10,
        8.867934542898862e-10,
        1.5873469169782011e-9,
        0,
        0,
        9.219511204764238e-12,
        2.5339388968350318e-11,
        5.1165515674163197e-11,
        2.605781872922204e-10,
        7.188594437777559e-10,
        1.4300443784630854e-9,
        7.2740962126098e-11,
        1.740474245381458e-10,
        3.1382299135563714e-10,
        5.045295091270635e-10,
        7.613845228179314e-10,
        -9.315911987248438e-12,
        -1.891647812096424e-11,
        -3.2980047588192824e-11,
        -4.587075812588127e-11,
        -2.2466593600847363e-10,
        -4.048791249209585e-10,
        -8.824502454965693e-10,
        6.470011847927355e-10,
        1.1025255968731938e-9,
        5.252473235390557e-10,
        8.908460243468885e-10,
        1.2653299462079272e-9,
        1.7518167658440175e-9,
        2.215123279766376e-9,
        2.4258318936052394e-9,
        2.880728895378832e-11,
        -8.357453031450315e-10,
        4.408619366522315e-10,
        7.945022514444069e-10,
        -1.5897914747859423e-11,
        -3.166657505061027e-11,
        -1.9891869419926484e-10,
        -4.35400463785238e-10,
        -7.712052048965178e-10,
        -1.5081685928808543e-9,
        -2.648164078037415e-9,
        -4.2722977064450025e-9,
        -1.1396955934756912e-9,
        -1.6194938361940571e-9,
        1.2698088334858033e-10,
        1.5407182663745875e-10,
        1.901640179598392e-9,
        5.0500867679802e-10,
        7.670486433896113e-10,
        8.801102404715765e-10,
        9.116640328446345e-10,
        -1.1058365214357444e-9,
        -1.9613960409045282e-9,
        -2.26712486600478e-10,
        7.127361256422105e-10,
        6.076599224423681e-10,
        -2.1485474440427126e-9,
        -1.0753732389578183e-9,
        -1.892790791645686e-9,
        -2.538961730802757e-9,
        -9.517199220250953e-10,
        -9.149194433792773e-10,
        -6.985070879250791e-10,
        -2.1841492088626504e-9,
        -2.380852003553854e-9,
        -2.6469927478689274e-9,
        -2.9749301330073675e-9,
        -4.014792040168853e-9,
        -4.522934304918811e-9,
        -4.933219770889004e-9,
        -4.6991100131221376e-9,
        -3.082196665636972e-9,
        -2.468183976389544e-9,
        7.041679901981808e-10,
        2.389312655496232e-9,
        1.3997197251653366e-9,
        -7.818064029899774e-10,
        -1.2572810617477284e-9,
        -1.2642713028237227e-9,
        -9.004187615421317e-10,
        -1.8263162535904484e-9,
        -2.7823811089041042e-9
    ],
    "rule": {
        "label": "xy6_d1em09",
        "weight_period": 1,
        "family": "xy+coeff",
        "tau_z": 0,
        "c_gate": 1.0e-16,
        "tau_xyz": 0,
        "tau_xy": 6,
        "rule_hash": "4b87f76897",
        "coeff_min": 1.0e-9
    },
    "n_kept": [
        1,
        5,
        24,
        34,
        41,
        51,
        61,
        75,
        83,
        100,
        115,
        123,
        143,
        170,
        177,
        202,
        230,
        249,
        273,
        311,
        336,
        373,
        411,
        451,
        498,
        527,
        577,
        625,
        689,
        738,
        793,
        855,
        920,
        999,
        1083,
        1145,
        1246,
        1338,
        1449,
        1550,
        1656,
        1771,
        1902,
        2041,
        2159,
        2318,
        2459,
        2612,
        2766,
        2972,
        3170,
        3340,
        3537,
        3759,
        3981,
        4253,
        4517,
        4780,
        5042,
        5357,
        5693,
        6025,
        6363,
        6751,
        7125,
        7498,
        7911,
        8393,
        8842,
        9293,
        9832,
        10349,
        10937,
        11468,
        12064,
        12730,
        13362,
        13994,
        14712,
        15403,
        16196,
        16950,
        17726,
        18558,
        19464,
        20360,
        21274,
        22292,
        23289,
        24354,
        25452,
        26621,
        27874,
        29189,
        30466,
        31838,
        33328,
        34770,
        36282,
        37873,
        39598
    ],
    "hit_xyz": [
        0,
        0,
        0,
        0,
        0,
        0,
        0,
        0,
        0,
        0,
        0,
        0,
        0,
        0,
        0,
        0,
        0,
        0,
        0,
        0,
        0,
        0,
        0,
        0,
        0,
        0,
        0,
        0,
        0,
        0,
        0,
        0,
        0,
        0,
        0,
        0,
        0,
        0,
        0,
        0,
        0,
        0,
        0,
        0,
        0,
        0,
        0,
        0,
        0,
        0,
        0,
        0,
        0,
        0,
        0,
        0,
        0,
        0,
        0,
        0,
        0,
        0,
        0,
        0,
        0,
        0,
        0,
        0,
        0,
        0,
        0,
        0,
        0,
        0,
        0,
        0,
        0,
        0,
        0,
        0,
        0,
        0,
        0,
        0,
        0,
        0,
        0,
        0,
        0,
        0,
        0,
        0,
        0,
        0,
        0,
        0,
        0,
        0,
        0,
        0,
        0
    ],
    "git_commit": "unknown",
    "n_raw": [
        1,
        5,
        42,
        96,
        104,
        161,
        207,
        223,
        254,
        294,
        364,
        431,
        485,
        524,
        619,
        646,
        677,
        881,
        896,
        987,
        1074,
        1227,
        1298,
        1439,
        1608,
        1701,
        1860,
        2072,
        2233,
        2400,
        2693,
        2847,
        3088,
        3332,
        3589,
        3846,
        4105,
        4642,
        4963,
        5296,
        5744,
        6173,
        6814,
        7220,
        7751,
        8282,
        9016,
        9593,
        10301,
        10785,
        11674,
        12712,
        13443,
        14144,
        15314,
        16347,
        17349,
        18328,
        19650,
        20965,
        22000,
        23583,
        25293,
        26789,
        28480,
        30182,
        31916,
        34048,
        36243,
        38480,
        40634,
        43177,
        45365,
        48399,
        50716,
        53763,
        57392,
        60535,
        64065,
        67744,
        72007,
        75779,
        79993,
        84259,
        88473,
        93170,
        98591,
        103732,
        109301,
        115486,
        121606,
        128064,
        134313,
        141298,
        149416,
        156126,
        164099,
        173333,
        181992,
        190145,
        199605
    ],
    "weight_second_moment_raw": [
        1,
        1.0000029617816564,
        1.0000265588691284,
        1.0001056550822565,
        1.0002913501488409,
        1.0006495780004676,
        1.0012592927837816,
        1.0022102879488997,
        1.0036007029924858,
        1.0055342803068905,
        1.008117440922976,
        1.0114562525740165,
        1.0156533663345955,
        1.0208049990289794,
        1.0269980376329793,
        1.0343073390342399,
        1.0427932938391298,
        1.0524997165370111,
        1.0634521164157509,
        1.075656394366849,
        1.0890980003599517,
        1.103741575168742,
        1.119531088178405,
        1.1363904710972743,
        1.1542247354355106,
        1.172921550001148,
        1.1923532436869366,
        1.2123791887478754,
        1.2328485108402287,
        1.2536030645160032,
        1.274480606811361,
        1.2953180971604588,
        1.3159550491904042,
        1.3362368590452882,
        1.3560180357405234,
        1.3751652616119552,
        1.3935602151071673,
        1.411102093843025,
        1.4277097828657355,
        1.4433236212147496,
        1.4579067290055845,
        1.4714458670907336,
        1.4839518117042818,
        1.4954592371126534,
        1.5060261099495351,
        1.5157326093809467,
        1.5246795973091851,
        1.5329866722760528,
        1.540789849377262,
        1.548238916178286,
        1.5554945211767357,
        1.5627250566585185,
        1.5701034017410525,
        1.5778035939099535,
        1.5859974983869016,
        1.594851544197409,
        1.6045235938504256,
        1.6151600101402734,
        1.6268929788115076,
        1.6398381397948578,
        1.6540925725651958,
        1.6697331730525158,
        1.6868154506452055,
        1.7053727643685457,
        1.7254160075270766,
        1.7469337401998661,
        1.7698927592135099,
        1.7942390858229282,
        1.8198993425296457,
        1.8467824824725156,
        1.874781827818957,
        1.9037773677255994,
        1.9336382618476422,
        1.964225492142003,
        1.9953946038798163,
        2.026998476363807,
        2.0588900648056474,
        2.090925057089253,
        2.122964392626539,
        2.1548765950738114,
        2.186539876167253,
        2.217843974188001,
        2.2486916974003677,
        2.279000150040367,
        2.3087016258831743,
        2.337744161914256,
        2.36609175200326,
        2.39372422758654,
        2.420636819064006,
        2.446839417797915,
        2.4723555641620263,
        2.497221191951077,
        2.521483163560217,
        2.545197633630406,
        2.5684282813036865,
        2.5912444528180476,
        2.6137192568969265,
        2.6359276552598314,
        2.6579445896194933,
        2.6798431847731203,
        2.701693064884867
    ],
    "hit_multiple_weight": [
        0,
        0,
        0,
        0,
        0,
        0,
        0,
        0,
        0,
        0,
        0,
        0,
        0,
        0,
        0,
        0,
        0,
        0,
        0,
        0,
        0,
        0,
        0,
        0,
        0,
        0,
        0,
        0,
        0,
        0,
        0,
        0,
        0,
        0,
        0,
        0,
        0,
        0,
        0,
        0,
        0,
        0,
        0,
        0,
        0,
        0,
        0,
        0,
        0,
        0,
        0,
        0,
        0,
        0,
        0,
        0,
        0,
        0,
        0,
        0,
        0,
        0,
        0,
        0,
        0,
        0,
        0,
        0,
        0,
        0,
        0,
        0,
        0,
        0,
        0,
        0,
        0,
        0,
        0,
        0,
        0,
        0,
        0,
        0,
        0,
        0,
        0,
        0,
        0,
        0,
        0,
        0,
        0,
        0,
        0,
        0,
        0,
        0,
        0,
        0,
        0
    ],
    "autocorr_raw": [
        1,
        0.9981469226820251,
        0.9925960394100215,
        0.983372351948895,
        0.9705173825897012,
        0.9540889541713338,
        0.9341608840959189,
        0.910822594300472,
        0.8841786396764479,
        0.8543481579349227,
        0.821464244394013,
        0.7856732556129615,
        0.7471340462107884,
        0.7060171435837935,
        0.6625038655733078,
        0.616785386431336,
        0.5690617566860912,
        0.5195408827213961,
        0.4684374720535595,
        0.41597195041712415,
        0.36236935685772065,
        0.30785822307741156,
        0.2526694432868934,
        0.19703514079148726,
        0.14118753747586565,
        0.08535783225789739,
        0.02977509445681558,
        -0.0253348221329379,
        -0.07975033885150057,
        -0.13325518006204867,
        -0.18563936414214574,
        -0.23670015265335725,
        -0.2862429530363174,
        -0.33408217046969274,
        -0.3800420048411056,
        -0.4239571891050433,
        -0.4656736656461132,
        -0.5050491976247353,
        -0.5419539126554743,
        -0.5762707765545895,
        -0.6078959952917838,
        -0.6367393436901505,
        -0.6627244198363234,
        -0.685788824587996,
        -0.7058842659961887,
        -0.72297658889257,
        -0.7370457303251939,
        -0.7480856019563784,
        -0.7561039009611036,
        -0.7611218513800683,
        -0.763173878285102,
        -0.7623072175026249,
        -0.7585814640098982,
        -0.752068062465606,
        -0.7428497436576638,
        -0.7310199109440647,
        -0.7166819810243121,
        -0.6999486836071259,
        -0.6809413247325958,
        -0.6597890186621495,
        -0.6366278933664279,
        -0.6116002747187026,
        -0.5848538545396139,
        -0.5565408476380452,
        -0.5268171429536284,
        -0.49584145382994327,
        -0.4637744723355846,
        -0.43077803240499174,
        -0.3970142863946695,
        -0.3626448994458692,
        -0.32783026581487346,
        -0.29272875107983437,
        -0.25749596386184276,
        -0.222284060410807,
        -0.18724108510700446,
        -0.15251034961999604,
        -0.11822985315097781,
        -0.08453174586545181,
        -0.05154183730297896,
        -0.0193791512321635,
        0.01184447189590826,
        0.042024724051865,
        0.07106512974800003,
        0.09887729692540856,
        0.12538111864316984,
        0.15050492587698522,
        0.17418559199558847,
        0.19636858973188373,
        0.21700800170165835,
        0.23606648574548403,
        0.25351519657875904,
        0.2693336654305032,
        0.283509639533268,
        0.29603888349414276,
        0.30692494473008625,
        0.3161788852894447,
        0.323818982505236,
        0.3298704010342921,
        0.33436483892932234,
        0.3373401504680482,
        0.3388399485244425
    ],
    "complete": true,
    "schema_version": "pds-ppml-v3.0",
    "hit_xy": [
        0,
        0,
        0,
        0,
        0,
        0,
        0,
        0,
        0,
        0,
        8,
        8,
        16,
        16,
        16,
        16,
        31,
        69,
        73,
        89,
        90,
        100,
        143,
        144,
        222,
        222,
        254,
        338,
        348,
        364,
        470,
        496,
        543,
        633,
        648,
        714,
        804,
        946,
        1048,
        1220,
        1292,
        1484,
        1692,
        1781,
        1990,
        2151,
        2376,
        2648,
        2938,
        3070,
        3376,
        3854,
        4116,
        4299,
        4833,
        5262,
        5643,
        6014,
        6641,
        7170,
        7690,
        8407,
        9190,
        9777,
        10576,
        11430,
        12117,
        13396,
        14371,
        15284,
        16217,
        17564,
        18448,
        19824,
        21061,
        22359,
        24484,
        25957,
        27824,
        29896,
        32048,
        33982,
        36345,
        38500,
        40774,
        43214,
        46284,
        49161,
        51718,
        55793,
        59081,
        62760,
        66257,
        70542,
        75045,
        78871,
        83809,
        89607,
        94663,
        99243,
        104906
    ],
    "project_toml_sha256": "0f476d319d0bc551a77a410c1947451ebb8d68d98f047a4d3a348358de256696"
}