{
    "created_at": "2026-06-10T23:21:07.758",
    "n_complete": 100,
    "drop_coeff_only": [
        0,
        0,
        30,
        33,
        74,
        70,
        66,
        59,
        84,
        123,
        167,
        165,
        159,
        148,
        229,
        220,
        238,
        267,
        364,
        367,
        363,
        478,
        503,
        496,
        480,
        603,
        663,
        699,
        691,
        742,
        800,
        877,
        900,
        880,
        997,
        1120,
        1161,
        1255,
        1285,
        1354,
        1505,
        1522,
        1571,
        1778,
        1898,
        1932,
        2051,
        2039,
        2165,
        2342,
        2627,
        2868,
        2996,
        3165,
        3373,
        3414,
        3821,
        4103,
        4412,
        4441,
        4688,
        5059,
        5300,
        5605,
        5634,
        6028,
        6286,
        6924,
        7067,
        7423,
        7600,
        8015,
        8392,
        8780,
        8928,
        9367,
        9619,
        10162,
        10436,
        10924,
        11175,
        11913,
        12336,
        12986,
        13254,
        13725,
        14531,
        15270,
        15748,
        16192,
        16415,
        17281,
        18593,
        18860,
        19627,
        20453,
        21863,
        22304,
        22962,
        24067,
        24957
    ],
    "system": {
        "dt": 0.01,
        "P0_coeff": 1,
        "h": 3.04438,
        "P0_term_hex": "c000",
        "name": "chain16",
        "topology_repr": "[(1, 2), (2, 3), (3, 4), (4, 5), (5, 6), (6, 7), (7, 8), (8, 9), (9, 10), (10, 11), (11, 12), (12, 13), (13, 14), (14, 15), (15, 16), (16, 1)]",
        "P0_nqubits": 16,
        "n_layers": 100,
        "g": 0,
        "n_qubits": 16,
        "J": 1
    },
    "julia_version": "1.12.6",
    "n_dropped": [
        0,
        0,
        30,
        33,
        74,
        70,
        66,
        59,
        84,
        123,
        167,
        165,
        159,
        148,
        229,
        220,
        246,
        275,
        372,
        375,
        371,
        494,
        519,
        512,
        496,
        646,
        707,
        781,
        775,
        826,
        884,
        977,
        1026,
        1006,
        1123,
        1382,
        1427,
        1539,
        1569,
        1700,
        1891,
        1912,
        2029,
        2244,
        2508,
        2550,
        2709,
        2735,
        2945,
        3204,
        3549,
        3950,
        4114,
        4421,
        4748,
        4843,
        5404,
        5910,
        6376,
        6654,
        6998,
        7609,
        8034,
        8664,
        8934,
        9499,
        9943,
        11195,
        11693,
        12257,
        12748,
        13265,
        14155,
        15117,
        15880,
        16585,
        17391,
        18320,
        19179,
        20250,
        21045,
        22899,
        23937,
        25164,
        25732,
        27313,
        28687,
        30178,
        31453,
        32977,
        34425,
        35940,
        38149,
        39809,
        41759,
        43795,
        46624,
        48517,
        50707,
        53625,
        55843
    ],
    "overlap_kept": [
        1,
        0.9981469226820251,
        0.9925975148175246,
        0.983381152886683,
        0.9705464151031374,
        0.9541605940683188,
        0.934308974383845,
        0.9110939475089592,
        0.8846339719285373,
        0.8550624035504614,
        0.8225262219315641,
        0.7871846798115332,
        0.7492081551139921,
        0.7087761703577067,
        0.6660764346310685,
        0.621303342223731,
        0.5746566561266812,
        0.526340247302487,
        0.4765609242815478,
        0.42552735910869033,
        0.3734491136946798,
        0.32053576961299646,
        0.2669961590464077,
        0.21303769018131602,
        0.158865884371641,
        0.10468354892614432,
        0.050690586646894686,
        -0.0029165121644039965,
        -0.05594503399421867,
        -0.10820641094389101,
        -0.15951660140833596,
        -0.20969648258141677,
        -0.2585722698693984,
        -0.30597597284563016,
        -0.3517458923125891,
        -0.3957271616031689,
        -0.4377723297248088,
        -0.4777422188267264,
        -0.5155060315896285,
        -0.5509424444968074,
        -0.5839401938187998,
        -0.614398733186831,
        -0.6422286442240971,
        -0.6673528870519516,
        -0.6897067593128849,
        -0.709238536242336,
        -0.7259098291828368,
        -0.7396958697263065,
        -0.7505856690335114,
        -0.7585820539022755,
        -0.7637015760671017,
        -0.7659742913601532,
        -0.7654434107460416,
        -0.7621648273908148,
        -0.7562065272198629,
        -0.74764789261734,
        -0.7365791817850266,
        -0.7230998132964992,
        -0.7073183685414342,
        -0.6893511710287864,
        -0.6693213636036476,
        -0.6473578758622469,
        -0.6235946180633227,
        -0.598168922779148,
        -0.571221076071743,
        -0.5428932372056569,
        -0.5133286184254752,
        -0.4826706785824482,
        -0.45106240037481343,
        -0.41864563818179584,
        -0.3855605379518937,
        -0.3519450260265633,
        -0.31793436445208545,
        -0.2836606603183838,
        -0.24925283437581355,
        -0.2148362625274086,
        -0.1805320338371962,
        -0.1464573110123588,
        -0.11272500397147923,
        -0.07944343476259953,
        -0.046716388683699324,
        -0.014642904866721568,
        0.01668285002138618,
        0.04717172253355088,
        0.07673949201439659,
        0.10530764300572674,
        0.13280313988601297,
        0.1591580241227607,
        0.18431042881987944,
        0.20820390464061192,
        0.23078802659469458,
        0.2520183186554811,
        0.27185612930418684,
        0.2902692387194524,
        0.30723156667563917,
        0.32272264666014766,
        0.33672812720307693,
        0.34923950777434315,
        0.36025407383476127,
        0.36977468037787165,
        0.377809594998373
    ],
    "hit_any_weight": [
        0,
        0,
        0,
        0,
        0,
        0,
        0,
        0,
        0,
        0,
        0,
        0,
        0,
        0,
        0,
        0,
        8,
        8,
        8,
        8,
        8,
        16,
        16,
        16,
        16,
        43,
        44,
        82,
        84,
        84,
        84,
        100,
        126,
        126,
        126,
        262,
        266,
        284,
        284,
        346,
        386,
        390,
        458,
        466,
        610,
        618,
        658,
        696,
        780,
        862,
        922,
        1082,
        1118,
        1256,
        1375,
        1429,
        1583,
        1807,
        1964,
        2213,
        2310,
        2550,
        2734,
        3059,
        3300,
        3471,
        3657,
        4271,
        4626,
        4834,
        5148,
        5250,
        5763,
        6337,
        6952,
        7218,
        7772,
        8158,
        8743,
        9326,
        9870,
        10986,
        11601,
        12178,
        12478,
        13588,
        14156,
        14908,
        15705,
        16785,
        18010,
        18659,
        19556,
        20949,
        22132,
        23342,
        24761,
        26213,
        27745,
        29558,
        30886
    ],
    "drop_weight_only": [
        0,
        0,
        0,
        0,
        0,
        0,
        0,
        0,
        0,
        0,
        0,
        0,
        0,
        0,
        0,
        0,
        0,
        0,
        0,
        0,
        0,
        0,
        0,
        2,
        2,
        2,
        2,
        4,
        4,
        4,
        4,
        4,
        5,
        7,
        9,
        11,
        13,
        21,
        21,
        28,
        35,
        43,
        43,
        53,
        59,
        63,
        71,
        71,
        83,
        87,
        105,
        115,
        125,
        136,
        142,
        146,
        164,
        174,
        189,
        213,
        231,
        253,
        275,
        306,
        340,
        377,
        393,
        419,
        459,
        532,
        568,
        599,
        637,
        704,
        762,
        808,
        853,
        906,
        968,
        1039,
        1111,
        1161,
        1223,
        1303,
        1400,
        1486,
        1562,
        1650,
        1746,
        1842,
        1926,
        2028,
        2123,
        2243,
        2362,
        2488,
        2611,
        2744,
        2885,
        3055,
        3243
    ],
    "hit_coeff": [
        0,
        0,
        30,
        33,
        74,
        70,
        66,
        59,
        84,
        123,
        167,
        165,
        159,
        148,
        229,
        220,
        246,
        275,
        372,
        375,
        371,
        494,
        519,
        510,
        494,
        644,
        705,
        777,
        771,
        822,
        880,
        973,
        1021,
        999,
        1114,
        1371,
        1414,
        1518,
        1548,
        1672,
        1856,
        1869,
        1986,
        2191,
        2449,
        2487,
        2638,
        2664,
        2862,
        3117,
        3444,
        3835,
        3989,
        4285,
        4606,
        4697,
        5240,
        5736,
        6187,
        6441,
        6767,
        7356,
        7759,
        8358,
        8594,
        9122,
        9550,
        10776,
        11234,
        11725,
        12180,
        12666,
        13518,
        14413,
        15118,
        15777,
        16538,
        17414,
        18211,
        19211,
        19934,
        21738,
        22714,
        23861,
        24332,
        25827,
        27125,
        28528,
        29707,
        31135,
        32499,
        33912,
        36026,
        37566,
        39397,
        41307,
        44013,
        45773,
        47822,
        50570,
        52600
    ],
    "drop_coeff_and_weight": [
        0,
        0,
        0,
        0,
        0,
        0,
        0,
        0,
        0,
        0,
        0,
        0,
        0,
        0,
        0,
        0,
        8,
        8,
        8,
        8,
        8,
        16,
        16,
        14,
        14,
        41,
        42,
        78,
        80,
        80,
        80,
        96,
        121,
        119,
        117,
        251,
        253,
        263,
        263,
        318,
        351,
        347,
        415,
        413,
        551,
        555,
        587,
        625,
        697,
        775,
        817,
        967,
        993,
        1120,
        1233,
        1283,
        1419,
        1633,
        1775,
        2000,
        2079,
        2297,
        2459,
        2753,
        2960,
        3094,
        3264,
        3852,
        4167,
        4302,
        4580,
        4651,
        5126,
        5633,
        6190,
        6410,
        6919,
        7252,
        7775,
        8287,
        8759,
        9825,
        10378,
        10875,
        11078,
        12102,
        12594,
        13258,
        13959,
        14943,
        16084,
        16631,
        17433,
        18706,
        19770,
        20854,
        22150,
        23469,
        24860,
        26503,
        27643
    ],
    "hit_z": [
        0,
        0,
        0,
        0,
        0,
        0,
        0,
        0,
        0,
        0,
        0,
        0,
        0,
        0,
        0,
        0,
        0,
        0,
        0,
        0,
        0,
        0,
        0,
        0,
        0,
        0,
        0,
        0,
        0,
        0,
        0,
        0,
        0,
        0,
        0,
        0,
        0,
        0,
        0,
        0,
        0,
        0,
        0,
        0,
        0,
        0,
        0,
        0,
        0,
        0,
        0,
        0,
        0,
        0,
        0,
        0,
        0,
        0,
        0,
        0,
        0,
        0,
        0,
        0,
        0,
        0,
        0,
        0,
        0,
        0,
        0,
        0,
        0,
        0,
        0,
        0,
        0,
        0,
        0,
        0,
        0,
        0,
        0,
        0,
        0,
        0,
        0,
        0,
        0,
        0,
        0,
        0,
        0,
        0,
        0,
        0,
        0,
        0,
        0,
        0,
        0
    ],
    "manifest_toml_sha256": "0bc8dd956e2d53dfc75dae382811cbae5159e33b4ab25664d941105fcfb60c81",
    "git_dirty": true,
    "experiment": "chain16",
    "overlap_raw": [
        1,
        0.9981469226820251,
        0.9925975148175246,
        0.983381152886683,
        0.9705464151031374,
        0.9541605940683188,
        0.934308974383845,
        0.9110939475089592,
        0.8846339719285373,
        0.8550624235200821,
        0.8225262811367046,
        0.7871848103402235,
        0.7492081551139921,
        0.7087761703577067,
        0.6660764346310685,
        0.621303342223731,
        0.5746566561266812,
        0.526340247302487,
        0.47656092487705065,
        0.4255273606840172,
        0.37344911676490766,
        0.3205357870064932,
        0.26699619982033884,
        0.213037766266526,
        0.158865884371641,
        0.10468354892614432,
        0.05069058589863638,
        -0.0029165140529986457,
        -0.05594503756550825,
        -0.10820640247225982,
        -0.15951657973409422,
        -0.20969644739763801,
        -0.25857223636123394,
        -0.30597595039825387,
        -0.3517458944115213,
        -0.39572720813226214,
        -0.4377724490765058,
        -0.47774219967277753,
        -0.5155059927314681,
        -0.5509423690417384,
        -0.5839400731536114,
        -0.6143985600347854,
        -0.6422286449654989,
        -0.6673528887204734,
        -0.6897067620718739,
        -0.709238540253829,
        -0.7259098345997289,
        -0.7396958761762757,
        -0.750585676441196,
        -0.7585820624199501,
        -0.7637015985871375,
        -0.7659743331725242,
        -0.7654434783746291,
        -0.7621649290098463,
        -0.7562066723731414,
        -0.7476480766077109,
        -0.7365791291249447,
        -0.7230998331247488,
        -0.7073184026432517,
        -0.6893512348025945,
        -0.6693214768190429,
        -0.6473580634616848,
        -0.6235946821863958,
        -0.5981689958000271,
        -0.5712211462376338,
        -0.5428933011850144,
        -0.5133286733826338,
        -0.48267072154982743,
        -0.45106245491733993,
        -0.4186457089665114,
        -0.38556061470190506,
        -0.35194512208429096,
        -0.31793446825521965,
        -0.2836608889612746,
        -0.24925308835501236,
        -0.21483635145297236,
        -0.18053214418511188,
        -0.14645744720028323,
        -0.11272509316384727,
        -0.07944353905560787,
        -0.046716503819238614,
        -0.014643028141996549,
        0.016682736585707483,
        0.04717162480907078,
        0.07673964592632881,
        0.1053078760748796,
        0.1328032022766206,
        0.1591581151923133,
        0.18431033412973424,
        0.208203759441757,
        0.23078783271943168,
        0.2520180944137104,
        0.27185614283425336,
        0.290269324217086,
        0.3072314817285008,
        0.3227225456566485,
        0.3367280145085154,
        0.34923940420204774,
        0.36025400670494023,
        0.36977465400216636,
        0.3778096263755516
    ],
    "overlap_dropped": [
        0,
        0,
        0,
        0,
        0,
        0,
        0,
        0,
        0,
        1.996962071965881e-8,
        5.9205140445069834e-8,
        1.3052869025901275e-7,
        0,
        0,
        0,
        0,
        0,
        0,
        5.95502846381227e-10,
        1.5753268463897578e-9,
        3.07022785599536e-9,
        1.739349675863872e-8,
        4.0773931142906707e-8,
        7.608520998595088e-8,
        0,
        0,
        -7.48258311145988e-10,
        -1.8885946489460638e-9,
        -3.571289579352852e-9,
        8.471631182436652e-9,
        2.1674241732081434e-8,
        3.518377874903591e-8,
        3.350816448074518e-8,
        2.244737628852297e-8,
        -2.098932202380713e-9,
        -4.6529093217698213e-8,
        -1.193516970111101e-7,
        1.915394887656989e-8,
        3.885816035864525e-8,
        7.545506893883138e-8,
        1.2066518840251066e-7,
        1.7315204562704276e-7,
        -7.414018726635765e-10,
        -1.6685218117924492e-9,
        -2.758988885825034e-9,
        -4.01149306588166e-9,
        -5.416892206048251e-9,
        -6.449969175787381e-9,
        -7.407684621255904e-9,
        -8.517674563891096e-9,
        -2.2520035820113648e-8,
        -4.1812370963826035e-8,
        -6.762858746807585e-8,
        -1.016190314886421e-7,
        -1.4515327846445377e-7,
        -1.839903708933544e-7,
        5.266008181888022e-8,
        -1.9828249646693268e-8,
        -3.410181754915101e-8,
        -6.377380809763862e-8,
        -1.1321539532986062e-7,
        -1.8759943787067796e-7,
        -6.412307307598715e-8,
        -7.302087908746683e-8,
        -7.016589076043367e-8,
        -6.397935761875943e-8,
        -5.4957158553373326e-8,
        -4.296737919678453e-8,
        -5.454252650815593e-8,
        -7.078471555197846e-8,
        -7.675001132916008e-8,
        -9.605772766031205e-8,
        -1.038031341728358e-7,
        -2.2864289085123753e-7,
        -2.539791988099906e-7,
        -8.892556378574994e-8,
        -1.1034791567515522e-7,
        -1.3618792444489213e-7,
        -8.919236802688555e-8,
        -1.0429300834108003e-7,
        -1.1513553929321328e-7,
        -1.2327527498068375e-7,
        -1.1343567869594721e-7,
        -9.77244801061191e-8,
        1.5391193223004353e-7,
        2.330691528479443e-7,
        6.239060762533242e-8,
        9.106955260711191e-8,
        -9.46901452093841e-8,
        -1.4519885490669821e-7,
        -1.9387526288697987e-7,
        -2.2424177067774758e-7,
        1.35300665031475e-8,
        8.549763360264644e-8,
        -8.494713839775032e-8,
        -1.0100349916201405e-7,
        -1.1269456152725391e-7,
        -1.0357229540740005e-7,
        -6.712982100961814e-8,
        -2.63757052596384e-8,
        3.137717856565626e-8
    ],
    "rule": {
        "label": "xy6_d1em07",
        "weight_period": 1,
        "family": "xy+coeff",
        "tau_z": 0,
        "c_gate": 1.0e-16,
        "tau_xyz": 0,
        "tau_xy": 6,
        "rule_hash": "b7d20a378a",
        "coeff_min": 1.0e-7
    },
    "n_kept": [
        1,
        5,
        12,
        17,
        22,
        28,
        32,
        39,
        41,
        50,
        53,
        61,
        69,
        80,
        83,
        92,
        104,
        117,
        119,
        131,
        155,
        166,
        179,
        193,
        213,
        225,
        243,
        271,
        295,
        314,
        338,
        361,
        389,
        413,
        453,
        490,
        515,
        548,
        585,
        638,
        687,
        727,
        766,
        825,
        875,
        933,
        998,
        1049,
        1111,
        1173,
        1244,
        1321,
        1400,
        1469,
        1552,
        1636,
        1717,
        1820,
        1944,
        2036,
        2131,
        2244,
        2370,
        2505,
        2641,
        2788,
        2935,
        3076,
        3267,
        3459,
        3597,
        3781,
        4023,
        4224,
        4379,
        4609,
        4854,
        5067,
        5293,
        5514,
        5816,
        6043,
        6300,
        6540,
        6844,
        7157,
        7442,
        7773,
        8079,
        8433,
        8817,
        9170,
        9513,
        9971,
        10399,
        10782,
        11208,
        11627,
        12135,
        12589,
        13061
    ],
    "hit_xyz": [
        0,
        0,
        0,
        0,
        0,
        0,
        0,
        0,
        0,
        0,
        0,
        0,
        0,
        0,
        0,
        0,
        0,
        0,
        0,
        0,
        0,
        0,
        0,
        0,
        0,
        0,
        0,
        0,
        0,
        0,
        0,
        0,
        0,
        0,
        0,
        0,
        0,
        0,
        0,
        0,
        0,
        0,
        0,
        0,
        0,
        0,
        0,
        0,
        0,
        0,
        0,
        0,
        0,
        0,
        0,
        0,
        0,
        0,
        0,
        0,
        0,
        0,
        0,
        0,
        0,
        0,
        0,
        0,
        0,
        0,
        0,
        0,
        0,
        0,
        0,
        0,
        0,
        0,
        0,
        0,
        0,
        0,
        0,
        0,
        0,
        0,
        0,
        0,
        0,
        0,
        0,
        0,
        0,
        0,
        0,
        0,
        0,
        0,
        0,
        0,
        0
    ],
    "git_commit": "unknown",
    "n_raw": [
        1,
        5,
        42,
        50,
        96,
        98,
        98,
        98,
        125,
        173,
        220,
        226,
        228,
        228,
        312,
        312,
        350,
        392,
        491,
        506,
        526,
        660,
        698,
        705,
        709,
        871,
        950,
        1052,
        1070,
        1140,
        1222,
        1338,
        1415,
        1419,
        1576,
        1872,
        1942,
        2087,
        2154,
        2338,
        2578,
        2639,
        2795,
        3069,
        3383,
        3483,
        3707,
        3784,
        4056,
        4377,
        4793,
        5271,
        5514,
        5890,
        6300,
        6479,
        7121,
        7730,
        8320,
        8690,
        9129,
        9853,
        10404,
        11169,
        11575,
        12287,
        12878,
        14271,
        14960,
        15716,
        16345,
        17046,
        18178,
        19341,
        20259,
        21194,
        22245,
        23387,
        24472,
        25764,
        26861,
        28942,
        30237,
        31704,
        32576,
        34470,
        36129,
        37951,
        39532,
        41410,
        43242,
        45110,
        47662,
        49780,
        52158,
        54577,
        57832,
        60144,
        62842,
        66214,
        68904
    ],
    "weight_second_moment_raw": [
        1,
        1.0000029617816564,
        1.0000265588691284,
        1.0001056550820673,
        1.0002913501483999,
        1.000649578000144,
        1.0012592927855475,
        1.002210287957495,
        1.003600703017602,
        1.0055342803647678,
        1.0081174410389289,
        1.0114562527842308,
        1.015653366688534,
        1.0208049995909128,
        1.0269980384840425,
        1.0343073402729674,
        1.0427932955826922,
        1.052499718921662,
        1.063452119596908,
        1.0756563985174328,
        1.0890980056702657,
        1.1037415818455707,
        1.1195310964418257,
        1.136390481179321,
        1.1542247475774354,
        1.1729215644513755,
        1.1923532606973877,
        1.2123792085720422,
        1.2328485337307482,
        1.2536030907215223,
        1.2744806365736492,
        1.2953181307130877,
        1.3159550867559722,
        1.3362369008342045,
        1.356018081948846,
        1.3751653124210923,
        1.3935602706823358,
        1.4111021543314153,
        1.4277098483965935,
        1.4433236918986754,
        1.4579068049348265,
        1.4714459483379474,
        1.4839518983214324,
        1.4954593291309728,
        1.506026207380564,
        1.5157327122142579,
        1.5246797055139423,
        1.5329867858001909,
        1.540789968147704,
        1.548239040102023,
        1.5554946501410898,
        1.56272519053384,
        1.570103540383072,
        1.5778037371628495,
        1.5859976460861074,
        1.5948516961756258,
        1.6045237499410039,
        1.61516017018222,
        1.6268931426550275,
        1.6398383073060843,
        1.654092743623516,
        1.6697333475536444,
        1.686815628499423,
        1.705372945498281,
        1.725416191860863,
        1.7469339276644364,
        1.7698929497303764,
        1.79423927930097,
        1.819899538858045,
        1.8467826815207145,
        1.8747820294345074,
        1.9037775717289291,
        1.933638468038882,
        1.9642257003067638,
        1.9953948137874515,
        2.0269986877683777,
        2.0588902774596263,
        2.090925270744388,
        2.1229646070356933,
        2.1548768099950935,
        2.1865400913680078,
        2.217844189456779,
        2.248691912538482,
        2.279000364875839,
        2.308701840271048,
        2.33774437575028,
        2.366091965222553,
        2.393724440168212,
        2.420637031036891,
        2.4468396292383767,
        2.472355775194697,
        2.497221402745779,
        2.5214833743257814,
        2.545197844608261,
        2.5684284927729246,
        2.5912446650844534,
        2.613719470288192,
        2.6359278701285906,
        2.6579448063393,
        2.67984340373891,
        2.7016932865017487
    ],
    "hit_multiple_weight": [
        0,
        0,
        0,
        0,
        0,
        0,
        0,
        0,
        0,
        0,
        0,
        0,
        0,
        0,
        0,
        0,
        0,
        0,
        0,
        0,
        0,
        0,
        0,
        0,
        0,
        0,
        0,
        0,
        0,
        0,
        0,
        0,
        0,
        0,
        0,
        0,
        0,
        0,
        0,
        0,
        0,
        0,
        0,
        0,
        0,
        0,
        0,
        0,
        0,
        0,
        0,
        0,
        0,
        0,
        0,
        0,
        0,
        0,
        0,
        0,
        0,
        0,
        0,
        0,
        0,
        0,
        0,
        0,
        0,
        0,
        0,
        0,
        0,
        0,
        0,
        0,
        0,
        0,
        0,
        0,
        0,
        0,
        0,
        0,
        0,
        0,
        0,
        0,
        0,
        0,
        0,
        0,
        0,
        0,
        0,
        0,
        0,
        0,
        0,
        0,
        0
    ],
    "autocorr_raw": [
        1,
        0.9981469226820251,
        0.9925960394100215,
        0.983372351948895,
        0.9705173825897254,
        0.9540889541715651,
        0.934160884096981,
        0.9108225943038378,
        0.8841786396849464,
        0.8543481579533069,
        0.8214642444295561,
        0.7856732556760422,
        0.7471340463154315,
        0.7060171437481334,
        0.662503865819945,
        0.6167853867875646,
        0.5690617571839763,
        0.5195408833976902,
        0.4684374729494504,
        0.41597195157781436,
        0.3623693583318444,
        0.3078582249163006,
        0.25266944554370996,
        0.19703514352024565,
        0.1411875407303695,
        0.08535783609062186,
        0.029775098917766578,
        -0.025334816997354744,
        -0.07975033299956781,
        -0.1332551734577501,
        -0.1856393567560744,
        -0.23670014446349222,
        -0.28624294402864603,
        -0.3340821606386608,
        -0.3800419941898828,
        -0.4239571776455975,
        -0.4656736533990919,
        -0.5050491846191608,
        -0.5419538989282625,
        -0.5762707621499088,
        -0.6078959802602761,
        -0.636739328088038,
        -0.6627244037244298,
        -0.6857888080307125,
        -0.7058842490604154,
        -0.7229765716466631,
        -0.737045712837949,
        -0.7480855842960759,
        -0.7561038831946414,
        -0.7611218335722006,
        -0.7631738604977997,
        -0.7623071997945671,
        -0.7585814464361006,
        -0.7520680450771844,
        -0.7428497265017278,
        -0.7310198940637306,
        -0.7166819644588206,
        -0.6999486673920473,
        -0.6809413089001015,
        -0.6597890032413295,
        -0.6366278783836316,
        -0.6116002601978804,
        -0.5848538405026418,
        -0.5565408341050132,
        -0.5268171299430798,
        -0.4958414413590534,
        -0.4637744604202723,
        -0.4307780210599631,
        -0.3970142756333943,
        -0.3626448892804969,
        -0.32783025625609885,
        -0.2927287421367251,
        -0.2574959555416443,
        -0.22228405271874052,
        -0.18724107804607604,
        -0.15251034319083204,
        -0.11822984735170271,
        -0.08453174069162098,
        -0.051541832747576406,
        -0.019379147285671472,
        0.011844475245365148,
        0.04202472681830227,
        0.07106513194728771,
        0.09887729857492641,
        0.12538111976141586,
        0.1505049264831526,
        0.17418559210912832,
        0.19636858937207177,
        0.21700800088718455,
        0.23606648449408318,
        0.2535151949068984,
        0.2693336633531415,
        0.28350963706369653,
        0.29603888064391437,
        0.30692494150903665,
        0.31617888170580194,
        0.3238189785658131,
        0.32987039674475144,
        0.3343648342944967,
        0.3373401454923018,
        0.33883994321205
    ],
    "complete": true,
    "schema_version": "pds-ppml-v3.0",
    "hit_xy": [
        0,
        0,
        0,
        0,
        0,
        0,
        0,
        0,
        0,
        0,
        0,
        0,
        0,
        0,
        0,
        0,
        8,
        8,
        8,
        8,
        8,
        16,
        16,
        16,
        16,
        43,
        44,
        82,
        84,
        84,
        84,
        100,
        126,
        126,
        126,
        262,
        266,
        284,
        284,
        346,
        386,
        390,
        458,
        466,
        610,
        618,
        658,
        696,
        780,
        862,
        922,
        1082,
        1118,
        1256,
        1375,
        1429,
        1583,
        1807,
        1964,
        2213,
        2310,
        2550,
        2734,
        3059,
        3300,
        3471,
        3657,
        4271,
        4626,
        4834,
        5148,
        5250,
        5763,
        6337,
        6952,
        7218,
        7772,
        8158,
        8743,
        9326,
        9870,
        10986,
        11601,
        12178,
        12478,
        13588,
        14156,
        14908,
        15705,
        16785,
        18010,
        18659,
        19556,
        20949,
        22132,
        23342,
        24761,
        26213,
        27745,
        29558,
        30886
    ],
    "project_toml_sha256": "0f476d319d0bc551a77a410c1947451ebb8d68d98f047a4d3a348358de256696"
}