{
    "created_at": "2026-06-10T23:20:29.124",
    "n_complete": 100,
    "drop_coeff_only": [
        0,
        0,
        30,
        33,
        74,
        70,
        66,
        59,
        80,
        119,
        155,
        153,
        147,
        137,
        218,
        211,
        201,
        228,
        311,
        316,
        314,
        399,
        420,
        413,
        397,
        478,
        542,
        568,
        564,
        589,
        651,
        640,
        664,
        642,
        750,
        860,
        879,
        952,
        960,
        1023,
        1100,
        1097,
        1108,
        1272,
        1270,
        1370,
        1393,
        1403,
        1508,
        1549,
        1818,
        1924,
        2018,
        2062,
        2200,
        2269,
        2605,
        2664,
        2958,
        2992,
        3125,
        3407,
        3652,
        3663,
        3687,
        3803,
        3994,
        4176,
        4356,
        4353,
        4657,
        4828,
        4930,
        5056,
        5346,
        5530,
        5631,
        5849,
        5845,
        6210,
        6451,
        6576,
        7013,
        7180,
        7455,
        7590,
        7865,
        8240,
        8508,
        8911,
        8834,
        9149,
        9359,
        9912,
        10160,
        10879,
        11211,
        11725,
        12351,
        12758,
        12982
    ],
    "system": {
        "dt": 0.01,
        "P0_coeff": 1,
        "h": 3.04438,
        "P0_term_hex": "c000",
        "name": "chain16",
        "topology_repr": "[(1, 2), (2, 3), (3, 4), (4, 5), (5, 6), (6, 7), (7, 8), (8, 9), (9, 10), (10, 11), (11, 12), (12, 13), (13, 14), (14, 15), (15, 16), (16, 1)]",
        "P0_nqubits": 16,
        "n_layers": 100,
        "g": 0,
        "n_qubits": 16,
        "J": 1
    },
    "julia_version": "1.12.6",
    "n_dropped": [
        0,
        0,
        30,
        33,
        74,
        70,
        66,
        59,
        84,
        123,
        167,
        165,
        159,
        149,
        230,
        223,
        251,
        278,
        375,
        380,
        378,
        501,
        530,
        525,
        509,
        661,
        726,
        806,
        804,
        859,
        925,
        974,
        1071,
        1049,
        1174,
        1370,
        1389,
        1520,
        1592,
        1688,
        1829,
        1828,
        1967,
        2217,
        2263,
        2545,
        2631,
        2773,
        2982,
        3139,
        3648,
        3956,
        4181,
        4394,
        4746,
        4855,
        5349,
        5762,
        6273,
        6400,
        6916,
        7515,
        7956,
        8238,
        8523,
        9141,
        9551,
        10164,
        10674,
        11120,
        11644,
        12153,
        12665,
        13809,
        14486,
        14876,
        15866,
        16886,
        17293,
        18590,
        19603,
        20439,
        21299,
        22067,
        23232,
        24079,
        25172,
        26592,
        27672,
        28694,
        30297,
        31640,
        33227,
        34640,
        35978,
        38423,
        39789,
        41484,
        43559,
        45813,
        47566
    ],
    "overlap_kept": [
        1,
        0.9981469226820251,
        0.9925975148175246,
        0.983381152886683,
        0.9705464151031374,
        0.9541605940683188,
        0.934308974383845,
        0.9110939475089592,
        0.8846339719285373,
        0.8550624035504614,
        0.8225262219315641,
        0.7871846798115332,
        0.7492081551139921,
        0.7087761703577067,
        0.6660764346310685,
        0.6213033422237307,
        0.5746566561266768,
        0.5263402473024482,
        0.47656092428131613,
        0.4255273591076242,
        0.3734491136906905,
        0.32053576960029045,
        0.26699615901072105,
        0.21303769009079998,
        0.15886588413273342,
        0.1046835483764055,
        0.050690585484441796,
        -0.0029165144931579292,
        -0.05594503841656052,
        -0.10820641893245632,
        -0.15951661517706575,
        -0.2096965052945868,
        -0.2585723058507101,
        -0.3059760277781363,
        -0.35174597341221975,
        -0.3957272777747019,
        -0.43777249164469634,
        -0.4777424426525653,
        -0.5155063285314063,
        -0.550942832465953,
        -0.5839406923258679,
        -0.6143993624610165,
        -0.6422294341370388,
        -0.6673538620399064,
        -0.6897079410076558,
        -0.7092399387801998,
        -0.7259114524210277,
        -0.7396976913977094,
        -0.7505876330409551,
        -0.7585840556285771,
        -0.7637034431911374,
        -0.7659757606828035,
        -0.7654440996054468,
        -0.7621642002041502,
        -0.7562038561336254,
        -0.7476424131822708,
        -0.7365694405800258,
        -0.7230843322768234,
        -0.7072952244373354,
        -0.6893179948818146,
        -0.6692752746745935,
        -0.6472952106739428,
        -0.6235111495396476,
        -0.5980596439026904,
        -0.5710801157084944,
        -0.542713783739136,
        -0.5131028432012156,
        -0.4823896637314086,
        -0.4507163195623004,
        -0.41822330484933995,
        -0.3850493975228533,
        -0.35133134185530984,
        -0.31720327362121603,
        -0.28279611402718985,
        -0.24823755180718074,
        -0.2136517149929434,
        -0.17915895208537838,
        -0.1448756858130825,
        -0.11091473152806795,
        -0.07738392010724612,
        -0.044387081206238715,
        -0.012023640916633077,
        0.01961145920587052,
        0.05042787527138292,
        0.08033994018916313,
        0.10926678904134635,
        0.13713246282848343,
        0.16386601776756468,
        0.18940141209880038,
        0.2136782022151495,
        0.23664117983155922,
        0.258240616912382,
        0.2784324003893306,
        0.29717806614904707,
        0.3144446815426308,
        0.33020522412924214,
        0.3444382936792045,
        0.3571284163932739,
        0.3682652983749127,
        0.3778441512875755,
        0.38586607938258943
    ],
    "hit_any_weight": [
        0,
        0,
        0,
        0,
        0,
        0,
        0,
        0,
        4,
        4,
        12,
        12,
        12,
        12,
        12,
        12,
        50,
        50,
        64,
        64,
        64,
        102,
        110,
        112,
        112,
        183,
        184,
        238,
        240,
        270,
        274,
        334,
        407,
        407,
        424,
        510,
        510,
        568,
        632,
        665,
        729,
        731,
        859,
        945,
        993,
        1175,
        1238,
        1370,
        1474,
        1590,
        1830,
        2032,
        2163,
        2332,
        2546,
        2586,
        2744,
        3098,
        3315,
        3408,
        3791,
        4108,
        4304,
        4575,
        4836,
        5338,
        5557,
        5988,
        6318,
        6767,
        6987,
        7325,
        7735,
        8753,
        9140,
        9346,
        10235,
        11037,
        11448,
        12380,
        13152,
        13863,
        14286,
        14887,
        15777,
        16489,
        17307,
        18352,
        19164,
        19783,
        21463,
        22491,
        23868,
        24728,
        25818,
        27544,
        28578,
        29759,
        31208,
        33055,
        34584
    ],
    "drop_weight_only": [
        0,
        0,
        0,
        0,
        0,
        0,
        0,
        0,
        0,
        0,
        0,
        0,
        0,
        1,
        1,
        3,
        3,
        3,
        3,
        3,
        7,
        7,
        9,
        11,
        13,
        14,
        16,
        20,
        24,
        26,
        30,
        33,
        41,
        47,
        49,
        55,
        70,
        70,
        75,
        79,
        89,
        101,
        113,
        115,
        124,
        136,
        146,
        166,
        176,
        182,
        194,
        215,
        235,
        250,
        270,
        287,
        313,
        343,
        371,
        403,
        428,
        448,
        493,
        535,
        569,
        595,
        648,
        718,
        766,
        814,
        862,
        932,
        984,
        1039,
        1105,
        1173,
        1246,
        1300,
        1377,
        1460,
        1550,
        1627,
        1707,
        1775,
        1864,
        1954,
        2055,
        2145,
        2249,
        2347,
        2446,
        2591,
        2695,
        2837,
        2999,
        3137,
        3290,
        3456,
        3615,
        3788,
        3961
    ],
    "hit_coeff": [
        0,
        0,
        30,
        33,
        74,
        70,
        66,
        59,
        84,
        123,
        167,
        165,
        159,
        148,
        229,
        220,
        248,
        275,
        372,
        377,
        371,
        494,
        521,
        514,
        496,
        647,
        710,
        786,
        780,
        833,
        895,
        941,
        1030,
        1002,
        1125,
        1315,
        1319,
        1450,
        1517,
        1609,
        1740,
        1727,
        1854,
        2102,
        2139,
        2409,
        2485,
        2607,
        2806,
        2957,
        3454,
        3741,
        3946,
        4144,
        4476,
        4568,
        5036,
        5419,
        5902,
        5997,
        6488,
        7067,
        7463,
        7703,
        7954,
        8546,
        8903,
        9446,
        9908,
        10306,
        10782,
        11221,
        11681,
        12770,
        13381,
        13703,
        14620,
        15586,
        15916,
        17130,
        18053,
        18812,
        19592,
        20292,
        21368,
        22125,
        23117,
        24447,
        25423,
        26347,
        27851,
        29049,
        30532,
        31803,
        32979,
        35286,
        36499,
        38028,
        39944,
        42025,
        43605
    ],
    "drop_coeff_and_weight": [
        0,
        0,
        0,
        0,
        0,
        0,
        0,
        0,
        4,
        4,
        12,
        12,
        12,
        11,
        11,
        9,
        47,
        47,
        61,
        61,
        57,
        95,
        101,
        101,
        99,
        169,
        168,
        218,
        216,
        244,
        244,
        301,
        366,
        360,
        375,
        455,
        440,
        498,
        557,
        586,
        640,
        630,
        746,
        830,
        869,
        1039,
        1092,
        1204,
        1298,
        1408,
        1636,
        1817,
        1928,
        2082,
        2276,
        2299,
        2431,
        2755,
        2944,
        3005,
        3363,
        3660,
        3811,
        4040,
        4267,
        4743,
        4909,
        5270,
        5552,
        5953,
        6125,
        6393,
        6751,
        7714,
        8035,
        8173,
        8989,
        9737,
        10071,
        10920,
        11602,
        12236,
        12579,
        13112,
        13913,
        14535,
        15252,
        16207,
        16915,
        17436,
        19017,
        19900,
        21173,
        21891,
        22819,
        24407,
        25288,
        26303,
        27593,
        29267,
        30623
    ],
    "hit_z": [
        0,
        0,
        0,
        0,
        0,
        0,
        0,
        0,
        0,
        0,
        0,
        0,
        0,
        0,
        0,
        0,
        0,
        0,
        0,
        0,
        0,
        0,
        0,
        0,
        0,
        0,
        0,
        0,
        0,
        0,
        0,
        0,
        0,
        0,
        0,
        0,
        0,
        0,
        0,
        0,
        0,
        0,
        0,
        0,
        0,
        0,
        0,
        0,
        0,
        0,
        0,
        0,
        0,
        0,
        0,
        0,
        0,
        0,
        0,
        0,
        0,
        0,
        0,
        0,
        0,
        0,
        0,
        0,
        0,
        0,
        0,
        0,
        0,
        0,
        0,
        0,
        0,
        0,
        0,
        0,
        0,
        0,
        0,
        0,
        0,
        0,
        0,
        0,
        0,
        0,
        0,
        0,
        0,
        0,
        0,
        0,
        0,
        0,
        0,
        0,
        0
    ],
    "manifest_toml_sha256": "0bc8dd956e2d53dfc75dae382811cbae5159e33b4ab25664d941105fcfb60c81",
    "git_dirty": true,
    "experiment": "chain16",
    "overlap_raw": [
        1,
        0.9981469226820251,
        0.9925975148175246,
        0.983381152886683,
        0.9705464151031374,
        0.9541605940683188,
        0.934308974383845,
        0.9110939475089592,
        0.8846339719285373,
        0.8550624235200821,
        0.8225262811367046,
        0.7871848103402235,
        0.7492081551139921,
        0.7087761703577067,
        0.6660764346310685,
        0.6213033422237307,
        0.5746566561266768,
        0.5263402473024482,
        0.47656092487680884,
        0.42552736068290614,
        0.37344911676073483,
        0.3205357869925556,
        0.2669961997806527,
        0.21303776616499193,
        0.15886588413273342,
        0.1046835483764055,
        0.05069058473552017,
        -0.00291651638355658,
        -0.05594504199152131,
        -0.10820641050301541,
        -0.15951659360914788,
        -0.2096964703201517,
        -0.25857227273005107,
        -0.3059760059889533,
        -0.35174597656812984,
        -0.3957273259465789,
        -0.4377726134840194,
        -0.47774242358832186,
        -0.5155062899962525,
        -0.5509427578971432,
        -0.5839405744883183,
        -0.6143991951507635,
        -0.6422294349408327,
        -0.6673538638576294,
        -0.6897079440368444,
        -0.7092399432269221,
        -0.725911458494275,
        -0.7396976988169799,
        -0.7505876414312275,
        -0.7585840655705272,
        -0.7637034675799823,
        -0.7659758049344939,
        -0.7654441785090662,
        -0.7621643255872138,
        -0.7562040417597251,
        -0.7476424747556498,
        -0.7365695071311235,
        -0.7230844023836295,
        -0.7072952864763856,
        -0.689318046613957,
        -0.6692753226963051,
        -0.6472954405541125,
        -0.6235112352840658,
        -0.5980597556269379,
        -0.5710802446350361,
        -0.5427139281649698,
        -0.5131030023208885,
        -0.48238985047238847,
        -0.4507162913834424,
        -0.41822323344398743,
        -0.3850494358602144,
        -0.3513314229049442,
        -0.31720328339733306,
        -0.2827961310408767,
        -0.24823760855496763,
        -0.21365183516910685,
        -0.17915918596639063,
        -0.14487605349022867,
        -0.11091479569670035,
        -0.0773840020833893,
        -0.04438718161471755,
        -0.012023760589203398,
        0.01961131788258871,
        0.05042771022347958,
        0.0803397602244398,
        0.10926657944598489,
        0.13713222015805804,
        0.16386571315528276,
        0.1894012372702256,
        0.21367804221988002,
        0.23664102969901418,
        0.25824049087606615,
        0.27843227504462587,
        0.29717793272031773,
        0.3144446497581357,
        0.3302051916211557,
        0.34443824793821876,
        0.3571280815278761,
        0.36826485227654787,
        0.37784385113618496,
        0.38586574220723047
    ],
    "overlap_dropped": [
        0,
        0,
        0,
        0,
        0,
        0,
        0,
        0,
        0,
        1.996962071965881e-8,
        5.9205140445069834e-8,
        1.3052869025901275e-7,
        0,
        0,
        0,
        0,
        0,
        0,
        5.954927014086072e-10,
        1.5752819372053588e-9,
        3.0700443299063937e-9,
        1.7392265138091576e-8,
        4.0769931633023854e-8,
        7.607419195952066e-8,
        0,
        0,
        -7.489216249356176e-10,
        -1.890398650558824e-9,
        -3.5749607897304076e-9,
        8.429440915084726e-9,
        2.156791785792828e-8,
        3.497443510979037e-8,
        3.312065906456767e-8,
        2.178918298613992e-8,
        -3.1559100620523017e-9,
        -4.817187698084192e-8,
        -1.218393230600428e-7,
        1.906424347278278e-8,
        3.853515379436462e-8,
        7.456880973869658e-8,
        1.1783754961118528e-7,
        1.6731025299932772e-7,
        -8.037938778984123e-10,
        -1.8177230006417817e-9,
        -3.0291887089375823e-9,
        -4.446722270045735e-9,
        -6.073247184964199e-9,
        -7.419270564219331e-9,
        -8.390272417095575e-9,
        -9.941950044170864e-9,
        -2.4388844994731727e-8,
        -4.425169038070853e-8,
        -7.89036193964082e-8,
        -1.253830636191694e-7,
        -1.856260997400478e-7,
        -6.1573379086729e-8,
        -6.655109758816825e-8,
        -7.01068060617102e-8,
        -6.203905021542077e-8,
        -5.1732142403413525e-8,
        -4.8021711581996347e-8,
        -2.29880169723744e-7,
        -8.574441821038636e-8,
        -1.1172424755718118e-7,
        -1.289265417977599e-7,
        -1.4442583372084119e-7,
        -1.5911967282935628e-7,
        -1.8674097985073855e-7,
        2.8178858022229306e-8,
        7.14053525348005e-8,
        -3.833736112272833e-8,
        -8.104963433899567e-8,
        -9.776117050690439e-9,
        -1.7013686855098986e-8,
        -5.674778689314387e-8,
        -1.2017616346547503e-7,
        -2.3388101225726264e-7,
        -3.6767714617458095e-7,
        -6.416863239767596e-8,
        -8.197614318148059e-8,
        -1.0040847883942001e-7,
        -1.196725703200152e-7,
        -1.4132328180879056e-7,
        -1.6504790334038384e-7,
        -1.7996472332640035e-7,
        -2.0959536146080665e-7,
        -2.426704254039174e-7,
        -3.0461228193837946e-7,
        -1.748285747951684e-7,
        -1.5999526946612614e-7,
        -1.5013254503476557e-7,
        -1.2603631581078376e-7,
        -1.2534470471093868e-7,
        -1.3342872933286684e-7,
        -3.178449507274971e-8,
        -3.2508086465780496e-8,
        -4.574098574781819e-8,
        -3.3486539780113854e-7,
        -4.4609836479714006e-7,
        -3.0015139049551444e-7,
        -3.371753589552852e-7
    ],
    "rule": {
        "label": "xy5_d1em07",
        "weight_period": 1,
        "family": "xy+coeff",
        "tau_z": 0,
        "c_gate": 1.0e-16,
        "tau_xyz": 0,
        "tau_xy": 5,
        "rule_hash": "3dccd0ae14",
        "coeff_min": 1.0e-7
    },
    "n_kept": [
        1,
        5,
        12,
        17,
        22,
        28,
        32,
        39,
        41,
        50,
        53,
        61,
        69,
        79,
        82,
        89,
        99,
        114,
        116,
        126,
        148,
        159,
        168,
        180,
        200,
        210,
        224,
        246,
        266,
        281,
        297,
        318,
        336,
        362,
        390,
        410,
        437,
        461,
        497,
        536,
        571,
        599,
        638,
        676,
        726,
        762,
        809,
        845,
        888,
        940,
        999,
        1040,
        1095,
        1151,
        1210,
        1261,
        1323,
        1392,
        1458,
        1532,
        1592,
        1689,
        1770,
        1846,
        1924,
        2041,
        2149,
        2235,
        2359,
        2490,
        2600,
        2702,
        2834,
        2969,
        3091,
        3219,
        3361,
        3505,
        3654,
        3812,
        3984,
        4140,
        4270,
        4463,
        4622,
        4837,
        5016,
        5223,
        5401,
        5594,
        5832,
        6044,
        6275,
        6488,
        6731,
        6943,
        7162,
        7406,
        7678,
        7994,
        8253
    ],
    "hit_xyz": [
        0,
        0,
        0,
        0,
        0,
        0,
        0,
        0,
        0,
        0,
        0,
        0,
        0,
        0,
        0,
        0,
        0,
        0,
        0,
        0,
        0,
        0,
        0,
        0,
        0,
        0,
        0,
        0,
        0,
        0,
        0,
        0,
        0,
        0,
        0,
        0,
        0,
        0,
        0,
        0,
        0,
        0,
        0,
        0,
        0,
        0,
        0,
        0,
        0,
        0,
        0,
        0,
        0,
        0,
        0,
        0,
        0,
        0,
        0,
        0,
        0,
        0,
        0,
        0,
        0,
        0,
        0,
        0,
        0,
        0,
        0,
        0,
        0,
        0,
        0,
        0,
        0,
        0,
        0,
        0,
        0,
        0,
        0,
        0,
        0,
        0,
        0,
        0,
        0,
        0,
        0,
        0,
        0,
        0,
        0,
        0,
        0,
        0,
        0,
        0,
        0
    ],
    "git_commit": "unknown",
    "n_raw": [
        1,
        5,
        42,
        50,
        96,
        98,
        98,
        98,
        125,
        173,
        220,
        226,
        228,
        228,
        312,
        312,
        350,
        392,
        491,
        506,
        526,
        660,
        698,
        705,
        709,
        871,
        950,
        1052,
        1070,
        1140,
        1222,
        1292,
        1407,
        1411,
        1564,
        1780,
        1826,
        1981,
        2089,
        2224,
        2400,
        2427,
        2605,
        2893,
        2989,
        3307,
        3440,
        3618,
        3870,
        4079,
        4647,
        4996,
        5276,
        5545,
        5956,
        6116,
        6672,
        7154,
        7731,
        7932,
        8508,
        9204,
        9726,
        10084,
        10447,
        11182,
        11700,
        12399,
        13033,
        13610,
        14244,
        14855,
        15499,
        16778,
        17577,
        18095,
        19227,
        20391,
        20947,
        22402,
        23587,
        24579,
        25569,
        26530,
        27854,
        28916,
        30188,
        31815,
        33073,
        34288,
        36129,
        37684,
        39502,
        41128,
        42709,
        45366,
        46951,
        48890,
        51237,
        53807,
        55819
    ],
    "weight_second_moment_raw": [
        1,
        1.0000029617816564,
        1.0000265588691284,
        1.0001056550820673,
        1.0002913501483999,
        1.000649578000144,
        1.0012592927855475,
        1.002210287957495,
        1.003600703017602,
        1.0055342803647678,
        1.0081174410389289,
        1.0114562527842308,
        1.015653366688534,
        1.0208049995909128,
        1.026998038484001,
        1.0343073402728042,
        1.0427932955820614,
        1.0524997189198302,
        1.0634521195926008,
        1.075656398507973,
        1.089098005650279,
        1.1037415818054923,
        1.1195310963661063,
        1.1363904810439187,
        1.1542247473493805,
        1.1729215640918471,
        1.1923532601729279,
        1.212379207881574,
        1.2328485329593664,
        1.2536030901370694,
        1.2744806367850037,
        1.2953181329143284,
        1.315955093083901,
        1.3362369148587478,
        1.3560181093171182,
        1.375165361647827,
        1.3935603540610013,
        1.411102288893906,
        1.4277100567884675,
        1.4433240029727898,
        1.4579072537721975,
        1.4714465753142016,
        1.4839527467345441,
        1.4954604408118604,
        1.5060276156267047,
        1.5157344313472598,
        1.524681716332395,
        1.5329890162655924,
        1.5407922687248214,
        1.5482411533562637,
        1.5554961744259654,
        1.5627255378939435,
        1.570101889134908,
        1.5777989799832377,
        1.5859883347858237,
        1.5948359846702989,
        1.604499337205569,
        1.6151242451489793,
        1.626842333099564,
        1.6397686347173528,
        1.6539995859002008,
        1.6696114110710074,
        1.6866589307553348,
        1.7051748090996541,
        1.7251692501924125,
        1.7466301421525483,
        1.769523638263019,
        1.793795155113033,
        1.8193707590603008,
        1.8461589044342521,
        1.8740524800024465,
        1.902931114484992,
        1.932663687329275,
        1.963110987732639,
        1.9941284629869882,
        2.025568996690923,
        2.05728565815249,
        2.0891343663579427,
        2.1209764151195927,
        2.1526808103782664,
        2.184126375916191,
        2.2152035898431612,
        2.245816120984694,
        2.275882041557314,
        2.3053347000709827,
        2.3341232460704124,
        2.3622128060247753,
        2.389584317050945,
        2.4162340323164013,
        2.4421727184689153,
        2.467424571470461,
        2.4920258823977295,
        2.516023489221271,
        2.539473054160659,
        2.562437208849593,
        2.5849836113297977,
        2.607182959677953,
        2.629107007058053,
        2.650826621965491,
        2.6724099356867,
        2.693920616376864
    ],
    "hit_multiple_weight": [
        0,
        0,
        0,
        0,
        0,
        0,
        0,
        0,
        0,
        0,
        0,
        0,
        0,
        0,
        0,
        0,
        0,
        0,
        0,
        0,
        0,
        0,
        0,
        0,
        0,
        0,
        0,
        0,
        0,
        0,
        0,
        0,
        0,
        0,
        0,
        0,
        0,
        0,
        0,
        0,
        0,
        0,
        0,
        0,
        0,
        0,
        0,
        0,
        0,
        0,
        0,
        0,
        0,
        0,
        0,
        0,
        0,
        0,
        0,
        0,
        0,
        0,
        0,
        0,
        0,
        0,
        0,
        0,
        0,
        0,
        0,
        0,
        0,
        0,
        0,
        0,
        0,
        0,
        0,
        0,
        0,
        0,
        0,
        0,
        0,
        0,
        0,
        0,
        0,
        0,
        0,
        0,
        0,
        0,
        0,
        0,
        0,
        0,
        0,
        0,
        0
    ],
    "autocorr_raw": [
        1,
        0.9981469226820251,
        0.9925960394100215,
        0.983372351948895,
        0.9705173825897254,
        0.9540889541715651,
        0.934160884096981,
        0.9108225943038378,
        0.8841786396849464,
        0.8543481579533069,
        0.8214642444295561,
        0.7856732556760422,
        0.7471340463154315,
        0.7060171437481334,
        0.662503865819945,
        0.6167853867875646,
        0.5690617571839763,
        0.5195408833976902,
        0.4684374729494504,
        0.41597195157781436,
        0.3623693583318445,
        0.3078582249163011,
        0.25266944554371173,
        0.19703514352025114,
        0.14118754073038464,
        0.08535783609066025,
        0.029775098917857103,
        -0.025334816997153793,
        -0.07975033299914439,
        -0.13325517345689747,
        -0.18563935675442522,
        -0.23670014446041465,
        -0.286242944023085,
        -0.33408216062890084,
        -0.3800419941732025,
        -0.4239571776177752,
        -0.46567365335371386,
        -0.5050491845466705,
        -0.5419538988146775,
        -0.57627076197512,
        -0.6078959799958307,
        -0.6367393276943001,
        -0.662724403147004,
        -0.6857888071960166,
        -0.705884247870297,
        -0.7229765699719733,
        -0.737045710511022,
        -0.7480855811021156,
        -0.7561038788620932,
        -0.7611218277622871,
        -0.7631738527935351,
        -0.7623071896897284,
        -0.7585814333248355,
        -0.7520680282451754,
        -0.7428497051201021,
        -0.7310198671872106,
        -0.7166819310299372,
        -0.6999486262535815,
        -0.680941258818264,
        -0.6597889429425136,
        -0.6366278066078644,
        -0.6116001757723178,
        -0.5848537424385749,
        -0.556540721721848,
        -0.5268170030225716,
        -0.49584130033268514,
        -0.46377430659202445,
        -0.4307778568657807,
        -0.39701410493738837,
        -0.36264471770627543,
        -0.3278300915495899,
        -0.2927285945544085,
        -0.2574958382552444,
        -0.22228398222416085,
        -0.18724107456070166,
        -0.15251043101933662,
        -0.1182300551962364,
        -0.08453210187781737,
        -0.051542385333309806,
        -0.01937993401505702,
        0.011843407184450278,
        0.04202332627871297,
        0.0710633445978785,
        0.09887506801777657,
        0.12537838904361526,
        0.15050164005595318,
        0.17418169828604702,
        0.1963640433347021,
        0.21700276828287002,
        0.23606054566309354,
        0.25350854976823534,
        0.2693263369675395,
        0.28350168587978863,
        0.29603039941897424,
        0.30691607087932654,
        0.31616981636356384,
        0.323809975980613,
        0.32986178634657926,
        0.3343570270151465,
        0.3373336435405847,
        0.3388353499378479
    ],
    "complete": true,
    "schema_version": "pds-ppml-v3.0",
    "hit_xy": [
        0,
        0,
        0,
        0,
        0,
        0,
        0,
        0,
        4,
        4,
        12,
        12,
        12,
        12,
        12,
        12,
        50,
        50,
        64,
        64,
        64,
        102,
        110,
        112,
        112,
        183,
        184,
        238,
        240,
        270,
        274,
        334,
        407,
        407,
        424,
        510,
        510,
        568,
        632,
        665,
        729,
        731,
        859,
        945,
        993,
        1175,
        1238,
        1370,
        1474,
        1590,
        1830,
        2032,
        2163,
        2332,
        2546,
        2586,
        2744,
        3098,
        3315,
        3408,
        3791,
        4108,
        4304,
        4575,
        4836,
        5338,
        5557,
        5988,
        6318,
        6767,
        6987,
        7325,
        7735,
        8753,
        9140,
        9346,
        10235,
        11037,
        11448,
        12380,
        13152,
        13863,
        14286,
        14887,
        15777,
        16489,
        17307,
        18352,
        19164,
        19783,
        21463,
        22491,
        23868,
        24728,
        25818,
        27544,
        28578,
        29759,
        31208,
        33055,
        34584
    ],
    "project_toml_sha256": "0f476d319d0bc551a77a410c1947451ebb8d68d98f047a4d3a348358de256696"
}