{
    "created_at": "2026-06-10T23:22:24.194",
    "n_complete": 100,
    "drop_coeff_only": [
        0,
        0,
        30,
        33,
        74,
        70,
        66,
        59,
        84,
        123,
        167,
        165,
        159,
        148,
        229,
        220,
        246,
        275,
        372,
        375,
        371,
        494,
        519,
        510,
        494,
        644,
        705,
        777,
        771,
        822,
        880,
        969,
        1015,
        995,
        1112,
        1311,
        1402,
        1509,
        1532,
        1653,
        1830,
        1840,
        1939,
        2152,
        2410,
        2431,
        2556,
        2626,
        2795,
        3056,
        3411,
        3728,
        4010,
        4229,
        4476,
        4559,
        5123,
        5575,
        6059,
        6196,
        6477,
        7095,
        7657,
        8073,
        8269,
        8725,
        9249,
        10034,
        10616,
        10949,
        11448,
        12084,
        12686,
        13619,
        13851,
        14597,
        15020,
        16254,
        17091,
        17802,
        18426,
        19383,
        20620,
        21482,
        22064,
        23150,
        24198,
        26093,
        27465,
        28690,
        29536,
        30910,
        32584,
        33518,
        34528,
        37056,
        39005,
        41125,
        43401,
        44564,
        45946
    ],
    "system": {
        "dt": 0.01,
        "P0_coeff": 1,
        "h": 3.04438,
        "P0_term_hex": "c000",
        "name": "chain16",
        "topology_repr": "[(1, 2), (2, 3), (3, 4), (4, 5), (5, 6), (6, 7), (7, 8), (8, 9), (9, 10), (10, 11), (11, 12), (12, 13), (13, 14), (14, 15), (15, 16), (16, 1)]",
        "P0_nqubits": 16,
        "n_layers": 100,
        "g": 0,
        "n_qubits": 16,
        "J": 1
    },
    "julia_version": "1.12.6",
    "n_dropped": [
        0,
        0,
        30,
        33,
        74,
        70,
        66,
        59,
        84,
        123,
        167,
        165,
        159,
        148,
        229,
        220,
        246,
        275,
        372,
        375,
        371,
        494,
        519,
        510,
        494,
        644,
        705,
        777,
        771,
        822,
        880,
        969,
        1015,
        995,
        1112,
        1319,
        1410,
        1517,
        1540,
        1661,
        1846,
        1856,
        1963,
        2176,
        2434,
        2455,
        2599,
        2670,
        2885,
        3148,
        3503,
        3820,
        4110,
        4355,
        4602,
        4693,
        5325,
        5787,
        6309,
        6458,
        6785,
        7465,
        8033,
        8457,
        8709,
        9325,
        9975,
        10896,
        11546,
        11941,
        12512,
        13158,
        13943,
        14978,
        15234,
        16168,
        16848,
        18323,
        19384,
        20404,
        21141,
        22296,
        23679,
        24895,
        25722,
        27099,
        28525,
        30814,
        32411,
        33786,
        35096,
        36843,
        38736,
        40288,
        41762,
        45111,
        47656,
        50305,
        53296,
        54850,
        56529
    ],
    "overlap_kept": [
        1,
        0.9981469226820251,
        0.9925975148175246,
        0.983381152886683,
        0.9705464151031374,
        0.9541605940683188,
        0.934308974383845,
        0.9110939475089592,
        0.8846339719285373,
        0.8550624035504614,
        0.8225262219315641,
        0.7871846798115332,
        0.7492081551139921,
        0.7087761703577067,
        0.6660764346310685,
        0.621303342223731,
        0.5746566561266812,
        0.526340247302487,
        0.4765609242815478,
        0.42552735910869033,
        0.3734491136946798,
        0.32053576961299646,
        0.2669961590464077,
        0.21303769018131602,
        0.158865884371641,
        0.10468354892614432,
        0.05069058664689471,
        -0.002916512164403719,
        -0.05594503399421622,
        -0.10820641094387665,
        -0.1595166014082708,
        -0.2096964825811735,
        -0.25857226986861503,
        -0.3059759728433901,
        -0.35174589230678444,
        -0.39572716158932153,
        -0.4377723296940825,
        -0.4777422187604464,
        -0.5155060314607403,
        -0.5509424442583029,
        -0.58394019340352,
        -0.6143987325089727,
        -0.6422286434247725,
        -0.6673528863799069,
        -0.6897067594161692,
        -0.7092385384102462,
        -0.7259098354584994,
        -0.7396958832697474,
        -0.7505856945677888,
        -0.7585820983089808,
        -0.7637016491720005,
        -0.7659744069289633,
        -0.7654435877128323,
        -0.7621650913572048,
        -0.7562069122782864,
        -0.747648443539315,
        -0.7365799564427237,
        -0.7231008769093374,
        -0.7073198139909767,
        -0.6893531159646594,
        -0.6693239554139456,
        -0.6473612969136636,
        -0.6235990844617143,
        -0.598174703690204,
        -0.5712284982740405,
        -0.5429027072663323,
        -0.5133406092631496,
        -0.4826857537259152,
        -0.45108122714129056,
        -0.41866900168223153,
        -0.38558935569285024,
        -0.3519803630342215,
        -0.3179774488036802,
        -0.28371324784233787,
        -0.24931659234514483,
        -0.21491287335326484,
        -0.18062359981243778,
        -0.1465661903553909,
        -0.11285379056375353,
        -0.07959544974970562,
        -0.046894974840060624,
        -0.014851734411342098,
        0.01643977097688212,
        0.04689004230853406,
        0.07641451341124528,
        0.10493428659275612,
        0.1323756746801939,
        0.15867052294804343,
        0.18375657319006486,
        0.20757696470929854,
        0.23008087270746086,
        0.2512234412035131,
        0.27096595544134544,
        0.2892756127736595,
        0.3061255532233263,
        0.3214956125104682,
        0.3353710849523799,
        0.34774338000549804,
        0.35860973199799845,
        0.367972895655758,
        0.37584159357166713
    ],
    "hit_any_weight": [
        0,
        0,
        0,
        0,
        0,
        0,
        0,
        0,
        0,
        0,
        0,
        0,
        0,
        0,
        0,
        0,
        0,
        0,
        0,
        0,
        0,
        0,
        0,
        0,
        0,
        0,
        0,
        0,
        0,
        0,
        0,
        0,
        0,
        0,
        0,
        8,
        8,
        8,
        8,
        8,
        16,
        16,
        24,
        24,
        24,
        24,
        43,
        44,
        90,
        92,
        92,
        92,
        100,
        126,
        126,
        134,
        202,
        212,
        250,
        262,
        308,
        370,
        376,
        384,
        440,
        600,
        726,
        862,
        930,
        992,
        1064,
        1074,
        1257,
        1359,
        1383,
        1571,
        1828,
        2069,
        2293,
        2602,
        2715,
        2913,
        3059,
        3413,
        3658,
        3949,
        4327,
        4721,
        4946,
        5096,
        5560,
        5933,
        6152,
        6770,
        7234,
        8055,
        8651,
        9180,
        9895,
        10286,
        10583
    ],
    "drop_weight_only": [
        0,
        0,
        0,
        0,
        0,
        0,
        0,
        0,
        0,
        0,
        0,
        0,
        0,
        0,
        0,
        0,
        0,
        0,
        0,
        0,
        0,
        0,
        0,
        0,
        0,
        0,
        0,
        0,
        0,
        0,
        0,
        0,
        0,
        0,
        0,
        0,
        0,
        0,
        0,
        0,
        0,
        0,
        0,
        0,
        0,
        2,
        2,
        2,
        2,
        2,
        4,
        4,
        6,
        10,
        10,
        13,
        13,
        15,
        17,
        19,
        19,
        21,
        24,
        26,
        26,
        28,
        29,
        33,
        39,
        49,
        63,
        65,
        75,
        85,
        102,
        115,
        137,
        161,
        181,
        202,
        210,
        227,
        263,
        295,
        321,
        355,
        377,
        401,
        423,
        455,
        494,
        521,
        553,
        589,
        639,
        670,
        698,
        758,
        816,
        868,
        939
    ],
    "hit_coeff": [
        0,
        0,
        30,
        33,
        74,
        70,
        66,
        59,
        84,
        123,
        167,
        165,
        159,
        148,
        229,
        220,
        246,
        275,
        372,
        375,
        371,
        494,
        519,
        510,
        494,
        644,
        705,
        777,
        771,
        822,
        880,
        969,
        1015,
        995,
        1112,
        1319,
        1410,
        1517,
        1540,
        1661,
        1846,
        1856,
        1963,
        2176,
        2434,
        2453,
        2597,
        2668,
        2883,
        3146,
        3499,
        3816,
        4104,
        4345,
        4592,
        4680,
        5312,
        5772,
        6292,
        6439,
        6766,
        7444,
        8009,
        8431,
        8683,
        9297,
        9946,
        10863,
        11507,
        11892,
        12449,
        13093,
        13868,
        14893,
        15132,
        16053,
        16711,
        18162,
        19203,
        20202,
        20931,
        22069,
        23416,
        24600,
        25401,
        26744,
        28148,
        30413,
        31988,
        33331,
        34602,
        36322,
        38183,
        39699,
        41123,
        44441,
        46958,
        49547,
        52480,
        53982,
        55590
    ],
    "drop_coeff_and_weight": [
        0,
        0,
        0,
        0,
        0,
        0,
        0,
        0,
        0,
        0,
        0,
        0,
        0,
        0,
        0,
        0,
        0,
        0,
        0,
        0,
        0,
        0,
        0,
        0,
        0,
        0,
        0,
        0,
        0,
        0,
        0,
        0,
        0,
        0,
        0,
        8,
        8,
        8,
        8,
        8,
        16,
        16,
        24,
        24,
        24,
        22,
        41,
        42,
        88,
        90,
        88,
        88,
        94,
        116,
        116,
        121,
        189,
        197,
        233,
        243,
        289,
        349,
        352,
        358,
        414,
        572,
        697,
        829,
        891,
        943,
        1001,
        1009,
        1182,
        1274,
        1281,
        1456,
        1691,
        1908,
        2112,
        2400,
        2505,
        2686,
        2796,
        3118,
        3337,
        3594,
        3950,
        4320,
        4523,
        4641,
        5066,
        5412,
        5599,
        6181,
        6595,
        7385,
        7953,
        8422,
        9079,
        9418,
        9644
    ],
    "hit_z": [
        0,
        0,
        0,
        0,
        0,
        0,
        0,
        0,
        0,
        0,
        0,
        0,
        0,
        0,
        0,
        0,
        0,
        0,
        0,
        0,
        0,
        0,
        0,
        0,
        0,
        0,
        0,
        0,
        0,
        0,
        0,
        0,
        0,
        0,
        0,
        0,
        0,
        0,
        0,
        0,
        0,
        0,
        0,
        0,
        0,
        0,
        0,
        0,
        0,
        0,
        0,
        0,
        0,
        0,
        0,
        0,
        0,
        0,
        0,
        0,
        0,
        0,
        0,
        0,
        0,
        0,
        0,
        0,
        0,
        0,
        0,
        0,
        0,
        0,
        0,
        0,
        0,
        0,
        0,
        0,
        0,
        0,
        0,
        0,
        0,
        0,
        0,
        0,
        0,
        0,
        0,
        0,
        0,
        0,
        0,
        0,
        0,
        0,
        0,
        0,
        0
    ],
    "manifest_toml_sha256": "0bc8dd956e2d53dfc75dae382811cbae5159e33b4ab25664d941105fcfb60c81",
    "git_dirty": true,
    "experiment": "chain16",
    "overlap_raw": [
        1,
        0.9981469226820251,
        0.9925975148175246,
        0.983381152886683,
        0.9705464151031374,
        0.9541605940683188,
        0.934308974383845,
        0.9110939475089592,
        0.8846339719285373,
        0.8550624235200821,
        0.8225262811367046,
        0.7871848103402235,
        0.7492081551139921,
        0.7087761703577067,
        0.6660764346310685,
        0.621303342223731,
        0.5746566561266812,
        0.526340247302487,
        0.47656092487705065,
        0.4255273606840172,
        0.37344911676490766,
        0.3205357870064932,
        0.26699619982033884,
        0.213037766266526,
        0.158865884371641,
        0.10468354892614432,
        0.0506905858986364,
        -0.002916514052998361,
        -0.055945037565505756,
        -0.10820640247224497,
        -0.15951657973402666,
        -0.20969644739738583,
        -0.25857223636041893,
        -0.30597595039592296,
        -0.3517458944054554,
        -0.39572720811777556,
        -0.43777244904437873,
        -0.4777421996053359,
        -0.5155059925999939,
        -0.5509423687988543,
        -0.5839400727359239,
        -0.614398559414443,
        -0.6422286441661376,
        -0.6673528880483048,
        -0.689706762174835,
        -0.7092385424209969,
        -0.725909840873822,
        -0.7396958897164971,
        -0.7505857019687594,
        -0.7585821068048434,
        -0.7637016716416152,
        -0.765974448632949,
        -0.7654436551415089,
        -0.7621651926355552,
        -0.7562070569028816,
        -0.7476486201745478,
        -0.7365798955262612,
        -0.7231008901007857,
        -0.7073198413015821,
        -0.6893531728420613,
        -0.6693240486919128,
        -0.6473614499134587,
        -0.6235991065577171,
        -0.5981747235403381,
        -0.571228517331816,
        -0.542902726329478,
        -0.513340617408078,
        -0.4826857507479464,
        -0.451081229795692,
        -0.418669023078477,
        -0.3855893982426615,
        -0.35198045377818615,
        -0.31797760714795453,
        -0.28371324929798925,
        -0.24931663736892898,
        -0.2149129707273681,
        -0.18062377622928835,
        -0.14656644879110592,
        -0.11285414367616081,
        -0.07959551896072212,
        -0.04689504368731479,
        -0.01485180553547681,
        0.016439693987217237,
        0.046889954752974326,
        0.0764146418667949,
        0.10493444199472114,
        0.1323758777479428,
        0.15867077565963006,
        0.18375665454810686,
        0.20757703397397131,
        0.23008092497490332,
        0.25122347570664216,
        0.27096590243770424,
        0.2892755355665689,
        0.3061256748641184,
        0.32149553927101865,
        0.3353709907484337,
        0.34774326578349585,
        0.35860962745333413,
        0.36797298343568896,
        0.37584155181537204
    ],
    "overlap_dropped": [
        0,
        0,
        0,
        0,
        0,
        0,
        0,
        0,
        0,
        1.996962071965881e-8,
        5.9205140445069834e-8,
        1.3052869025901275e-7,
        0,
        0,
        0,
        0,
        0,
        0,
        5.95502846381227e-10,
        1.5753268463897578e-9,
        3.07022785599536e-9,
        1.739349675863872e-8,
        4.0773931142906707e-8,
        7.608520998595088e-8,
        0,
        0,
        -7.48258310651204e-10,
        -1.8885946422453483e-9,
        -3.571289533095673e-9,
        8.471631679865532e-9,
        2.1674244123143947e-8,
        3.5183787648426896e-8,
        3.350819610994548e-8,
        2.2447467166290947e-8,
        -2.098670975164262e-9,
        -4.6528454059035785e-8,
        -1.193502962722339e-7,
        1.9155110496885187e-8,
        3.8860746352180694e-8,
        7.545944863334926e-8,
        1.2066759617024764e-7,
        1.7309452974614128e-7,
        -7.413650825699717e-10,
        -1.6683979679398808e-9,
        -2.7586657334009967e-9,
        -4.0107507464345325e-9,
        -5.415322653776038e-9,
        -6.4467496771532295e-9,
        -7.400970647849752e-9,
        -8.495862544886008e-9,
        -2.24696146941633e-8,
        -4.1703985582918114e-8,
        -6.742867668543544e-8,
        -1.0127835032853977e-7,
        -1.446245952262163e-7,
        -1.7663523275640332e-7,
        6.091646238208559e-8,
        -1.3191448258370736e-8,
        -2.7310605429763072e-8,
        -5.687740187697161e-8,
        -9.327796711855946e-8,
        -1.529997950345103e-7,
        -2.209600284748492e-8,
        -1.9850134046422453e-8,
        -1.9057775458820677e-8,
        -1.9063145682367658e-8,
        -8.144928418078532e-9,
        2.9779688416473178e-9,
        -2.6544014096294575e-9,
        -2.1396245445801795e-8,
        -4.254981121096076e-8,
        -9.074396467886956e-8,
        -1.583442743760666e-7,
        -1.455651350890754e-9,
        -4.502378414740436e-8,
        -9.737410324628077e-8,
        -1.7641685055978139e-7,
        -2.5843571501806716e-7,
        -3.5311240728539374e-7,
        -6.921101649508327e-8,
        -6.884725416858619e-8,
        -7.112413471147324e-8,
        -7.6989664882561e-8,
        -8.755555973341574e-8,
        1.2845554962525698e-7,
        1.5540196502473374e-7,
        2.030677489075649e-7,
        2.527115866306528e-7,
        8.135804198700977e-8,
        6.92646727761926e-8,
        5.226744245870412e-8,
        3.4503129084014637e-8,
        -5.3003641216913065e-8,
        -7.720709061821195e-8,
        1.2164079209172693e-7,
        -7.323944953890798e-8,
        -9.420394622702477e-8,
        -1.1422200217608614e-7,
        -1.0454466429886386e-7,
        8.777993094334748e-8,
        -4.175629510548968e-8
    ],
    "rule": {
        "label": "xy8_d1em07",
        "weight_period": 1,
        "family": "xy+coeff",
        "tau_z": 0,
        "c_gate": 1.0e-16,
        "tau_xyz": 0,
        "tau_xy": 8,
        "rule_hash": "6a9efc7ab8",
        "coeff_min": 1.0e-7
    },
    "n_kept": [
        1,
        5,
        12,
        17,
        22,
        28,
        32,
        39,
        41,
        50,
        53,
        61,
        69,
        80,
        83,
        92,
        104,
        117,
        119,
        131,
        155,
        166,
        179,
        195,
        215,
        227,
        245,
        275,
        299,
        318,
        342,
        369,
        400,
        424,
        464,
        507,
        532,
        570,
        614,
        677,
        732,
        783,
        824,
        893,
        949,
        1028,
        1095,
        1167,
        1237,
        1315,
        1396,
        1509,
        1602,
        1685,
        1774,
        1881,
        1985,
        2135,
        2265,
        2395,
        2508,
        2660,
        2826,
        2981,
        3168,
        3363,
        3570,
        3794,
        4076,
        4306,
        4529,
        4785,
        5121,
        5416,
        5701,
        6022,
        6323,
        6657,
        7025,
        7365,
        7732,
        8094,
        8475,
        8892,
        9322,
        9716,
        10146,
        10564,
        11025,
        11541,
        12022,
        12608,
        13137,
        13633,
        14284,
        14986,
        15646,
        16312,
        17047,
        17751,
        18421
    ],
    "hit_xyz": [
        0,
        0,
        0,
        0,
        0,
        0,
        0,
        0,
        0,
        0,
        0,
        0,
        0,
        0,
        0,
        0,
        0,
        0,
        0,
        0,
        0,
        0,
        0,
        0,
        0,
        0,
        0,
        0,
        0,
        0,
        0,
        0,
        0,
        0,
        0,
        0,
        0,
        0,
        0,
        0,
        0,
        0,
        0,
        0,
        0,
        0,
        0,
        0,
        0,
        0,
        0,
        0,
        0,
        0,
        0,
        0,
        0,
        0,
        0,
        0,
        0,
        0,
        0,
        0,
        0,
        0,
        0,
        0,
        0,
        0,
        0,
        0,
        0,
        0,
        0,
        0,
        0,
        0,
        0,
        0,
        0,
        0,
        0,
        0,
        0,
        0,
        0,
        0,
        0,
        0,
        0,
        0,
        0,
        0,
        0,
        0,
        0,
        0,
        0,
        0,
        0
    ],
    "git_commit": "unknown",
    "n_raw": [
        1,
        5,
        42,
        50,
        96,
        98,
        98,
        98,
        125,
        173,
        220,
        226,
        228,
        228,
        312,
        312,
        350,
        392,
        491,
        506,
        526,
        660,
        698,
        705,
        709,
        871,
        950,
        1052,
        1070,
        1140,
        1222,
        1338,
        1415,
        1419,
        1576,
        1826,
        1942,
        2087,
        2154,
        2338,
        2578,
        2639,
        2787,
        3069,
        3383,
        3483,
        3694,
        3837,
        4122,
        4463,
        4899,
        5329,
        5712,
        6040,
        6376,
        6574,
        7310,
        7922,
        8574,
        8853,
        9293,
        10125,
        10859,
        11438,
        11877,
        12688,
        13545,
        14690,
        15622,
        16247,
        17041,
        17943,
        19064,
        20394,
        20935,
        22190,
        23171,
        24980,
        26409,
        27769,
        28873,
        30390,
        32154,
        33787,
        35044,
        36815,
        38671,
        41378,
        43436,
        45327,
        47118,
        49451,
        51873,
        53921,
        56046,
        60097,
        63302,
        66617,
        70343,
        72601,
        74950
    ],
    "weight_second_moment_raw": [
        1,
        1.0000029617816564,
        1.0000265588691284,
        1.0001056550820673,
        1.0002913501483999,
        1.000649578000144,
        1.0012592927855475,
        1.002210287957495,
        1.003600703017602,
        1.0055342803647678,
        1.0081174410389289,
        1.0114562527842308,
        1.015653366688534,
        1.0208049995909128,
        1.0269980384840425,
        1.0343073402729674,
        1.0427932955826922,
        1.052499718921662,
        1.063452119596908,
        1.0756563985174328,
        1.0890980056702657,
        1.1037415818455707,
        1.1195310964418257,
        1.136390481179321,
        1.1542247475775944,
        1.1729215644518234,
        1.192353260698307,
        1.2123792085736569,
        1.2328485337333723,
        1.2536030907252602,
        1.274480636578135,
        1.2953181307168942,
        1.3159550867559582,
        1.336236900823748,
        1.3560180819155063,
        1.375165312344486,
        1.393560270532433,
        1.411102154066638,
        1.4277098479682022,
        1.4433236912644103,
        1.4579068040892753,
        1.4714459473736623,
        1.483951897540431,
        1.4954593292321492,
        1.506026209762587,
        1.5157327194393244,
        1.5246797220005612,
        1.5329868188142923,
        1.5407900291904586,
        1.548239146789354,
        1.5554948286951653,
        1.5627254789955038,
        1.5701039926648104,
        1.5778044280310841,
        1.585998677162524,
        1.5948532029892746,
        1.6045259100343794,
        1.6151632122008102,
        1.6268973563062115,
        1.639844053978155,
        1.6541004674298292,
        1.669743586459572,
        1.6868290251981801,
        1.70539025763873,
        1.7254383012638774,
        1.7469618482039948,
        1.7699278336084534,
        1.7942824215813342,
        1.8199523802422781,
        1.846846809513522,
        1.8748591782088881,
        1.9038696211897734,
        1.9337474426990604,
        1.96435376872753,
        1.9955442893824353,
        2.027172031804546,
        2.059090104989459,
        2.091154360121813,
        2.1232259134430955,
        2.15517348315401,
        2.186875497327011,
        2.2182219360239923,
        2.2491158776265197,
        2.2794747266693105,
        2.309231107932581,
        2.3383334191178804,
        2.3667460418743613,
        2.3944492181562107,
        2.421438605617326,
        2.447724532092739,
        2.4733309747912453,
        2.4982942947650963,
        2.5226617614093447,
        2.546489904977113,
        2.5698427376820114,
        2.59278988546354,
        2.615404673180326,
        2.6377622059976287,
        2.65993748864182,
        2.682003622432642,
        2.7040301174890264
    ],
    "hit_multiple_weight": [
        0,
        0,
        0,
        0,
        0,
        0,
        0,
        0,
        0,
        0,
        0,
        0,
        0,
        0,
        0,
        0,
        0,
        0,
        0,
        0,
        0,
        0,
        0,
        0,
        0,
        0,
        0,
        0,
        0,
        0,
        0,
        0,
        0,
        0,
        0,
        0,
        0,
        0,
        0,
        0,
        0,
        0,
        0,
        0,
        0,
        0,
        0,
        0,
        0,
        0,
        0,
        0,
        0,
        0,
        0,
        0,
        0,
        0,
        0,
        0,
        0,
        0,
        0,
        0,
        0,
        0,
        0,
        0,
        0,
        0,
        0,
        0,
        0,
        0,
        0,
        0,
        0,
        0,
        0,
        0,
        0,
        0,
        0,
        0,
        0,
        0,
        0,
        0,
        0,
        0,
        0,
        0,
        0,
        0,
        0,
        0,
        0,
        0,
        0,
        0,
        0
    ],
    "autocorr_raw": [
        1,
        0.9981469226820251,
        0.9925960394100215,
        0.983372351948895,
        0.9705173825897254,
        0.9540889541715651,
        0.934160884096981,
        0.9108225943038378,
        0.8841786396849464,
        0.8543481579533069,
        0.8214642444295561,
        0.7856732556760422,
        0.7471340463154315,
        0.7060171437481334,
        0.662503865819945,
        0.6167853867875646,
        0.5690617571839763,
        0.5195408833976902,
        0.4684374729494504,
        0.41597195157781436,
        0.3623693583318444,
        0.3078582249163006,
        0.25266944554370996,
        0.19703514352024565,
        0.1411875407303695,
        0.08535783609062186,
        0.029775098917766578,
        -0.025334816997354744,
        -0.07975033299956781,
        -0.1332551734577501,
        -0.1856393567560744,
        -0.23670014446349222,
        -0.28624294402864603,
        -0.3340821606386608,
        -0.3800419941898829,
        -0.4239571776455977,
        -0.4656736533990925,
        -0.5050491846191623,
        -0.5419538989282657,
        -0.5762707621499157,
        -0.6078959802602902,
        -0.6367393280880654,
        -0.6627244037244814,
        -0.6857888080308061,
        -0.7058842490605798,
        -0.7229765716469432,
        -0.737045712838413,
        -0.7480855842968254,
        -0.756103883195823,
        -0.7611218335740211,
        -0.7631738605005434,
        -0.7623071997986156,
        -0.7585814464419529,
        -0.7520680450854753,
        -0.7428497265132405,
        -0.7310198940793979,
        -0.7166819644797069,
        -0.6999486674192986,
        -0.6809413089348508,
        -0.6597890032845359,
        -0.6366278784358302,
        -0.6116002602588126,
        -0.5848538405707306,
        -0.5565408341766424,
        -0.5268171300116292,
        -0.4958414414136415,
        -0.4637744604441519,
        -0.43077802102851814,
        -0.3970142755116935,
        -0.3626448890203685,
        -0.32783025579271363,
        -0.2927287413847042,
        -0.25749595439075446,
        -0.22228405102929882,
        -0.18724107564426792,
        -0.15251033986425142,
        -0.11822984284555407,
        -0.08453173470618733,
        -0.051541824937755325,
        -0.01937913726361836,
        0.01184448790316792,
        0.04202474255790828,
        0.07106515121606946,
        0.09887732178985004,
        0.12538114726391697,
        0.1505049584772176,
        0.17418562857864178,
        0.196368629972916,
        0.21700804480898003,
        0.23606653028585295,
        0.2535152402603378,
        0.2693337048365977,
        0.2835096697994284,
        0.29603889792073906,
        0.30692493432209583,
        0.31617883821493364,
        0.32381888346391524,
        0.32987023052760944,
        0.33436457242384393,
        0.3373397574444223,
        0.33883939140504404
    ],
    "complete": true,
    "schema_version": "pds-ppml-v3.0",
    "hit_xy": [
        0,
        0,
        0,
        0,
        0,
        0,
        0,
        0,
        0,
        0,
        0,
        0,
        0,
        0,
        0,
        0,
        0,
        0,
        0,
        0,
        0,
        0,
        0,
        0,
        0,
        0,
        0,
        0,
        0,
        0,
        0,
        0,
        0,
        0,
        0,
        8,
        8,
        8,
        8,
        8,
        16,
        16,
        24,
        24,
        24,
        24,
        43,
        44,
        90,
        92,
        92,
        92,
        100,
        126,
        126,
        134,
        202,
        212,
        250,
        262,
        308,
        370,
        376,
        384,
        440,
        600,
        726,
        862,
        930,
        992,
        1064,
        1074,
        1257,
        1359,
        1383,
        1571,
        1828,
        2069,
        2293,
        2602,
        2715,
        2913,
        3059,
        3413,
        3658,
        3949,
        4327,
        4721,
        4946,
        5096,
        5560,
        5933,
        6152,
        6770,
        7234,
        8055,
        8651,
        9180,
        9895,
        10286,
        10583
    ],
    "project_toml_sha256": "0f476d319d0bc551a77a410c1947451ebb8d68d98f047a4d3a348358de256696"
}