{
    "created_at": "2026-06-11T01:11:51.731",
    "n_complete": 100,
    "drop_coeff_only": [
        0,
        5,
        1534,
        3563,
        3540,
        12830,
        18684,
        21918,
        26560,
        53740,
        60716,
        78639,
        115895,
        130434,
        168168,
        218575,
        296319,
        354277,
        419076,
        598185,
        725259,
        931603,
        1170579,
        1319014,
        1615640,
        2045278,
        2342730,
        2957391,
        3544613,
        4024510,
        4959756,
        5957145,
        6943217,
        7996733,
        9402224,
        11145466,
        13163764,
        15304626,
        17603779,
        20282264,
        23332451,
        26979294,
        30804862,
        35300052,
        40573668,
        45904474,
        51685996,
        58059101,
        64956682,
        72260202,
        80454392,
        89006740,
        98406888,
        109038269,
        119898673,
        131422512,
        143153481,
        155262737,
        167715443,
        181516721,
        196389774,
        213041829,
        230842141,
        249254418,
        268123313,
        287391507,
        306096683,
        325469561,
        346056965,
        367117712,
        389112525,
        410840813,
        432311463,
        453790294,
        475143162,
        496166076,
        516751304,
        537042199,
        557076287,
        576590475,
        595476304,
        613758008,
        631298058,
        647954782,
        664299291,
        680171037,
        695145851,
        709519599,
        723445934,
        736898953,
        750025436,
        762672086,
        774759636,
        786322664,
        797480590,
        808094580,
        818409185,
        827864767,
        836353713,
        844262365,
        851519530
    ],
    "system": {
        "dt": 0.01,
        "P0_coeff": 1,
        "h": 3.04438,
        "P0_term_hex": "c00",
        "name": "rect4x4",
        "topology_repr": "[(1, 5), (1, 2), (2, 6), (2, 3), (3, 7), (3, 4), (4, 8), (5, 9), (5, 6), (6, 10), (6, 7), (7, 11), (7, 8), (8, 12), (9, 13), (9, 10), (10, 14), (10, 11), (11, 15), (11, 12), (12, 16), (13, 14), (14, 15), (15, 16)]",
        "P0_nqubits": 16,
        "n_layers": 100,
        "g": 0,
        "n_qubits": 16,
        "J": 1
    },
    "julia_version": "1.12.6",
    "n_dropped": [
        0,
        5,
        1534,
        3563,
        3540,
        12830,
        18684,
        21918,
        26560,
        53740,
        60716,
        78639,
        115895,
        130434,
        168168,
        218575,
        296319,
        354277,
        419076,
        598185,
        725259,
        931603,
        1170579,
        1319014,
        1615640,
        2045278,
        2342730,
        2957391,
        3544613,
        4024510,
        4959756,
        5957145,
        6943217,
        7996733,
        9402224,
        11145466,
        13163764,
        15304626,
        17603779,
        20282264,
        23332451,
        26979294,
        30804862,
        35300052,
        40573668,
        45904474,
        51685996,
        58059101,
        64956682,
        72260202,
        80454392,
        89006740,
        98406888,
        109038269,
        119898673,
        131422512,
        143153481,
        155262737,
        167715443,
        181516721,
        196389774,
        213041829,
        230842141,
        249254418,
        268123313,
        287391507,
        306096683,
        325469561,
        346056965,
        367117712,
        389112525,
        410840813,
        432311463,
        453790294,
        475143162,
        496166076,
        516751304,
        537042199,
        557076287,
        576590475,
        595476304,
        613758008,
        631298058,
        647954782,
        664299291,
        680171037,
        695145851,
        709519599,
        723445934,
        736898953,
        750025436,
        762672086,
        774759636,
        786322664,
        797480590,
        808094580,
        818409185,
        827864767,
        836353713,
        844262365,
        851519530
    ],
    "overlap_kept": [
        1,
        0.9981469226820251,
        0.9926063686130848,
        0.9834339572470789,
        0.9707211138391487,
        0.9545913488737655,
        0.9351986293397992,
        0.9127218351144957,
        0.8873627086252694,
        0.8593392564217749,
        0.8288815005217847,
        0.796226104867444,
        0.7616116280232192,
        0.7252739753698744,
        0.6874423443197621,
        0.6483750523804657,
        0.608260702772837,
        0.5673234554549015,
        0.5257254435968107,
        0.48363143141155757,
        0.4411917267397578,
        0.39853962445818736,
        0.3557954130405251,
        0.31306610084134096,
        0.2704482598587569,
        0.2280295095147766,
        0.18588968963940833,
        0.14410115050968045,
        0.10274926953315054,
        0.06190067409044343,
        0.021629016239316654,
        -0.018001702212696966,
        -0.05694431883384811,
        -0.09513649713882892,
        -0.1324990425534849,
        -0.16897618324336358,
        -0.20450101724974049,
        -0.23899459675417267,
        -0.27236915075993406,
        -0.30454487335002706,
        -0.3354571534572144,
        -0.36503084340458825,
        -0.3931926504849702,
        -0.4198841273357962,
        -0.4450305370816064,
        -0.46854977094260974,
        -0.49041499237736624,
        -0.5105757079991458,
        -0.5289786409099632,
        -0.5456108339390575,
        -0.5604382954470374,
        -0.5734410757014375,
        -0.5846047190506889,
        -0.5939051904839148,
        -0.6013135200975258,
        -0.606801316038758,
        -0.6103656257088782,
        -0.6119923673441976,
        -0.6116818421929695,
        -0.6094378123837162,
        -0.6052590905432131,
        -0.5991927452486747,
        -0.5912627009112602,
        -0.581484482376308,
        -0.5698910446357504,
        -0.5565364251581982,
        -0.5414760240398068,
        -0.5247378425109297,
        -0.5063679662556987,
        -0.4864269439724103,
        -0.4649479440655675,
        -0.44201742743684214,
        -0.4177466488826625,
        -0.39223804982520083,
        -0.3656054023339532,
        -0.33793574069114996,
        -0.3093534562479685,
        -0.2799664751263296,
        -0.24990535898194474,
        -0.21927381583503544,
        -0.18817139000835215,
        -0.1567020373580648,
        -0.12496804502282131,
        -0.09307592085440641,
        -0.06114786151422263,
        -0.029336065506036468,
        0.0022749102479207414,
        0.03357559185838925,
        0.06445854739485907,
        0.09477914341824496,
        0.12441695756463127,
        0.15323330844534014,
        0.18110582039441447,
        0.2079336048623414,
        0.23362164417898323,
        0.25813826591512434,
        0.2814082329071942,
        0.30342522510756503,
        0.3241991601270241,
        0.3436679575894856,
        0.36178113843943094
    ],
    "hit_any_weight": [
        0,
        0,
        0,
        0,
        0,
        0,
        0,
        0,
        0,
        0,
        0,
        0,
        0,
        0,
        0,
        0,
        0,
        0,
        0,
        0,
        0,
        0,
        0,
        0,
        0,
        0,
        0,
        0,
        0,
        0,
        0,
        0,
        0,
        0,
        0,
        0,
        0,
        0,
        0,
        0,
        0,
        0,
        0,
        0,
        0,
        0,
        0,
        0,
        0,
        0,
        0,
        0,
        0,
        0,
        0,
        0,
        0,
        0,
        0,
        0,
        0,
        0,
        0,
        0,
        0,
        0,
        0,
        0,
        0,
        0,
        0,
        0,
        0,
        0,
        0,
        0,
        0,
        0,
        0,
        0,
        0,
        0,
        0,
        0,
        0,
        0,
        0,
        0,
        0,
        0,
        0,
        0,
        0,
        0,
        0,
        0,
        0,
        0,
        0,
        0,
        0
    ],
    "drop_weight_only": [
        0,
        0,
        0,
        0,
        0,
        0,
        0,
        0,
        0,
        0,
        0,
        0,
        0,
        0,
        0,
        0,
        0,
        0,
        0,
        0,
        0,
        0,
        0,
        0,
        0,
        0,
        0,
        0,
        0,
        0,
        0,
        0,
        0,
        0,
        0,
        0,
        0,
        0,
        0,
        0,
        0,
        0,
        0,
        0,
        0,
        0,
        0,
        0,
        0,
        0,
        0,
        0,
        0,
        0,
        0,
        0,
        0,
        0,
        0,
        0,
        0,
        0,
        0,
        0,
        0,
        0,
        0,
        0,
        0,
        0,
        0,
        0,
        0,
        0,
        0,
        0,
        0,
        0,
        0,
        0,
        0,
        0,
        0,
        0,
        0,
        0,
        0,
        0,
        0,
        0,
        0,
        0,
        0,
        0,
        0,
        0,
        0,
        0,
        0,
        0,
        0
    ],
    "hit_coeff": [
        0,
        5,
        1534,
        3563,
        3540,
        12830,
        18684,
        21918,
        26560,
        53740,
        60716,
        78639,
        115895,
        130434,
        168168,
        218575,
        296319,
        354277,
        419076,
        598185,
        725259,
        931603,
        1170579,
        1319014,
        1615640,
        2045278,
        2342730,
        2957391,
        3544613,
        4024510,
        4959756,
        5957145,
        6943217,
        7996733,
        9402224,
        11145466,
        13163764,
        15304626,
        17603779,
        20282264,
        23332451,
        26979294,
        30804862,
        35300052,
        40573668,
        45904474,
        51685996,
        58059101,
        64956682,
        72260202,
        80454392,
        89006740,
        98406888,
        109038269,
        119898673,
        131422512,
        143153481,
        155262737,
        167715443,
        181516721,
        196389774,
        213041829,
        230842141,
        249254418,
        268123313,
        287391507,
        306096683,
        325469561,
        346056965,
        367117712,
        389112525,
        410840813,
        432311463,
        453790294,
        475143162,
        496166076,
        516751304,
        537042199,
        557076287,
        576590475,
        595476304,
        613758008,
        631298058,
        647954782,
        664299291,
        680171037,
        695145851,
        709519599,
        723445934,
        736898953,
        750025436,
        762672086,
        774759636,
        786322664,
        797480590,
        808094580,
        818409185,
        827864767,
        836353713,
        844262365,
        851519530
    ],
    "drop_coeff_and_weight": [
        0,
        0,
        0,
        0,
        0,
        0,
        0,
        0,
        0,
        0,
        0,
        0,
        0,
        0,
        0,
        0,
        0,
        0,
        0,
        0,
        0,
        0,
        0,
        0,
        0,
        0,
        0,
        0,
        0,
        0,
        0,
        0,
        0,
        0,
        0,
        0,
        0,
        0,
        0,
        0,
        0,
        0,
        0,
        0,
        0,
        0,
        0,
        0,
        0,
        0,
        0,
        0,
        0,
        0,
        0,
        0,
        0,
        0,
        0,
        0,
        0,
        0,
        0,
        0,
        0,
        0,
        0,
        0,
        0,
        0,
        0,
        0,
        0,
        0,
        0,
        0,
        0,
        0,
        0,
        0,
        0,
        0,
        0,
        0,
        0,
        0,
        0,
        0,
        0,
        0,
        0,
        0,
        0,
        0,
        0,
        0,
        0,
        0,
        0,
        0,
        0
    ],
    "hit_z": [
        0,
        0,
        0,
        0,
        0,
        0,
        0,
        0,
        0,
        0,
        0,
        0,
        0,
        0,
        0,
        0,
        0,
        0,
        0,
        0,
        0,
        0,
        0,
        0,
        0,
        0,
        0,
        0,
        0,
        0,
        0,
        0,
        0,
        0,
        0,
        0,
        0,
        0,
        0,
        0,
        0,
        0,
        0,
        0,
        0,
        0,
        0,
        0,
        0,
        0,
        0,
        0,
        0,
        0,
        0,
        0,
        0,
        0,
        0,
        0,
        0,
        0,
        0,
        0,
        0,
        0,
        0,
        0,
        0,
        0,
        0,
        0,
        0,
        0,
        0,
        0,
        0,
        0,
        0,
        0,
        0,
        0,
        0,
        0,
        0,
        0,
        0,
        0,
        0,
        0,
        0,
        0,
        0,
        0,
        0,
        0,
        0,
        0,
        0,
        0,
        0
    ],
    "manifest_toml_sha256": "0bc8dd956e2d53dfc75dae382811cbae5159e33b4ab25664d941105fcfb60c81",
    "git_dirty": true,
    "experiment": "rect4x4",
    "overlap_raw": [
        1,
        0.9981469226820251,
        0.9926063686130848,
        0.9834339572470789,
        0.9707211138391487,
        0.9545912035546507,
        0.9351981333626517,
        0.9127218351144957,
        0.8873627086252694,
        0.8593393847239776,
        0.8288818549653727,
        0.7962268254660323,
        0.7616173500793668,
        0.7252893154580734,
        0.6874723558330181,
        0.6483869144597768,
        0.6082793762099867,
        0.5673238543696747,
        0.5257265373481899,
        0.483632293180607,
        0.44119221606046577,
        0.3985394262927307,
        0.35579403994805664,
        0.31306414596474574,
        0.2704455673230478,
        0.22802762435270096,
        0.1858920012736385,
        0.14411438588776654,
        0.1027612912343438,
        0.061913314247437366,
        0.021637987173955604,
        -0.01799715104615901,
        -0.05693012596141127,
        -0.0951156473100142,
        -0.13248353834876897,
        -0.1689531215163151,
        -0.20446624674195427,
        -0.2389517923850547,
        -0.2723315800145204,
        -0.3045156677483057,
        -0.33542446859469993,
        -0.3649936186528616,
        -0.3931503935528122,
        -0.4198231688153076,
        -0.4449599306261608,
        -0.46849153414773786,
        -0.49034487585572245,
        -0.5104984412622414,
        -0.528913289651172,
        -0.5455414974783137,
        -0.5603770704491977,
        -0.5733818938488535,
        -0.5845372826820368,
        -0.5938309973004772,
        -0.6012346874201305,
        -0.6067236368159085,
        -0.6102791018706731,
        -0.6119018980019928,
        -0.6115933879514205,
        -0.609359184071255,
        -0.6052136300067809,
        -0.5991642908248083,
        -0.5912561422628629,
        -0.5815164268296159,
        -0.5699608942656417,
        -0.5566221751319979,
        -0.5415529517198254,
        -0.5248102911249574,
        -0.5064300619969673,
        -0.4864717412925957,
        -0.4650083290100141,
        -0.44209267641150435,
        -0.41781963220718554,
        -0.3923110820947476,
        -0.3656747925391424,
        -0.3380290222789355,
        -0.3094563821475753,
        -0.2800805832337491,
        -0.25000661774229116,
        -0.21936420698690262,
        -0.18826242468560983,
        -0.1568001139906198,
        -0.125078556650768,
        -0.09320075920228849,
        -0.06126616052715872,
        -0.029403402193194896,
        0.002229087084617423,
        0.033536989300287784,
        0.0644100711255479,
        0.09473084805603811,
        0.12435858310445709,
        0.15317115592688996,
        0.1810465118483395,
        0.20788011465809145,
        0.23358773131419672,
        0.2581006435184689,
        0.2814034199755669,
        0.30343442971001844,
        0.3241826346072389,
        0.34364241497286396,
        0.36173745115319444
    ],
    "overlap_dropped": [
        0,
        0,
        0,
        0,
        0,
        -1.4531911484411986e-7,
        -4.959771476037741e-7,
        0,
        0,
        1.283022027510971e-7,
        3.5444358805525633e-7,
        7.20598588196984e-7,
        5.722056147619777e-6,
        1.5340088199063398e-5,
        3.0011513256023248e-5,
        1.1862079311162185e-5,
        1.867343714973036e-5,
        3.9891477321128815e-7,
        1.0937513791293707e-6,
        8.61769049449199e-7,
        4.893207079346367e-7,
        -1.9816545666510744e-7,
        -1.3730924684592323e-6,
        -1.954876595195159e-6,
        -2.6925357091325216e-6,
        -1.8851620756486847e-6,
        2.311634230176451e-6,
        1.323537808608019e-5,
        1.202170119325802e-5,
        1.2640156993931445e-5,
        8.970934638950415e-6,
        4.551166537955969e-6,
        1.4192872436839066e-5,
        2.0849828814720932e-5,
        1.5504204715935633e-5,
        2.306172704845669e-5,
        3.4770507786231954e-5,
        4.280436911797494e-5,
        3.757074541368398e-5,
        2.9205601721365394e-5,
        3.268486251446433e-5,
        3.7224751726631946e-5,
        4.2256932157994575e-5,
        6.095852048859821e-5,
        7.060645544558342e-5,
        5.823679487186162e-5,
        7.011652164379723e-5,
        7.72667369042914e-5,
        6.535125879111947e-5,
        6.933646074378457e-5,
        6.122499783968003e-5,
        5.9181852584002165e-5,
        6.743636865214148e-5,
        7.419318343764939e-5,
        7.883267739529209e-5,
        7.767922284947985e-5,
        8.652383820502181e-5,
        9.046934220481878e-5,
        8.8454241548993e-5,
        7.862831246114616e-5,
        4.5460536432255734e-5,
        2.8454423866447633e-5,
        6.558648397258347e-6,
        -3.1944453307926465e-5,
        -6.98496298912989e-5,
        -8.574997379961691e-5,
        -7.692768001862084e-5,
        -7.244861402765016e-5,
        -6.20957412686208e-5,
        -4.479732018533962e-5,
        -6.038494444661278e-5,
        -7.52489746621928e-5,
        -7.298332452302267e-5,
        -7.303226954677378e-5,
        -6.939020518919467e-5,
        -9.328158778556401e-5,
        -0.00010292589960682313,
        -0.00011410810741953961,
        -0.00010125876034640403,
        -9.03911518671792e-5,
        -9.103467725769132e-5,
        -9.807663255499759e-5,
        -0.00011051162794668167,
        -0.00012483834788207764,
        -0.00011829901293608973,
        -6.73366871584285e-5,
        -4.58231633033185e-5,
        -3.86025581014684e-5,
        -4.8476269311159366e-5,
        -4.829536220684505e-5,
        -5.837446017418191e-5,
        -6.215251845017507e-5,
        -5.930854607497502e-5,
        -5.3490204249933886e-5,
        -3.391286478652857e-5,
        -3.762239665543856e-5,
        -4.812931627279497e-6,
        9.204602453390628e-6,
        -1.6525519785184907e-5,
        -2.554261662163567e-5,
        -4.368728623651984e-5
    ],
    "rule": {
        "label": "coeff_d1em06",
        "weight_period": 1,
        "family": "coeff",
        "tau_z": 0,
        "c_gate": 1.0e-16,
        "tau_xyz": 0,
        "tau_xy": 0,
        "rule_hash": "7f7f8ca4e3",
        "coeff_min": 1.0e-6
    },
    "n_kept": [
        1,
        12,
        48,
        48,
        109,
        133,
        149,
        252,
        332,
        448,
        566,
        795,
        952,
        1221,
        1534,
        2060,
        2588,
        3431,
        4123,
        5057,
        6494,
        8027,
        9745,
        12264,
        15525,
        18812,
        23147,
        27693,
        34127,
        41388,
        49759,
        59446,
        70062,
        83451,
        99961,
        114937,
        135192,
        158406,
        183216,
        213639,
        247488,
        287726,
        333654,
        383898,
        446658,
        516625,
        596965,
        689286,
        785435,
        896468,
        1018741,
        1159266,
        1312225,
        1480279,
        1661329,
        1857069,
        2074080,
        2302643,
        2548909,
        2820059,
        3113018,
        3424996,
        3767228,
        4137421,
        4541537,
        4982445,
        5468581,
        6002586,
        6576990,
        7208432,
        7897088,
        8648696,
        9460347,
        10333969,
        11273493,
        12273699,
        13337345,
        14466952,
        15660462,
        16907567,
        18220807,
        19596284,
        21032007,
        22531746,
        24096938,
        25726240,
        27425017,
        29202348,
        31061934,
        33005127,
        35053548,
        37207563,
        39472751,
        41866331,
        44390333,
        47056405,
        49870031,
        52831043,
        55934585,
        59192776,
        62583354
    ],
    "hit_xyz": [
        0,
        0,
        0,
        0,
        0,
        0,
        0,
        0,
        0,
        0,
        0,
        0,
        0,
        0,
        0,
        0,
        0,
        0,
        0,
        0,
        0,
        0,
        0,
        0,
        0,
        0,
        0,
        0,
        0,
        0,
        0,
        0,
        0,
        0,
        0,
        0,
        0,
        0,
        0,
        0,
        0,
        0,
        0,
        0,
        0,
        0,
        0,
        0,
        0,
        0,
        0,
        0,
        0,
        0,
        0,
        0,
        0,
        0,
        0,
        0,
        0,
        0,
        0,
        0,
        0,
        0,
        0,
        0,
        0,
        0,
        0,
        0,
        0,
        0,
        0,
        0,
        0,
        0,
        0,
        0,
        0,
        0,
        0,
        0,
        0,
        0,
        0,
        0,
        0,
        0,
        0,
        0,
        0,
        0,
        0,
        0,
        0,
        0,
        0,
        0,
        0
    ],
    "git_commit": "unknown",
    "n_raw": [
        1,
        17,
        1582,
        3611,
        3649,
        12963,
        18833,
        22170,
        26892,
        54188,
        61282,
        79434,
        116847,
        131655,
        169702,
        220635,
        298907,
        357708,
        423199,
        603242,
        731753,
        939630,
        1180324,
        1331278,
        1631165,
        2064090,
        2365877,
        2985084,
        3578740,
        4065898,
        5009515,
        6016591,
        7013279,
        8080184,
        9502185,
        11260403,
        13298956,
        15463032,
        17786995,
        20495903,
        23579939,
        27267020,
        31138516,
        35683950,
        41020326,
        46421099,
        52282961,
        58748387,
        65742117,
        73156670,
        81473133,
        90166006,
        99719113,
        110518548,
        121560002,
        133279581,
        145227561,
        157565380,
        170264352,
        184336780,
        199502792,
        216466825,
        234609369,
        253391839,
        272664850,
        292373952,
        311565264,
        331472147,
        352633955,
        374326144,
        397009613,
        419489509,
        441771810,
        464124263,
        486416655,
        508439775,
        530088649,
        551509151,
        572736749,
        593498042,
        613697111,
        633354292,
        652330065,
        670486528,
        688396229,
        705897277,
        722570868,
        738721947,
        754507868,
        769904080,
        785078984,
        799879649,
        814232387,
        828188995,
        841870923,
        855150985,
        868279216,
        880695810,
        892288298,
        903455141,
        914102884
    ],
    "weight_second_moment_raw": [
        1,
        1.000005923563313,
        1.0000531083219162,
        1.000211217129941,
        1.0005822420691783,
        1.0012975826616064,
        1.00251428057138,
        1.0044105196958761,
        1.007180519763086,
        1.0110289661074556,
        1.0161651363999524,
        1.022796887274314,
        1.0311246714072144,
        1.0413357463670565,
        1.0535987420332829,
        1.0680587277867588,
        1.0848329139117898,
        1.1040070994416649,
        1.1256329600436714,
        1.1497262322727135,
        1.1762658452645274,
        1.205194008532793,
        1.236417229033951,
        1.2698082370668402,
        1.305208755826766,
        1.3424330037516232,
        1.3812718505314232,
        1.4214975198618653,
        1.4628686564656694,
        1.5051356941480847,
        1.5480463103393651,
        1.591350870461445,
        1.6348077254900686,
        1.6781882186939983,
        1.721281309191759,
        1.763897674972831,
        1.8058731872633402,
        1.847071842293642,
        1.8873878738652985,
        1.9267471425891867,
        1.965107856442203,
        2.0024604040745655,
        2.038826578404805,
        2.0742580732121287,
        2.1088343060189945,
        2.142659850388602,
        2.175861146047708,
        2.20858300250656,
        2.2409847540554666,
        2.2732360743747235,
        2.305513033417499,
        2.3379937815893523,
        2.370854622901255,
        2.4042660361477988,
        2.438389134168378,
        2.4733724071777927,
        2.509348906258437,
        2.546433996333988,
        2.584723324088531,
        2.624291642861351,
        2.665192119727865,
        2.7074560262948295,
        2.7510930548793464,
        2.7960922904944856,
        2.8424233787052766,
        2.8900383439528814,
        2.9388736690991153,
        2.988852746452772,
        3.0398884314322245,
        3.0918856918264512,
        3.144744633255894,
        3.1983631919488773,
        3.2526398376790167,
        3.3074760839928325,
        3.362778807575785,
        3.4184622538228036,
        3.474449659089759,
        3.530674559087033,
        3.5870817911045587,
        3.6436279405113017,
        3.7002813576745135,
        3.757022102139481,
        3.8138411762197095,
        3.8707395846513735,
        3.9277271618966263,
        3.9848210525319048,
        4.042044065763229,
        4.099422968239302,
        4.156986724228679,
        4.214764623709773,
        4.272784550239009,
        4.331071507291909,
        4.389646040955852,
        4.448522902611768,
        4.5077101842474825,
        4.5672084783181655,
        4.627010422318947,
        4.687100437626319,
        4.747454732411134,
        4.80804157899462,
        4.868822007859325
    ],
    "hit_multiple_weight": [
        0,
        0,
        0,
        0,
        0,
        0,
        0,
        0,
        0,
        0,
        0,
        0,
        0,
        0,
        0,
        0,
        0,
        0,
        0,
        0,
        0,
        0,
        0,
        0,
        0,
        0,
        0,
        0,
        0,
        0,
        0,
        0,
        0,
        0,
        0,
        0,
        0,
        0,
        0,
        0,
        0,
        0,
        0,
        0,
        0,
        0,
        0,
        0,
        0,
        0,
        0,
        0,
        0,
        0,
        0,
        0,
        0,
        0,
        0,
        0,
        0,
        0,
        0,
        0,
        0,
        0,
        0,
        0,
        0,
        0,
        0,
        0,
        0,
        0,
        0,
        0,
        0,
        0,
        0,
        0,
        0,
        0,
        0,
        0,
        0,
        0,
        0,
        0,
        0,
        0,
        0,
        0,
        0,
        0,
        0,
        0,
        0,
        0,
        0,
        0,
        0
    ],
    "autocorr_raw": [
        1,
        0.9981469226820251,
        0.9925975197085724,
        0.9833812078402309,
        0.9705467818239563,
        0.9541620672282624,
        0.9343134395860204,
        0.9111052148881429,
        0.8846589177508679,
        0.8551124347457388,
        0.8226190614118359,
        0.7873464523537081,
        0.7494754845555351,
        0.7091990446071411,
        0.6667207509403508,
        0.622253622418484,
        0.5760187047151061,
        0.5282436658713665,
        0.47916137224792527,
        0.4290084558030432,
        0.37802388324961667,
        0.32644753718786707,
        0.27451881879391477,
        0.2224752810834936,
        0.17055130117906192,
        0.11897679940007697,
        0.06797601238056455,
        0.017766326803272454,
        -0.03144282026882349,
        -0.07945096908189492,
        -0.12606758810816043,
        -0.17111294397550178,
        -0.2144188867658483,
        -0.2558295476047112,
        -0.2952019460297414,
        -0.33240650519459747,
        -0.3673274735391232,
        -0.39986325214044965,
        -0.42992662755364786,
        -0.4574449105550858,
        -0.4823599818152848,
        -0.5046282461478133,
        -0.5242204976020207,
        -0.5411216982841662,
        -0.5553306743964581,
        -0.5668597335684282,
        -0.5757342081110406,
        -0.581991929341787,
        -0.5856826385997113,
        -0.586867340984248,
        -0.5856176082032413,
        -0.5820148371969798,
        -0.5761494714114275,
        -0.5681201917215786,
        -0.5580330840533128,
        -0.5460007907194017,
        -0.5321416523743467,
        -0.5165788473071528,
        -0.4994395345361623,
        -0.48085400685224017,
        -0.46095485958354854,
        -0.4398761804353612,
        -0.4177527653008142,
        -0.3947193644524123,
        -0.3709099630186827,
        -0.3464570991344632,
        -0.32149122263528646,
        -0.2961400966538011,
        -0.2705282439759355,
        -0.24477643953237418,
        -0.21900124994169362,
        -0.19331462058898072,
        -0.1678235103207268,
        -0.14262957346511398,
        -0.11782888854750265,
        -0.09351173276426336,
        -0.0697624010037385,
        -0.04665906796023454,
        -0.02427369167435493,
        -0.0026719566492577063,
        0.01808674546398716,
        0.03794929974944296,
        0.0568688187217421,
        0.07480456216164025,
        0.09172182848172362,
        0.10759182005435308,
        0.12239148495675337,
        0.13610333759267723,
        0.14871526063712634,
        0.16022029072098046,
        0.17061639022685673,
        0.1799062075069059,
        0.18809682775843517,
        0.19519951670521185,
        0.20122945913214665,
        0.2062054942100095,
        0.2101498494262591,
        0.2130878748094567,
        0.21504777899968716,
        0.2160603685776176,
        0.21615879192203769
    ],
    "complete": true,
    "schema_version": "pds-ppml-v3.0",
    "hit_xy": [
        0,
        0,
        0,
        0,
        0,
        0,
        0,
        0,
        0,
        0,
        0,
        0,
        0,
        0,
        0,
        0,
        0,
        0,
        0,
        0,
        0,
        0,
        0,
        0,
        0,
        0,
        0,
        0,
        0,
        0,
        0,
        0,
        0,
        0,
        0,
        0,
        0,
        0,
        0,
        0,
        0,
        0,
        0,
        0,
        0,
        0,
        0,
        0,
        0,
        0,
        0,
        0,
        0,
        0,
        0,
        0,
        0,
        0,
        0,
        0,
        0,
        0,
        0,
        0,
        0,
        0,
        0,
        0,
        0,
        0,
        0,
        0,
        0,
        0,
        0,
        0,
        0,
        0,
        0,
        0,
        0,
        0,
        0,
        0,
        0,
        0,
        0,
        0,
        0,
        0,
        0,
        0,
        0,
        0,
        0,
        0,
        0,
        0,
        0,
        0,
        0
    ],
    "project_toml_sha256": "0f476d319d0bc551a77a410c1947451ebb8d68d98f047a4d3a348358de256696"
}