{
    "created_at": "2026-06-10T23:25:05.677",
    "n_complete": 100,
    "drop_coeff_only": [
        0,
        0,
        25,
        66,
        60,
        57,
        102,
        120,
        120,
        112,
        103,
        155,
        145,
        168,
        210,
        225,
        216,
        263,
        253,
        252,
        234,
        266,
        285,
        267,
        256,
        288,
        276,
        268,
        254,
        330,
        404,
        430,
        455,
        462,
        472,
        474,
        452,
        444,
        408,
        407,
        445,
        437,
        436,
        411,
        603,
        709,
        708,
        679,
        666,
        736,
        798,
        798,
        804,
        810,
        784,
        759,
        736,
        719,
        703,
        673,
        652,
        617,
        662,
        650,
        810,
        924,
        955,
        953,
        970,
        962,
        943,
        994,
        968,
        931,
        913,
        873,
        935,
        965,
        939,
        957,
        947,
        925,
        929,
        1030,
        1083,
        1133,
        1092,
        1117,
        1165,
        1180,
        1308,
        1404,
        1513,
        1530,
        1506,
        1442,
        1531,
        1513,
        1515,
        1532,
        1524
    ],
    "system": {
        "dt": 0.01,
        "P0_coeff": 1,
        "h": 3.04438,
        "P0_term_hex": "c000",
        "name": "chain16",
        "topology_repr": "[(1, 2), (2, 3), (3, 4), (4, 5), (5, 6), (6, 7), (7, 8), (8, 9), (9, 10), (10, 11), (11, 12), (12, 13), (13, 14), (14, 15), (15, 16), (16, 1)]",
        "P0_nqubits": 16,
        "n_layers": 100,
        "g": 0,
        "n_qubits": 16,
        "J": 1
    },
    "julia_version": "1.12.6",
    "n_dropped": [
        0,
        0,
        25,
        70,
        64,
        65,
        116,
        152,
        154,
        154,
        146,
        212,
        204,
        239,
        302,
        322,
        314,
        445,
        435,
        466,
        450,
        484,
        567,
        549,
        538,
        594,
        582,
        578,
        564,
        734,
        841,
        935,
        1066,
        1111,
        1235,
        1284,
        1284,
        1288,
        1288,
        1299,
        1361,
        1365,
        1422,
        1405,
        1801,
        2123,
        2180,
        2213,
        2212,
        2443,
        2778,
        2996,
        3083,
        3128,
        3152,
        3141,
        3150,
        3253,
        3261,
        3230,
        3212,
        3188,
        3368,
        3405,
        4189,
        4651,
        4806,
        5067,
        5236,
        5312,
        5589,
        6010,
        6062,
        6091,
        6137,
        6123,
        6417,
        6471,
        6479,
        6595,
        6635,
        6665,
        6757,
        6970,
        7187,
        7635,
        7637,
        7895,
        8374,
        8568,
        9210,
        9752,
        10588,
        10847,
        11497,
        11517,
        12204,
        12279,
        12556,
        12822,
        12886
    ],
    "overlap_kept": [
        1,
        0.9981469226820251,
        0.9925975148175246,
        0.9833811420055051,
        0.9705463939665037,
        0.9541605639854637,
        0.9343089374058458,
        0.9110939059299997,
        0.8846339281725231,
        0.8550623937807759,
        0.8225262868308213,
        0.7871848890947739,
        0.749208371416658,
        0.7087763804602134,
        0.6660766293074408,
        0.6213035195087178,
        0.5746568154054693,
        0.5263403890850963,
        0.4765610503440792,
        0.425527483211955,
        0.3734492477284428,
        0.32053593060995367,
        0.26699636894819184,
        0.2130379776675914,
        0.15886616157627095,
        0.10468379962346529,
        0.05069078884868201,
        -0.0029163462466026933,
        -0.05594489854654541,
        -0.10820629616854899,
        -0.15951649587574096,
        -0.2096963759872061,
        -0.2585721571588189,
        -0.30597585934949334,
        -0.35174580041295456,
        -0.3957271384343818,
        -0.4377724305108848,
        -0.47774231737133527,
        -0.515506125874807,
        -0.5509425525919825,
        -0.5839403407890136,
        -0.6143989502548007,
        -0.6422292013508235,
        -0.6673538769722686,
        -0.689708265501949,
        -0.7092406284597461,
        -0.7259125776760134,
        -0.7396993699432739,
        -0.7505900128264366,
        -0.7585873349446334,
        -0.763707908696444,
        -0.7659818017112872,
        -0.7654522336271918,
        -0.762175100400669,
        -0.7562183817306607,
        -0.7476614420313992,
        -0.7365942696766041,
        -0.7231165246079888,
        -0.7073366702368434,
        -0.6893709769621787,
        -0.6693425125553368,
        -0.6473801368664922,
        -0.6236174523471432,
        -0.5981918426396629,
        -0.5712435284761817,
        -0.5429145998575404,
        -0.51334821054069,
        -0.4826877751999965,
        -0.4510762486152815,
        -0.41865547695316063,
        -0.3855656438900888,
        -0.35194470203700945,
        -0.31792799034625513,
        -0.28364783721223896,
        -0.24923323777476764,
        -0.21480962833198822,
        -0.18049852750505463,
        -0.1464174353292341,
        -0.11267962779717991,
        -0.07939399478231532,
        -0.04666489354595076,
        -0.01459200467598275,
        0.016729808931635847,
        0.047210643663392345,
        0.07676567160616657,
        0.10531535962926876,
        0.13278557827188686,
        0.15910770456776452,
        0.1842188168058588,
        0.20806181396024245,
        0.23058553819775543,
        0.25174488030131303,
        0.27150084129428687,
        0.2898206503340684,
        0.30667772617825745,
        0.32205172300081236,
        0.3359284582232139,
        0.348299839104218,
        0.3591637434618011,
        0.36852384203533134,
        0.37638945974812005
    ],
    "hit_any_weight": [
        0,
        0,
        0,
        4,
        4,
        8,
        14,
        32,
        34,
        42,
        43,
        57,
        59,
        71,
        92,
        97,
        98,
        182,
        182,
        214,
        216,
        218,
        282,
        282,
        282,
        306,
        306,
        310,
        310,
        404,
        437,
        505,
        611,
        649,
        763,
        810,
        832,
        844,
        880,
        892,
        916,
        928,
        986,
        994,
        1198,
        1414,
        1472,
        1534,
        1546,
        1707,
        1980,
        2198,
        2279,
        2318,
        2368,
        2382,
        2414,
        2534,
        2558,
        2557,
        2560,
        2571,
        2706,
        2755,
        3379,
        3727,
        3851,
        4114,
        4266,
        4350,
        4646,
        5016,
        5094,
        5160,
        5224,
        5250,
        5482,
        5506,
        5540,
        5638,
        5688,
        5740,
        5828,
        5940,
        6104,
        6502,
        6545,
        6778,
        7209,
        7388,
        7902,
        8348,
        9075,
        9317,
        9991,
        10075,
        10673,
        10766,
        11041,
        11290,
        11362
    ],
    "drop_weight_only": [
        0,
        0,
        0,
        0,
        0,
        0,
        0,
        0,
        0,
        0,
        0,
        2,
        2,
        4,
        4,
        8,
        10,
        20,
        20,
        22,
        22,
        22,
        26,
        31,
        40,
        48,
        58,
        68,
        80,
        96,
        111,
        117,
        121,
        121,
        133,
        139,
        145,
        150,
        163,
        182,
        196,
        216,
        248,
        264,
        280,
        310,
        364,
        390,
        426,
        444,
        456,
        472,
        480,
        496,
        512,
        532,
        550,
        578,
        609,
        653,
        687,
        747,
        835,
        883,
        921,
        965,
        986,
        1066,
        1136,
        1176,
        1208,
        1234,
        1262,
        1294,
        1336,
        1389,
        1430,
        1480,
        1538,
        1610,
        1662,
        1736,
        1798,
        1861,
        1908,
        1940,
        2004,
        2106,
        2132,
        2174,
        2211,
        2209,
        2260,
        2330,
        2356,
        2454,
        2536,
        2552,
        2626,
        2758,
        2804
    ],
    "hit_coeff": [
        0,
        0,
        25,
        70,
        64,
        65,
        116,
        152,
        154,
        154,
        146,
        210,
        202,
        235,
        298,
        314,
        304,
        425,
        415,
        444,
        428,
        462,
        541,
        518,
        498,
        546,
        524,
        510,
        484,
        638,
        730,
        818,
        945,
        990,
        1102,
        1145,
        1139,
        1138,
        1125,
        1117,
        1165,
        1149,
        1174,
        1141,
        1521,
        1813,
        1816,
        1823,
        1786,
        1999,
        2322,
        2524,
        2603,
        2632,
        2640,
        2609,
        2600,
        2675,
        2652,
        2577,
        2525,
        2441,
        2533,
        2522,
        3268,
        3686,
        3820,
        4001,
        4100,
        4136,
        4381,
        4776,
        4800,
        4797,
        4801,
        4734,
        4987,
        4991,
        4941,
        4985,
        4973,
        4929,
        4959,
        5109,
        5279,
        5695,
        5633,
        5789,
        6242,
        6394,
        6999,
        7543,
        8328,
        8517,
        9141,
        9063,
        9668,
        9727,
        9930,
        10064,
        10082
    ],
    "drop_coeff_and_weight": [
        0,
        0,
        0,
        4,
        4,
        8,
        14,
        32,
        34,
        42,
        43,
        55,
        57,
        67,
        88,
        89,
        88,
        162,
        162,
        192,
        194,
        196,
        256,
        251,
        242,
        258,
        248,
        242,
        230,
        308,
        326,
        388,
        490,
        528,
        630,
        671,
        687,
        694,
        717,
        710,
        720,
        712,
        738,
        730,
        918,
        1104,
        1108,
        1144,
        1120,
        1263,
        1524,
        1726,
        1799,
        1822,
        1856,
        1850,
        1864,
        1956,
        1949,
        1904,
        1873,
        1824,
        1871,
        1872,
        2458,
        2762,
        2865,
        3048,
        3130,
        3174,
        3438,
        3782,
        3832,
        3866,
        3888,
        3861,
        4052,
        4026,
        4002,
        4028,
        4026,
        4004,
        4030,
        4079,
        4196,
        4562,
        4541,
        4672,
        5077,
        5214,
        5691,
        6139,
        6815,
        6987,
        7635,
        7621,
        8137,
        8214,
        8415,
        8532,
        8558
    ],
    "hit_z": [
        0,
        0,
        0,
        0,
        0,
        0,
        0,
        0,
        0,
        0,
        0,
        0,
        0,
        0,
        0,
        0,
        0,
        0,
        0,
        0,
        0,
        0,
        0,
        0,
        0,
        0,
        0,
        0,
        0,
        0,
        0,
        0,
        0,
        0,
        0,
        0,
        0,
        0,
        0,
        0,
        0,
        0,
        0,
        0,
        0,
        0,
        0,
        0,
        0,
        0,
        0,
        0,
        0,
        0,
        0,
        0,
        0,
        0,
        0,
        0,
        0,
        0,
        0,
        0,
        0,
        0,
        0,
        0,
        0,
        0,
        0,
        0,
        0,
        0,
        0,
        0,
        0,
        0,
        0,
        0,
        0,
        0,
        0,
        0,
        0,
        0,
        0,
        0,
        0,
        0,
        0,
        0,
        0,
        0,
        0,
        0,
        0,
        0,
        0,
        0,
        0
    ],
    "manifest_toml_sha256": "0bc8dd956e2d53dfc75dae382811cbae5159e33b4ab25664d941105fcfb60c81",
    "git_dirty": true,
    "experiment": "chain16",
    "overlap_raw": [
        1,
        0.9981469226820251,
        0.9925975148175246,
        0.9833811420055051,
        0.9705463939665037,
        0.9541605639854637,
        0.9343089386545613,
        0.9110939108960754,
        0.8846339422514448,
        0.8550623937807759,
        0.8225262868308213,
        0.7871848890947739,
        0.749208371416658,
        0.7087763804602134,
        0.6660766293664168,
        0.6213035196823057,
        0.5746568157824193,
        0.5263403913262945,
        0.47656105597015525,
        0.425527483211955,
        0.3734492477284428,
        0.3205359317773455,
        0.26699637181709923,
        0.21303798294343385,
        0.1588661701641862,
        0.10468381255672358,
        0.05069080589567071,
        -0.0029163462466026933,
        -0.05594489854654541,
        -0.10820629606996097,
        -0.15951649562759299,
        -0.20969637552932008,
        -0.2585721564162158,
        -0.30597585522386717,
        -0.3517457915473888,
        -0.39572712270094756,
        -0.4377724291383461,
        -0.4777423151232828,
        -0.5155061226038335,
        -0.5509425481360332,
        -0.5839403349940375,
        -0.6143989442084397,
        -0.6422291951649065,
        -0.6673538722253228,
        -0.6897082630823781,
        -0.7092406294639858,
        -0.725912583411453,
        -0.7396993620266968,
        -0.7505900038664345,
        -0.7585873350781277,
        -0.7637079091341991,
        -0.7659818025965468,
        -0.7654522338376919,
        -0.7621751037842937,
        -0.7562183903943047,
        -0.7476614598841996,
        -0.7365942672356552,
        -0.7231165225973742,
        -0.7073366696862877,
        -0.6893709792119974,
        -0.6693425209714154,
        -0.6473801397467732,
        -0.6236174598543842,
        -0.5981918557546623,
        -0.5712435299691987,
        -0.5429146033130019,
        -0.5133482165242413,
        -0.48268778439334903,
        -0.4510762617255575,
        -0.4186554950547436,
        -0.3855656452378778,
        -0.35194470565644403,
        -0.3179279983592546,
        -0.28364785543692717,
        -0.2492332703940794,
        -0.2148096324473406,
        -0.18049853351956077,
        -0.14641744216207206,
        -0.1126796351428366,
        -0.07939400219084325,
        -0.046664902029388375,
        -0.014592015665371386,
        0.016729795272201285,
        0.04721062726473979,
        0.07676568012005953,
        0.10531537560256443,
        0.13278557769561158,
        0.15910770371282515,
        0.18421881419604924,
        0.20806180762822815,
        0.23058552568067764,
        0.2517448601181835,
        0.27150083454499574,
        0.28982064056829515,
        0.30667772563187556,
        0.32205172070676796,
        0.3359284509917712,
        0.3482998260328565,
        0.3591637250927129,
        0.3685238383186586,
        0.3763894564379376
    ],
    "overlap_dropped": [
        0,
        0,
        0,
        0,
        0,
        0,
        1.248715528732547e-9,
        4.96607569726365e-9,
        1.4078921704743505e-8,
        0,
        0,
        0,
        0,
        0,
        5.897592334208656e-11,
        1.7358797121380263e-10,
        3.7694997234510186e-10,
        2.241198233682704e-9,
        5.626076072589964e-9,
        0,
        0,
        1.1673918264439319e-9,
        2.868907391302562e-9,
        5.2758424532007735e-9,
        8.587915229343762e-9,
        1.2933258299513223e-8,
        1.7046988701074036e-8,
        0,
        0,
        9.858801828239036e-11,
        2.4814798018546657e-10,
        4.5788604704134735e-10,
        7.426031666851224e-10,
        4.125626169870985e-9,
        8.865565779220944e-9,
        1.5733434206299403e-8,
        1.3725387443442825e-9,
        2.248052482738736e-9,
        3.2709734658538853e-9,
        4.455949366097916e-9,
        5.794976092024858e-9,
        6.0463610850596285e-9,
        6.18591695942222e-9,
        4.74694567786064e-9,
        2.419570911016857e-9,
        -1.004239689317078e-9,
        -5.735439649644809e-9,
        7.916577052347162e-9,
        8.960002045388859e-9,
        -1.3349436744126368e-10,
        -4.377550091295152e-10,
        -8.852596881590657e-10,
        -2.1050009324169046e-10,
        -3.3836245933138844e-9,
        -8.663644003191717e-9,
        -1.7852800447633398e-8,
        2.4409489148096643e-9,
        2.0106145230188976e-9,
        5.505556645415021e-10,
        -2.2498186635451003e-9,
        -8.416078654559133e-9,
        -2.8802810195861e-9,
        -7.507241007739135e-9,
        -1.3114999423951812e-8,
        -1.4930170049456547e-9,
        -3.455461526675905e-9,
        -5.983551280391036e-9,
        -9.193352510129137e-9,
        -1.3110275957735963e-8,
        -1.810158297029025e-8,
        -1.3477889759831555e-9,
        -3.6194345911720617e-9,
        -8.012999502146395e-9,
        -1.8224688191909263e-8,
        -3.2619311762275276e-8,
        -4.115352390729785e-9,
        -6.014506156976143e-9,
        -6.8328379505589155e-9,
        -7.3456566960624174e-9,
        -7.408527932726737e-9,
        -8.483437609413144e-9,
        -1.0989388637528329e-8,
        -1.365943456336256e-8,
        -1.6398652555415265e-8,
        8.513892963559456e-9,
        1.5973295678801032e-8,
        -5.762752809880013e-10,
        -8.549393725577385e-10,
        -2.609809553070303e-9,
        -6.332014312419297e-9,
        -1.2517077792435306e-8,
        -2.018312954000526e-8,
        -6.74929112455244e-9,
        -9.76577324018915e-9,
        -5.463818573588253e-10,
        -2.294044423009701e-9,
        -7.2314426933912116e-9,
        -1.3071361541807144e-8,
        -1.8369088207604942e-8,
        -3.716672722916317e-9,
        -3.3101824603205205e-9
    ],
    "rule": {
        "label": "xyz6_d1em08",
        "weight_period": 1,
        "family": "xyz+coeff",
        "tau_z": 0,
        "c_gate": 1.0e-16,
        "tau_xyz": 6,
        "tau_xy": 0,
        "rule_hash": "eaec933d28",
        "coeff_min": 1.0e-8
    },
    "n_kept": [
        1,
        5,
        17,
        26,
        32,
        41,
        45,
        51,
        61,
        69,
        80,
        84,
        100,
        111,
        115,
        127,
        150,
        155,
        165,
        178,
        199,
        213,
        229,
        247,
        260,
        272,
        284,
        304,
        318,
        334,
        346,
        358,
        373,
        404,
        434,
        454,
        480,
        506,
        544,
        575,
        599,
        607,
        628,
        662,
        686,
        701,
        717,
        750,
        775,
        800,
        831,
        873,
        907,
        933,
        975,
        1002,
        1029,
        1073,
        1111,
        1141,
        1162,
        1197,
        1228,
        1254,
        1288,
        1328,
        1365,
        1398,
        1439,
        1478,
        1532,
        1569,
        1623,
        1664,
        1694,
        1746,
        1800,
        1836,
        1878,
        1902,
        1924,
        1966,
        1998,
        2017,
        2058,
        2090,
        2152,
        2194,
        2220,
        2252,
        2282,
        2337,
        2362,
        2405,
        2469,
        2559,
        2618,
        2656,
        2702,
        2769,
        2815
    ],
    "hit_xyz": [
        0,
        0,
        0,
        4,
        4,
        8,
        14,
        32,
        34,
        42,
        43,
        57,
        59,
        71,
        92,
        97,
        98,
        182,
        182,
        214,
        216,
        218,
        282,
        282,
        282,
        306,
        306,
        310,
        310,
        404,
        437,
        505,
        611,
        649,
        763,
        810,
        832,
        844,
        880,
        892,
        916,
        928,
        986,
        994,
        1198,
        1414,
        1472,
        1534,
        1546,
        1707,
        1980,
        2198,
        2279,
        2318,
        2368,
        2382,
        2414,
        2534,
        2558,
        2557,
        2560,
        2571,
        2706,
        2755,
        3379,
        3727,
        3851,
        4114,
        4266,
        4350,
        4646,
        5016,
        5094,
        5160,
        5224,
        5250,
        5482,
        5506,
        5540,
        5638,
        5688,
        5740,
        5828,
        5940,
        6104,
        6502,
        6545,
        6778,
        7209,
        7388,
        7902,
        8348,
        9075,
        9317,
        9991,
        10075,
        10673,
        10766,
        11041,
        11290,
        11362
    ],
    "git_commit": "unknown",
    "n_raw": [
        1,
        5,
        42,
        96,
        96,
        106,
        161,
        203,
        215,
        223,
        226,
        296,
        304,
        350,
        417,
        449,
        464,
        600,
        600,
        644,
        649,
        697,
        796,
        796,
        798,
        866,
        866,
        882,
        882,
        1068,
        1187,
        1293,
        1439,
        1515,
        1669,
        1738,
        1764,
        1794,
        1832,
        1874,
        1960,
        1972,
        2050,
        2067,
        2487,
        2824,
        2897,
        2963,
        2987,
        3243,
        3609,
        3869,
        3990,
        4061,
        4127,
        4143,
        4179,
        4326,
        4372,
        4371,
        4374,
        4385,
        4596,
        4659,
        5477,
        5979,
        6171,
        6465,
        6675,
        6790,
        7121,
        7579,
        7685,
        7755,
        7831,
        7869,
        8217,
        8307,
        8357,
        8497,
        8559,
        8631,
        8755,
        8987,
        9245,
        9725,
        9789,
        10089,
        10594,
        10820,
        11492,
        12089,
        12950,
        13252,
        13966,
        14076,
        14822,
        14935,
        15258,
        15591,
        15701
    ],
    "weight_second_moment_raw": [
        1,
        1.0000029617816564,
        1.0000265588691284,
        1.000105655082256,
        1.000291350148842,
        1.0006495780004767,
        1.001259292783812,
        1.0022102879489747,
        1.0036007029926333,
        1.0055342803071476,
        1.008117440923365,
        1.0114562525745427,
        1.0156533663352165,
        1.020804999029587,
        1.0269980376333605,
        1.0343073390340058,
        1.042793293837596,
        1.052499716532915,
        1.0634521164066477,
        1.075656394347835,
        1.0890980003210915,
        1.1037415750900648,
        1.119531088020567,
        1.1363904707848425,
        1.1542247348279648,
        1.1729215488442835,
        1.192353241533789,
        1.2123791848336372,
        1.232848503889546,
        1.2536030524533672,
        1.2744805863359268,
        1.2953180631355996,
        1.315954993785544,
        1.336236770553714,
        1.3560178969821324,
        1.3751650478150237,
        1.393559891149616,
        1.411101610721826,
        1.4277090732548612,
        1.443322593968876,
        1.4579052624697333,
        1.4714438010869424,
        1.4839489380859774,
        1.4954552888066255,
        1.5060207484442203,
        1.5157254106677271,
        1.5246700363392287,
        1.5329741060568016,
        1.5407734988968498,
        1.5482178474095611,
        1.5554676254706714,
        1.5626910308853508,
        1.570060728571782,
        1.577750522647138,
        1.5859320267488708,
        1.5947714014326781,
        1.6044262255088946,
        1.615042564757859,
        1.626752296679142,
        1.6396707438885545,
        1.6538946616197518,
        1.6695006166779154,
        1.6865437863225352,
        1.7050571961323533,
        1.7250514061518734,
        1.74651464476706,
        1.7694133800437422,
        1.7936933089143543,
        1.819280735839149,
        1.846084304598362,
        1.8739970398730406,
        1.9028986493962534,
        1.9326580328246767,
        1.9631359401749604,
        1.9941877207437495,
        2.025666102889547,
        2.0574239458776233,
        2.0893169071138473,
        2.1212059714298315,
        2.1529597935101004,
        2.1844568099328834,
        2.215587083470915,
        2.246253849097012,
        2.276374738385352,
        2.305882666516208,
        2.3347263737028396,
        2.36287062039983,
        2.390296042964614,
        2.4169986833853185,
        2.4429892131332673,
        2.4682918770332645,
        2.492943188180727,
        2.5169904092937836,
        2.5404898594122396,
        2.563505087506727,
        2.5861049563109875,
        2.6083616805335463,
        2.630348863543779,
        2.6521395756850805,
        2.6738045155728325,
        2.6954102931375585
    ],
    "hit_multiple_weight": [
        0,
        0,
        0,
        0,
        0,
        0,
        0,
        0,
        0,
        0,
        0,
        0,
        0,
        0,
        0,
        0,
        0,
        0,
        0,
        0,
        0,
        0,
        0,
        0,
        0,
        0,
        0,
        0,
        0,
        0,
        0,
        0,
        0,
        0,
        0,
        0,
        0,
        0,
        0,
        0,
        0,
        0,
        0,
        0,
        0,
        0,
        0,
        0,
        0,
        0,
        0,
        0,
        0,
        0,
        0,
        0,
        0,
        0,
        0,
        0,
        0,
        0,
        0,
        0,
        0,
        0,
        0,
        0,
        0,
        0,
        0,
        0,
        0,
        0,
        0,
        0,
        0,
        0,
        0,
        0,
        0,
        0,
        0,
        0,
        0,
        0,
        0,
        0,
        0,
        0,
        0,
        0,
        0,
        0,
        0,
        0,
        0,
        0,
        0,
        0,
        0
    ],
    "autocorr_raw": [
        1,
        0.9981469226820251,
        0.9925960394100215,
        0.983372351948895,
        0.9705173825897012,
        0.9540889541713333,
        0.934160884095916,
        0.9108225943004602,
        0.8841786396764113,
        0.8543481579348288,
        0.8214642443938033,
        0.7856732556125391,
        0.7471340462100042,
        0.7060171435824311,
        0.6625038655710667,
        0.6167853864278159,
        0.5690617566807766,
        0.5195408827136423,
        0.4684374720425812,
        0.4159719504019877,
        0.36236935683733995,
        0.30785822305054855,
        0.2526694432521639,
        0.197035140747372,
        0.14118753742072693,
        0.08535783219000184,
        0.029775094374362196,
        -0.025334822231784286,
        -0.07975033896857071,
        -0.13325518019912586,
        -0.18563936430091865,
        -0.23670015283536988,
        -0.2862429532429166,
        -0.33408217070197477,
        -0.3800420050998636,
        -0.423957189390718,
        -0.46567366595875104,
        -0.505049197963959,
        -0.5419539130204744,
        -0.5762707769441489,
        -0.6078959957043529,
        -0.6367393441239965,
        -0.6627244202897878,
        -0.6857888250599075,
        -0.7058842664864897,
        -0.7229765894032407,
        -0.7370457308615744,
        -0.7480856025290223,
        -0.7561039015883261,
        -0.7611218520913897,
        -0.7631738791258311,
        -0.7623072185398692,
        -0.7585814653403399,
        -0.7520680642254332,
        -0.7428497460350938,
        -0.7310199141949486,
        -0.7166819854913478,
        -0.6999486897432439,
        -0.6809413331290987,
        -0.65978903008219,
        -0.6366279087843912,
        -0.6116002953660072,
        -0.584853881957371,
        -0.556540883736895,
        -0.5268171900809187,
        -0.4958415148442114,
        -0.46377455068806256,
        -0.4307781322275622,
        -0.3970144125933699,
        -0.3626450577986723,
        -0.32783046307207675,
        -0.2927289950649731,
        -0.2574962635706236,
        -0.2222844261051517,
        -0.18724152840092,
        -0.15251088355367076,
        -0.1182304922492678,
        -0.08453250617679453,
        -0.05154273641477963,
        -0.01938020825887049,
        0.011843236355464366,
        0.042023287990725765,
        0.07106346986298931,
        0.09887538876572768,
        0.12537893679543263,
        0.1505024441849377,
        0.17418278381102908,
        0.19636542819138095,
        0.21700446002159288,
        0.2360625375257787,
        0.2535108161034648,
        0.26932882795126706,
        0.2835043215197053,
        0.29603306283337333,
        0.3069186008562814,
        0.3161719992232723,
        0.32381153678270785,
        0.329862379504809,
        0.33435622640378365,
        0.3373309321998306,
        0.33883010950892756
    ],
    "complete": true,
    "schema_version": "pds-ppml-v3.0",
    "hit_xy": [
        0,
        0,
        0,
        0,
        0,
        0,
        0,
        0,
        0,
        0,
        0,
        0,
        0,
        0,
        0,
        0,
        0,
        0,
        0,
        0,
        0,
        0,
        0,
        0,
        0,
        0,
        0,
        0,
        0,
        0,
        0,
        0,
        0,
        0,
        0,
        0,
        0,
        0,
        0,
        0,
        0,
        0,
        0,
        0,
        0,
        0,
        0,
        0,
        0,
        0,
        0,
        0,
        0,
        0,
        0,
        0,
        0,
        0,
        0,
        0,
        0,
        0,
        0,
        0,
        0,
        0,
        0,
        0,
        0,
        0,
        0,
        0,
        0,
        0,
        0,
        0,
        0,
        0,
        0,
        0,
        0,
        0,
        0,
        0,
        0,
        0,
        0,
        0,
        0,
        0,
        0,
        0,
        0,
        0,
        0,
        0,
        0,
        0,
        0,
        0,
        0
    ],
    "project_toml_sha256": "0f476d319d0bc551a77a410c1947451ebb8d68d98f047a4d3a348358de256696"
}